{"learner":{"attributes":{"feature_names":"avg_delay_days,category,day_of_week,ending_stock,is_weekend,lag_1,lag_14,lag_30,lag_7,lift_factor,ma_14,ma_30,ma_7,month,on_time_rate,quarter,shelf_life_days,std_14,std_7,supplier,unit_cost","scikit_learn":"{\"_estimator_type\": \"regressor\"}"},"feature_names":["avg_delay_days","category","day_of_week","ending_stock","is_weekend","lag_1","lag_14","lag_30","lag_7","lift_factor","ma_14","ma_30","ma_7","month","on_time_rate","quarter","shelf_life_days","std_14","std_7","supplier","unit_cost"],"feature_types":["int","int","int","int","int","float","float","float","float","int","float","float","float","int","int","int","int","float","float","int","int"],"gradient_booster":{"model":{"cats":{"enc":[],"feature_segments":[],"sorted_idx":[]},"gbtree_model_param":{"num_parallel_tree":"1","num_trees":"350"},"iteration_indptr":[0,1,2,3,4,5,6,7,8,9,10,11,12,13,14,15,16,17,18,19,20,21,22,23,24,25,26,27,28,29,30,31,32,33,34,35,36,37,38,39,40,41,42,43,44,45,46,47,48,49,50,51,52,53,54,55,56,57,58,59,60,61,62,63,64,65,66,67,68,69,70,71,72,73,74,75,76,77,78,79,80,81,82,83,84,85,86,87,88,89,90,91,92,93,94,95,96,97,98,99,100,101,102,103,104,105,106,107,108,109,110,111,112,113,114,115,116,117,118,119,120,121,122,123,124,125,126,127,128,129,130,131,132,133,134,135,136,137,138,139,140,141,142,143,144,145,146,147,148,149,150,151,152,153,154,155,156,157,158,159,160,161,162,163,164,165,166,167,168,169,170,171,172,173,174,175,176,177,178,179,180,181,182,183,184,185,186,187,188,189,190,191,192,193,194,195,196,197,198,199,200,201,202,203,204,205,206,207,208,209,210,211,212,213,214,215,216,217,218,219,220,221,222,223,224,225,226,227,228,229,230,231,232,233,234,235,236,237,238,239,240,241,242,243,244,245,246,247,248,249,250,251,252,253,254,255,256,257,258,259,260,261,262,263,264,265,266,267,268,269,270,271,272,273,274,275,276,277,278,279,280,281,282,283,284,285,286,287,288,289,290,291,292,293,294,295,296,297,298,299,300,301,302,303,304,305,306,307,308,309,310,311,312,313,314,315,316,317,318,319,320,321,322,323,324,325,326,327,328,329,330,331,332,333,334,335,336,337,338,339,340,341,342,343,344,345,346,347,348,349,350],"tree_info":[0,0,0,0,0,0,0,0,0,0,0,0,0,0,0,0,0,0,0,0,0,0,0,0,0,0,0,0,0,0,0,0,0,0,0,0,0,0,0,0,0,0,0,0,0,0,0,0,0,0,0,0,0,0,0,0,0,0,0,0,0,0,0,0,0,0,0,0,0,0,0,0,0,0,0,0,0,0,0,0,0,0,0,0,0,0,0,0,0,0,0,0,0,0,0,0,0,0,0,0,0,0,0,0,0,0,0,0,0,0,0,0,0,0,0,0,0,0,0,0,0,0,0,0,0,0,0,0,0,0,0,0,0,0,0,0,0,0,0,0,0,0,0,0,0,0,0,0,0,0,0,0,0,0,0,0,0,0,0,0,0,0,0,0,0,0,0,0,0,0,0,0,0,0,0,0,0,0,0,0,0,0,0,0,0,0,0,0,0,0,0,0,0,0,0,0,0,0,0,0,0,0,0,0,0,0,0,0,0,0,0,0,0,0,0,0,0,0,0,0,0,0,0,0,0,0,0,0,0,0,0,0,0,0,0,0,0,0,0,0,0,0,0,0,0,0,0,0,0,0,0,0,0,0,0,0,0,0,0,0,0,0,0,0,0,0,0,0,0,0,0,0,0,0,0,0,0,0,0,0,0,0,0,0,0,0,0,0,0,0,0,0,0,0,0,0,0,0,0,0,0,0,0,0,0,0,0,0,0,0,0,0,0,0,0,0,0,0,0,0,0,0,0,0,0,0,0,0,0,0,0,0,0,0,0,0,0,0,0,0,0,0,0,0,0,0,0,0,0,0],"trees":[{"base_weights":[1.8920232E-1,-1.709997E1,7.129956E0,-2.6581293E1,-1.1750756E1,-8.266884E-1,1.2981962E1,-1.340213E0,-3.4680483E-1,-1.3841996E1,-8.608366E0,6.2838235E0,-1.34829E0,1.1485495E1,1.59419155E1,-1.0281052E1,-1.8377108E1,-2.4744762E-1,-1.0990129E1,6.151123E-1,1.7368317E0,-1.8080872E0,6.6691623E0,1.2250962E1,6.4265985E0,-2.9680482E-1,1.631277E1,-4.041443E-1,-1.1140657E1,8.520508E-2,-1.9919184E1,6.702246E0,-5.176165E0,-1.1493599E1,1.5319519E-1,-2.718048E-1,3.5381207E0,-5.5919904E-1,-6.199481E0,2.4398396E0,1.1345856E1,1.2460195E1,-1.2481283E0,7.9312453E0,-3.1240642E-1,1.6848255E1,1.297928E-1,1.0852051E0,-1.2180481E-1,5.319519E-2,-1.1542732E1,1.5319519E-1,-1.4680481E-1,-1.18904505E1,-1.0967425E0,4.297928E-1,-2.180481E-2,1.0224609E-1,-6.1240643E-1,-1.2126186E1,-9.147949E-1,5.022461E-1,3.7092695E-1,-2.3824842E0,1.2732534E0,-8.848877E-1,-4.0764527E0,1.5479279E-1,3.759359E-2,7.2092694E-1,5.319519E-2,1.8715027E1,1.1864888E1,-1.7180482E-1,7.819519E-2,6.351123E-1,6.061466E0,1.842296E1,1.3353662E1,3.1951906E-3,7.819519E-2,-6.9661765E0,-1.3514365E1,-1.7180482E-1,-6.3634133E-1,1.0958557E0,-9.680481E-2,-6.319022E0,-1.3223262E1,1.0319519E-1,-1.7180482E-1,1.5319519E-1,-9.041443E-1,4.8458557E0,-2.8399131E0,6.531952E-1,8.590108E-1,3.102246E0,-5.300185E0,1.5319519E-1,2.0113607E1,1.5958557E0,1.2102378E1,1.1102246E1,3.6564379E0,1.8777203E1,5.319519E-2,4.6065063E0,1.521696E1,-4.123724E-1,1.781952E-1,-7.255249E-1,-2.7020723E-1,3.1951906E-3,7.092693E-2,1.0319519E-1,-4.0300804E-1,-7.4986786E-1,-4.4424868E-1,-6.2406417E-2,3.1951906E-3,3.2819518E-1,1.0426026E-1,-1.5775682E-1,3.781952E-1,-2.6080883E-1,1.1646404E-1,-2.907308E-2,2.8759357E-1,-1.8519181E-1,-6.577072E-1,2.031952E-1,1.0805916E0,1.5426026E-1,-7.1804814E-2,5.598612E-1,7.6013476E-1,1.5319519E-1,6.172928E-1,4.340489E-1,-9.452253E-2,3.422928E-1,9.725208E-1,4.251123E-1,-3.718048E-1,8.007909E-1,2.5426027E-1],"categories":[],"categories_nodes":[],"categories_segments":[],"categories_sizes":[],"default_left":[0,0,1,0,0,0,0,0,0,0,0,0,0,0,0,0,0,0,0,0,0,0,0,0,0,0,0,0,0,0,0,0,0,0,0,0,0,0,0,0,0,0,0,0,0,0,0,0,0,0,0,0,0,0,0,0,0,0,0,0,0,0,0,0,0,0,0,0,0,0,0,0,0,0,0,0,0,0,0,0,0,0,0,0,0,0,0,0,0,0,0,0,0,0,0,0,0,0,0,0,0,0,0,0,0,0,0,0,0,0,0,0,0,0,0,0,0,0,0,0,0,0,0,0,0,0,0,0,0,0,0,0,0,0,0,0,0,0,0,0,0,0,0,0,0,0,0],"id":0,"left_children":[1,3,5,7,9,11,13,-1,-1,15,17,19,21,23,25,27,29,31,33,-1,35,37,39,41,43,-1,45,47,49,51,53,55,57,59,-1,-1,61,63,65,67,69,71,73,75,-1,77,-1,79,-1,-1,81,-1,-1,83,-1,-1,-1,85,-1,87,89,91,-1,93,95,-1,97,-1,-1,-1,-1,99,101,-1,-1,-1,103,105,107,-1,-1,109,111,-1,-1,113,-1,115,117,-1,-1,-1,119,121,123,-1,125,127,129,-1,131,133,135,137,139,141,-1,143,145,-1,-1,-1,-1,-1,-1,-1,-1,-1,-1,-1,-1,-1,-1,-1,-1,-1,-1,-1,-1,-1,-1,-1,-1,-1,-1,-1,-1,-1,-1,-1,-1,-1,-1,-1,-1,-1,-1],"loss_changes":[6.828185E4,7.954625E3,1.8915037E4,6.813281E1,5.774209E2,6.501042E2,8.5339844E2,0E0,0E0,8.123203E2,8.933982E2,3.0702173E2,6.092557E2,5.369824E2,7.1346484E2,3.0963647E2,7.419238E2,4.1147577E2,2.828672E2,0E0,1.225977E2,8.4112476E2,1.5033115E2,4.0250195E2,4.881881E2,0E0,5.071543E2,1.4748809E1,1.7912305E2,3.5994556E1,1.2758301E2,7.133479E1,2.625534E2,2.1643604E2,0E0,0E0,7.8737305E1,4.0730463E2,7.578352E2,4.3163185E0,1.11032776E2,2.80625E2,2.383163E1,1.1034094E2,0E0,1.5019922E2,0E0,1.3667471E0,0E0,0E0,2.0362549E2,0E0,0E0,5.7666016E0,0E0,0E0,0E0,1.2248264E1,0E0,1.2031055E2,2.9622362E1,2.0783665E1,0E0,2.1545532E2,2.8671353E2,0E0,2.7998663E2,0E0,0E0,0E0,0E0,1.5726733E2,2.879746E2,0E0,0E0,0E0,1.6550012E2,2.6904004E2,3.5366504E2,0E0,0E0,1.9129584E2,9.931836E1,0E0,0E0,1.2413225E0,0E0,1.18806244E2,6.685889E1,0E0,0E0,0E0,1.4117322E0,5.284645E0,2.1407758E2,0E0,5.480799E2,5.214672E1,2.772583E2,0E0,1.2858594E2,2.249319E1,1.7494336E2,1.215625E1,3.787283E2,2.3633398E2,0E0,3.4471262E2,8.852734E1,0E0,0E0,0E0,0E0,0E0,0E0,0E0,0E0,0E0,0E0,0E0,0E0,0E0,0E0,0E0,0E0,0E0,0E0,0E0,0E0,0E0,0E0,0E0,0E0,0E0,0E0,0E0,0E0,0E0,0E0,0E0,0E0,0E0,0E0,0E0,0E0,0E0,0E0],"parents":[2147483647,0,0,1,1,2,2,3,3,4,4,5,5,6,6,9,9,10,10,11,11,12,12,13,13,14,14,15,15,16,16,17,17,18,18,20,20,21,21,22,22,23,23,24,24,26,26,27,27,28,28,29,29,30,30,31,31,32,32,33,33,36,36,37,37,38,38,39,39,40,40,41,41,42,42,43,43,45,45,47,47,50,50,53,53,57,57,59,59,60,60,61,61,63,63,64,64,66,66,71,71,72,72,76,76,77,77,78,78,81,81,82,82,85,85,87,87,88,88,92,92,93,93,94,94,96,96,97,97,98,98,100,100,101,101,102,102,103,103,104,104,105,105,107,107,108,108],"right_children":[2,4,6,8,10,12,14,-1,-1,16,18,20,22,24,26,28,30,32,34,-1,36,38,40,42,44,-1,46,48,50,52,54,56,58,60,-1,-1,62,64,66,68,70,72,74,76,-1,78,-1,80,-1,-1,82,-1,-1,84,-1,-1,-1,86,-1,88,90,92,-1,94,96,-1,98,-1,-1,-1,-1,100,102,-1,-1,-1,104,106,108,-1,-1,110,112,-1,-1,114,-1,116,118,-1,-1,-1,120,122,124,-1,126,128,130,-1,132,134,136,138,140,142,-1,144,146,-1,-1,-1,-1,-1,-1,-1,-1,-1,-1,-1,-1,-1,-1,-1,-1,-1,-1,-1,-1,-1,-1,-1,-1,-1,-1,-1,-1,-1,-1,-1,-1,-1,-1,-1,-1,-1,-1],"split_conditions":[5.4666668E1,3.757143E1,6.3375E1,4.9E1,4.6133335E1,5.2714287E1,7.292308E1,-1.340213E0,-3.4680483E-1,4.5E1,4.6866665E1,5.2E1,7.5E1,7.9E1,4.9E1,3E1,2.9E1,4.4E1,5.557143E1,6.151123E-1,4.5E1,5.8733334E1,7E1,1.7957623E1,7.253333E1,-2.9680482E-1,1.696916E1,3.7E1,1.5E1,1E0,4E1,1.1056134E1,4.8E1,1.4735768E1,1.5319519E-1,-2.718048E-1,8.901578E0,5.7142857E1,4.9E1,7.7781744E0,7.6E1,5.2E1,7.3E1,6.2E1,-3.1240642E-1,7.9E1,1.297928E-1,3E1,-1.2180481E-1,5.319519E-2,4.1E1,1.5319519E-1,-1.4680481E-1,4.8E1,-1.0967425E0,4.297928E-1,-2.180481E-2,1E0,-6.1240643E-1,4.4E1,5.3E1,5.2E1,3.7092695E-1,3.8E1,3.3E1,-8.848877E-1,4.5E1,1.5479279E-1,3.759359E-2,7.2092694E-1,5.319519E-2,5.6E1,5.4E1,-1.7180482E-1,7.819519E-2,6.351123E-1,7.7766438E0,7.773333E1,8.3E1,3.1951906E-3,7.819519E-2,1.3603921E1,4.4E1,-1.7180482E-1,-6.3634133E-1,4.6E1,-9.680481E-2,4.3E1,4.8533333E1,1.0319519E-1,-1.7180482E-1,1.5319519E-1,5.6E1,3.3E1,2.404163E1,6.531952E-1,5E1,3E0,1E0,1.5319519E-1,4.4E1,1E0,7.8E1,6.9E1,6.2E1,6.2E1,5.319519E-2,7.9E1,8.7E1,-4.123724E-1,1.781952E-1,-7.255249E-1,-2.7020723E-1,3.1951906E-3,7.092693E-2,1.0319519E-1,-4.0300804E-1,-7.4986786E-1,-4.4424868E-1,-6.2406417E-2,3.1951906E-3,3.2819518E-1,1.0426026E-1,-1.5775682E-1,3.781952E-1,-2.6080883E-1,1.1646404E-1,-2.907308E-2,2.8759357E-1,-1.8519181E-1,-6.577072E-1,2.031952E-1,1.0805916E0,1.5426026E-1,-7.1804814E-2,5.598612E-1,7.6013476E-1,1.5319519E-1,6.172928E-1,4.340489E-1,-9.452253E-2,3.422928E-1,9.725208E-1,4.251123E-1,-3.718048E-1,8.007909E-1,2.5426027E-1],"split_indices":[11,12,11,6,11,12,11,0,0,6,11,6,6,7,7,8,5,6,12,0,5,11,8,18,11,0,18,5,6,4,5,18,8,18,0,0,18,12,8,18,5,5,5,6,0,5,0,5,0,0,7,0,0,6,0,0,0,4,0,8,5,5,0,5,8,0,6,0,0,0,0,6,5,0,0,0,18,11,5,0,0,18,6,0,0,5,0,6,11,0,0,0,5,5,18,0,6,13,4,0,5,4,8,6,5,8,0,8,7,0,0,0,0,0,0,0,0,0,0,0,0,0,0,0,0,0,0,0,0,0,0,0,0,0,0,0,0,0,0,0,0,0,0,0,0,0,0],"split_type":[0,0,0,0,0,0,0,0,0,0,0,0,0,0,0,0,0,0,0,0,0,0,0,0,0,0,0,0,0,0,0,0,0,0,0,0,0,0,0,0,0,0,0,0,0,0,0,0,0,0,0,0,0,0,0,0,0,0,0,0,0,0,0,0,0,0,0,0,0,0,0,0,0,0,0,0,0,0,0,0,0,0,0,0,0,0,0,0,0,0,0,0,0,0,0,0,0,0,0,0,0,0,0,0,0,0,0,0,0,0,0,0,0,0,0,0,0,0,0,0,0,0,0,0,0,0,0,0,0,0,0,0,0,0,0,0,0,0,0,0,0,0,0,0,0,0,0],"sum_hessian":[5.67E2,1.62E2,4.05E2,5.7E1,1.05E2,1.72E2,2.33E2,5.6E1,1E0,6.1E1,4.4E1,1.1E1,1.61E2,1.58E2,7.5E1,3.6E1,2.5E1,1E1,3.4E1,4E0,7E0,1.53E2,8E0,1.36E2,2.2E1,1E0,7.4E1,3E0,3.3E1,2E0,2.3E1,4E0,6E0,3.3E1,1E0,1E0,6E0,1.2E2,3.3E1,5E0,3E0,1.34E2,2E0,2E1,2E0,7.1E1,3E0,2E0,1E0,1E0,3.2E1,1E0,1E0,6E0,1.7E1,3E0,1E0,4E0,2E0,3.1E1,2E0,4E0,2E0,6E1,6E1,4E0,2.9E1,3E0,2E0,2E0,1E0,9E0,1.25E2,1E0,1E0,4E0,1.6E1,4.6E1,2.5E1,1E0,1E0,1.1E1,2.1E1,1E0,5E0,3E0,1E0,6E0,2.5E1,1E0,1E0,1E0,3E0,3E0,5.7E1,1E0,5.9E1,4E0,2.5E1,1E0,8E0,3E0,1.22E2,4E0,1.2E1,4.5E1,1E0,5E0,2E1,1E1,1E0,1.8E1,3E0,1E0,2E0,1E0,5E0,1.6E1,9E0,2E0,1E0,1E0,2E0,5.6E1,1E0,1.1E1,4.8E1,2E0,2E0,2.2E1,3E0,1E0,7E0,2E0,1E0,9.8E1,2.4E1,1E0,3E0,6E0,6E0,3E0,4.2E1,4E0,1E0,1.8E1,2E0],"tree_param":{"num_deleted":"0","num_feature":"21","num_nodes":"147","size_leaf_vector":"1"}},{"base_weights":[-1.6747609E-1,-1.6432226E1,6.5866027E0,-2.6013216E1,-1.1707124E1,-9.510032E-1,1.2052203E1,-4.0106598E-1,-2.654081E1,-1.0890739E1,-1.1373476E0,-9.076612E0,-6.0262805E-1,6.806588E0,1.3088009E1,-2.7296633E1,-6.912791E-1,-8.286776E0,-1.2399392E1,-4.286089E-2,-1.0303642E1,1.697802E0,-2.0999126E0,8.312802E0,-1.6968492E0,1.1707022E1,1.6096285E1,-1.3866713E0,-5.6773263E-1,-1.2300428E1,-2.5695071E0,-1.490721E1,-1.0093235E1,-5.5833197E-1,-1.4971638E-1,3.324495E0,-2.5010967E0,-1.0411651E1,-1.2729713E0,8.805298E0,-2.1080132E-1,1.5273609E0,-4.496847E0,1.0209087E1,1.5121734E1,4.4091144E0,1.7336168E1,-1.574839E1,-6.480441E0,1.0137224E0,-7.623163E0,-9.540442E0,-1.8450008E1,-8.480587E-1,-8.538663E0,-8.142957E0,4.0001006E0,-5.860894E-1,-4.7679257E-1,-1.0853008E0,-1.1467978E0,4.4037514E0,-2.421107E0,1.0830241E1,4.1903806E0,1.4198685E-2,9.2358276E-2,-2.5925562E-1,-6.0801316E-2,7.284119E0,1.2151149E1,1.6687098E1,5.358292E0,-2.8938466E-1,7.073198E0,3.9198685E-2,1.7639404E1,1.4936534E-1,-1.7300034E1,1.9974775E0,-9.909346E0,3.240932E0,-3.3741087E-1,-1.9304046E-1,-7.502513E-1,-1.7292967E0,-1.1513546E1,-1.6149549E-1,-9.599697E-1,-4.5792117E0,-1.0883346E1,-6.428609E-1,3.213911E-2,5.6211424E0,6.093259E-1,-3.7499363E0,4.017419E0,3.1808633E-1,-6.4914913E0,-2.73566E0,8.960964E0,1.0161986E1,-2.8859515E0,1.4729736E1,7.7685285E0,6.1860795E0,-1.347537E0,-7.098525E-1,1.0892101E1,1.2577235E1,1.4716466E-1,8.91256E-1,9.751138E0,4.247051E-1,1.20257415E-1,8.9198686E-2,3.8871238E-1,1.974638E1,1.43585005E1,-9.727939E-1,-1.4549886E-1,-2.8058147E-2,1.518706E-1,-1.3230616E-1,-5.9446996E-1,2.176932E-1,-1.693863E-1,-1.832902E-1,3.4245035E-1,-2.1329947E-1,2.69132E-2,-9.438467E-2,-6.1436814E-1,1.07829094E-1,-4.950315E-1,-5.671586E-1,-5.366669E-2,1.6490112E-1,5.084947E-1,1.3905592E-1,-2.3624206E-1,-2.962062E-1,-1.9546203E-2,2.4840777E-1,-4.2175006E-2,-7.471638E-2,-3.8295516E-1,-2.9784176E-1,1.772426E-1,4.863057E-1,5.186529E-2,1.2528363E-1,6.368653E-1,-3.8968536E-1,-6.698779E-2,7.99998E-1,1.14198685E-1,5.6282735E-1,2.738418E-1,1.5871774E-1,4.5785737E-1,1.7343998E-2,-1.0139847E-1,2.2030585E-1,-2.548797E-1,4.5684895E-1,8.744647E-1,6.469515E-1,9.362602E-2,-8.580132E-2,9.683867E-2,5.186529E-2,5.515279E-1,6.1891645E-1,1.0764054E0,-1.0801315E-2,7.500784E-1],"categories":[],"categories_nodes":[],"categories_segments":[],"categories_sizes":[],"default_left":[0,0,1,0,0,0,0,0,0,1,0,0,0,0,0,0,0,0,0,0,0,0,0,0,0,0,0,0,0,0,0,0,0,0,0,0,0,1,1,1,0,0,0,1,0,0,0,0,0,0,0,0,0,0,0,0,0,0,0,0,0,0,0,0,0,0,0,0,0,0,0,0,0,0,0,0,0,0,0,0,0,0,0,0,0,0,0,0,0,0,0,0,0,0,0,0,0,0,0,0,0,0,0,0,0,0,0,0,0,0,0,0,0,0,0,0,0,0,0,0,0,0,0,0,0,0,0,0,0,0,0,0,0,0,0,0,0,0,0,0,0,0,0,0,0,0,0,0,0,0,0,0,0,0,0,0,0,0,0,0,0,0,0,0,0,0,0,0,0,0,0,0,0,0,0,0,0],"id":1,"left_children":[1,3,5,7,9,11,13,-1,15,17,-1,19,21,23,25,27,-1,29,31,-1,33,35,37,39,41,43,45,-1,-1,47,49,51,53,-1,-1,55,57,59,61,63,-1,65,67,69,71,73,75,77,79,81,83,85,87,-1,89,91,93,95,-1,-1,97,99,101,103,105,-1,-1,-1,-1,107,109,111,113,-1,115,-1,117,-1,119,121,123,125,-1,127,-1,129,131,-1,-1,133,135,-1,-1,137,139,141,143,-1,145,147,149,151,153,155,157,159,161,163,165,167,169,-1,171,-1,-1,-1,-1,173,175,-1,-1,-1,-1,-1,-1,-1,-1,-1,-1,-1,-1,-1,-1,-1,-1,-1,-1,-1,-1,-1,-1,-1,-1,-1,-1,-1,-1,-1,-1,-1,-1,-1,-1,-1,-1,-1,-1,-1,-1,-1,-1,-1,-1,-1,-1,-1,-1,-1,-1,-1,-1,-1,-1,-1,-1,-1,-1],"loss_changes":[6.3273934E4,7.346285E3,1.6778861E4,3.091914E2,7.8873535E2,4.8142093E2,1.193207E3,0E0,1.3196094E2,3.2545215E2,0E0,6.1765686E1,5.753354E2,5.392334E2,6.258203E2,2.6304688E1,0E0,9.551206E2,2.3702734E2,0E0,4.4108887E0,4.5911597E2,6.809516E2,2.5308691E2,7.006278E1,5.5149414E2,7.785176E2,0E0,0E0,3.996206E2,3.5178757E2,3.9437988E2,2.608894E2,0E0,0E0,4.0445154E2,2.5037167E2,9.168733E2,6.168033E2,2.7234546E2,0E0,1.0660172E0,2.727066E0,4.7385645E2,5.2191895E2,2.3109352E2,2.5218945E2,4.8774707E2,3.395634E2,2.2932013E2,4.358886E2,1.958606E2,1.3188525E2,0E0,2.5652344E2,1.3251915E2,2.4941785E2,2.4810179E2,0E0,0E0,2.8208163E2,5.450873E2,4.8556302E2,1.6017163E2,1.4096017E2,0E0,0E0,0E0,0E0,1.2191001E3,2.948037E2,9.4555664E1,4.4393906E1,0E0,8.378998E0,0E0,7.593652E1,0E0,3.7770215E2,1.2347756E1,8.3591736E1,8.852212E1,0E0,1.4738393E2,0E0,2.5304646E1,5.8740234E1,0E0,0E0,5.231672E2,7.804297E1,0E0,0E0,2.9404578E2,1.9849562E2,7.071535E1,3.654081E1,0E0,1.1893799E1,1.627305E2,5.053888E1,2.7236877E1,5.6627295E2,1.0573657E2,5.8251648E1,5.1464325E1,5.315206E0,3.3672635E2,1.7598853E2,1.926543E2,1.3326702E1,0E0,6.659851E1,0E0,0E0,0E0,0E0,1.14225586E2,2.2817822E2,0E0,0E0,0E0,0E0,0E0,0E0,0E0,0E0,0E0,0E0,0E0,0E0,0E0,0E0,0E0,0E0,0E0,0E0,0E0,0E0,0E0,0E0,0E0,0E0,0E0,0E0,0E0,0E0,0E0,0E0,0E0,0E0,0E0,0E0,0E0,0E0,0E0,0E0,0E0,0E0,0E0,0E0,0E0,0E0,0E0,0E0,0E0,0E0,0E0,0E0,0E0,0E0,0E0,0E0,0E0,0E0,0E0,0E0],"parents":[2147483647,0,0,1,1,2,2,3,3,4,4,5,5,6,6,8,8,9,9,11,11,12,12,13,13,14,14,15,15,17,17,18,18,20,20,21,21,22,22,23,23,24,24,25,25,26,26,29,29,30,30,31,31,32,32,35,35,36,36,37,37,38,38,39,39,41,41,42,42,43,43,44,44,45,45,46,46,47,47,48,48,49,49,50,50,51,51,52,52,54,54,55,55,56,56,57,57,60,60,61,61,62,62,63,63,64,64,69,69,70,70,71,71,72,72,74,74,76,76,78,78,79,79,80,80,81,81,83,83,85,85,86,86,89,89,90,90,93,93,94,94,95,95,96,96,98,98,99,99,100,100,101,101,102,102,103,103,104,104,105,105,106,106,107,107,108,108,109,109,110,110,112,112,117,117,118,118],"right_children":[2,4,6,8,10,12,14,-1,16,18,-1,20,22,24,26,28,-1,30,32,-1,34,36,38,40,42,44,46,-1,-1,48,50,52,54,-1,-1,56,58,60,62,64,-1,66,68,70,72,74,76,78,80,82,84,86,88,-1,90,92,94,96,-1,-1,98,100,102,104,106,-1,-1,-1,-1,108,110,112,114,-1,116,-1,118,-1,120,122,124,126,-1,128,-1,130,132,-1,-1,134,136,-1,-1,138,140,142,144,-1,146,148,150,152,154,156,158,160,162,164,166,168,170,-1,172,-1,-1,-1,-1,174,176,-1,-1,-1,-1,-1,-1,-1,-1,-1,-1,-1,-1,-1,-1,-1,-1,-1,-1,-1,-1,-1,-1,-1,-1,-1,-1,-1,-1,-1,-1,-1,-1,-1,-1,-1,-1,-1,-1,-1,-1,-1,-1,-1,-1,-1,-1,-1,-1,-1,-1,-1,-1,-1,-1,-1,-1,-1,-1],"split_conditions":[5.242857E1,3.7142857E1,6.3E1,1.5E1,5.9E1,6.009608E0,6.65E1,-4.0106598E-1,1.3866713E1,9.832665E0,-1.1373476E0,4.4347115E0,8.306623E0,6.614286E1,1E0,4.7E1,-6.912791E-1,9.070239E0,1.0578505E1,-4.286089E-2,6.3E1,5.8285713E1,4.8E1,6.785714E1,7.7E1,7.385714E1,5.8E1,-1.3866713E0,-5.6773263E-1,8.440267E0,1E0,8.596787E0,2.9E1,-5.5833197E-1,-1.4971638E-1,3.3166249E0,6.5E1,5.588889E1,5.3E1,1.0226017E1,-2.1080132E-1,5.7E1,7.5E1,8.712334E0,1.2202654E1,4.9E1,4.4E1,2.9E1,8.938947E0,5.9E1,4.2E1,4.407143E1,2.4E1,-8.480587E-1,4.3E1,5.7E1,6E1,6.3E1,-4.7679257E-1,-1.0853008E0,5.7285713E1,5.6E1,3.8E1,7E1,8.2E1,1.4198685E-2,9.2358276E-2,-2.5925562E-1,-6.0801316E-2,2E0,7.657143E1,7.8E1,7.442857E1,-2.8938466E-1,6.914286E1,3.9198685E-2,9.581729E0,1.4936534E-1,5.0714287E1,3.8E1,3.3E1,6E1,-3.3741087E-1,4.9E1,-7.502513E-1,3.5E1,9.95153E0,-1.6149549E-1,-9.599697E-1,4.5E1,1.4142136E1,-6.428609E-1,3.213911E-2,5.7E1,5.7E1,5.9142857E1,6.0285713E1,3.1808633E-1,5.3E1,5.4E1,7.7E1,5.5E1,5E1,7.1E1,6.357143E1,1.0377593E1,5E1,6.7E1,8.360907E0,1.7424667E1,6.7E1,8.91256E-1,7E1,4.247051E-1,1.20257415E-1,8.9198686E-2,3.8871238E-1,6.1759906E0,6.692857E1,-9.727939E-1,-1.4549886E-1,-2.8058147E-2,1.518706E-1,-1.3230616E-1,-5.9446996E-1,2.176932E-1,-1.693863E-1,-1.832902E-1,3.4245035E-1,-2.1329947E-1,2.69132E-2,-9.438467E-2,-6.1436814E-1,1.07829094E-1,-4.950315E-1,-5.671586E-1,-5.366669E-2,1.6490112E-1,5.084947E-1,1.3905592E-1,-2.3624206E-1,-2.962062E-1,-1.9546203E-2,2.4840777E-1,-4.2175006E-2,-7.471638E-2,-3.8295516E-1,-2.9784176E-1,1.772426E-1,4.863057E-1,5.186529E-2,1.2528363E-1,6.368653E-1,-3.8968536E-1,-6.698779E-2,7.99998E-1,1.14198685E-1,5.6282735E-1,2.738418E-1,1.5871774E-1,4.5785737E-1,1.7343998E-2,-1.0139847E-1,2.2030585E-1,-2.548797E-1,4.5684895E-1,8.744647E-1,6.469515E-1,9.362602E-2,-8.580132E-2,9.683867E-2,5.186529E-2,5.515279E-1,6.1891645E-1,1.0764054E0,-1.0801315E-2,7.500784E-1],"split_indices":[10,12,10,7,7,17,10,0,18,17,0,17,18,10,4,5,0,17,18,0,5,10,7,12,7,10,7,0,0,18,4,18,5,0,0,18,7,10,12,18,0,7,5,18,18,7,8,5,18,8,5,10,7,0,5,5,8,5,0,0,10,5,8,7,7,0,0,0,0,13,12,10,12,0,10,0,18,0,12,5,8,5,0,12,0,5,17,0,0,8,17,0,0,8,5,12,10,0,5,8,5,5,8,5,12,17,5,8,18,18,5,0,5,0,0,0,0,18,10,0,0,0,0,0,0,0,0,0,0,0,0,0,0,0,0,0,0,0,0,0,0,0,0,0,0,0,0,0,0,0,0,0,0,0,0,0,0,0,0,0,0,0,0,0,0,0,0,0,0,0,0,0,0,0,0,0,0],"split_type":[0,0,0,0,0,0,0,0,0,0,0,0,0,0,0,0,0,0,0,0,0,0,0,0,0,0,0,0,0,0,0,0,0,0,0,0,0,0,0,0,0,0,0,0,0,0,0,0,0,0,0,0,0,0,0,0,0,0,0,0,0,0,0,0,0,0,0,0,0,0,0,0,0,0,0,0,0,0,0,0,0,0,0,0,0,0,0,0,0,0,0,0,0,0,0,0,0,0,0,0,0,0,0,0,0,0,0,0,0,0,0,0,0,0,0,0,0,0,0,0,0,0,0,0,0,0,0,0,0,0,0,0,0,0,0,0,0,0,0,0,0,0,0,0,0,0,0,0,0,0,0,0,0,0,0,0,0,0,0,0,0,0,0,0,0,0,0,0,0,0,0,0,0,0,0,0,0],"sum_hessian":[5.74E2,1.68E2,4.06E2,5.4E1,1.14E2,1.71E2,2.35E2,2E0,5.2E1,1.08E2,6E0,6E0,1.65E2,4E1,1.95E2,4.8E1,4E0,4.2E1,6.6E1,1E0,5E0,6.5E1,1E2,3.4E1,6E0,1.37E2,5.8E1,4.6E1,2E0,2.4E1,1.8E1,2.9E1,3.7E1,4E0,1E0,4.7E1,1.8E1,8E0,9.2E1,3.3E1,1E0,3E0,3E0,9.8E1,3.9E1,6E0,5.2E1,1.4E1,1E1,1.1E1,7E0,1.3E1,1.6E1,5E0,3.2E1,2E0,4.5E1,1.5E1,3E0,3E0,5E0,1.5E1,7.7E1,2.2E1,1.1E1,1E0,2E0,2E0,1E0,4.1E1,5.7E1,3.3E1,6E0,1E0,5E0,1E0,5.1E1,1E0,1.3E1,3E0,7E0,9E0,2E0,4E0,3E0,3E0,1E1,1E0,1.5E1,1.3E1,1.9E1,1E0,1E0,3E1,1.5E1,9E0,6E0,2E0,3E0,6E0,9E0,2E0,7.5E1,8E0,1.4E1,8E0,3E0,1.3E1,2.8E1,5.5E1,2E0,2.7E1,6E0,2E0,4E0,1E0,4E0,2.8E1,2.3E1,1.1E1,2E0,1E0,2E0,2E0,5E0,8E0,1E0,3E0,1E0,1E0,2E0,1E0,9E0,6E0,7E0,1.8E1,1E0,2.1E1,9E0,1.1E1,4E0,5E0,4E0,5E0,1E0,1E0,2E0,4E0,2E0,8E0,1E0,1E0,1E0,1.7E1,5.8E1,7E0,1E0,4E0,1E1,5E0,3E0,1E0,2E0,6E0,7E0,2.4E1,4E0,5.3E1,2E0,1E0,1E0,1E0,5E0,7E0,2.1E1,1E0,2.2E1],"tree_param":{"num_deleted":"0","num_feature":"21","num_nodes":"177","size_leaf_vector":"1"}},{"base_weights":[2.4108677E-1,-1.605611E1,6.9296355E0,-2.4780336E1,-1.170643E1,-1.4433812E-1,1.1906008E1,-2.5018858E1,-3.0346784E-1,-1.1037942E1,-1.007845E0,-3.3798537E0,1.5184432E0,7.394606E0,1.2844586E1,-1.2853435E0,-6.636279E-1,-1.263257E1,-8.767398E0,-1.1420343E0,-1.8757209E0,9.985624E0,9.1429316E-2,8.557264E0,1.927561E-1,1.3092546E1,8.53199E-1,-1.619243E1,-9.434075E0,-1.9697261E0,-1.159157E1,4.3267822E-1,-7.385211E0,-6.515891E-2,1.1691394E1,9.117497E-1,-5.726793E0,9.287465E0,-2.8141682E0,3.277224E0,-2.5061378E-1,1.2002129E1,1.5255083E1,-1.6113769E-1,1.3389377E-1,5.1192474E-2,-1.6893974E1,-3.630001E0,-1.2434934E1,3.1025925E0,-5.6960044E0,-1.2133711E1,1.43923E-1,-4.7096878E-1,4.2286658E-1,1.9378986E0,-9.685767E0,-2.1983434E-2,1.2658374E1,3.4637706E0,-1.127595E0,-1.4276474E0,-7.6979094E0,1.0718134E1,3.1191926E0,-5.531311E-3,-2.0553131E-1,4.058234E-2,2.3251966E-1,1.2316867E1,4.6672235E0,1.9952957E1,1.3531139E1,-1.0139557E1,-1.9332628E1,-3.886155E-1,-8.738495E0,-4.4081993E0,-1.3973753E1,-3.1381226E-1,4.5319166E0,-2.9614258E-1,-8.346578E0,-1.2647924E1,9.517298E-2,-2.9756503E0,2.8458612E0,2.668828E-1,-4.8728626E-2,-1.0763122E1,-1.2534396E-1,1.3544676E1,5.0568677E-2,-3.5090742E0,5.440165E0,-4.1198096E0,2.0362782E0,-1.09485306E-1,-1.8970616E-1,-8.523087E0,-4.8041727E-2,1.2826388E1,6.2938857E0,2.4127829E-1,-1.333285E0,1.131707E1,1.53762665E1,-4.13356E-1,5.789557E-1,1.0388107E0,2.3126526E-1,3.4572144E0,1.4139425E1,-6.10277E-1,1.5970774E-1,-2.7902707E-1,-9.9066544E-1,-9.40051E-2,1.610529E-1,-5.207348E-3,-5.435523E-1,-3.6103472E-1,1.7104454E-1,-2.0761395E-1,-7.47096E-1,4.1952133E-4,-2.395544E-2,-2.3270608E-3,2.8440833E-1,7.097969E-2,-6.706264E-2,-1.08421996E-1,-4.574259E-1,-2.6214248E-1,-6.9351643E-1,-2.6148686E-1,6.704786E-2,6.3264024E-1,2.7054882E-2,-2.4282037E-1,-6.7223066E-1,1.8381377E-1,7.0537984E-1,-6.568947E-2,-3.730857E-1,5.2647084E-1,1.3788283E-1,-3.879186E-1,-3.5338473E-2,1.6145158E-1,-3.69467E-1,1.958275E-3,-1.6186237E-2,-7.304173E-2,-4.7283283E-1,6.897515E-1,1.6924204E-1,5.402215E-1,3.6718022E-2,-1.1690674E-1,1.6910363E-2,3.5316184E-1,6.1927384E-1,1.0732414E0,6.162306E-1,-1.448162E-1,1.10369876E-1,-1.0869789E-2,2.3772748E-1,8.3416766E-1,5.418581E-1],"categories":[],"categories_nodes":[],"categories_segments":[],"categories_sizes":[],"default_left":[0,0,1,0,0,0,0,0,0,0,0,1,1,0,0,0,0,1,0,0,0,0,1,0,0,0,0,0,0,0,0,0,0,0,0,0,0,1,0,0,0,0,0,0,0,0,0,0,0,0,0,0,0,0,0,0,0,0,0,0,0,0,0,0,0,0,0,0,0,0,0,0,0,0,0,0,0,0,0,0,0,0,0,0,0,0,0,0,0,0,0,0,0,0,0,0,0,0,0,0,0,0,0,0,0,0,0,0,0,0,0,0,0,0,0,0,0,0,0,0,0,0,0,0,0,0,0,0,0,0,0,0,0,0,0,0,0,0,0,0,0,0,0,0,0,0,0,0,0,0,0,0,0,0,0,0,0,0,0,0,0,0,0,0,0,0,0,0,0,0,0],"id":2,"left_children":[1,3,5,7,9,11,13,15,-1,17,-1,19,21,23,25,-1,-1,27,29,-1,31,33,35,37,39,41,43,45,47,49,51,53,55,-1,57,59,61,63,65,67,-1,69,71,-1,-1,-1,73,75,77,79,81,83,-1,85,-1,87,89,-1,91,93,95,97,99,101,103,-1,-1,-1,-1,105,107,109,111,113,115,117,119,121,123,125,127,129,131,133,-1,135,137,-1,-1,139,-1,141,-1,143,145,147,149,-1,151,153,-1,155,157,-1,159,161,163,165,-1,-1,-1,167,169,-1,-1,-1,-1,-1,-1,-1,-1,-1,-1,-1,-1,-1,-1,-1,-1,-1,-1,-1,-1,-1,-1,-1,-1,-1,-1,-1,-1,-1,-1,-1,-1,-1,-1,-1,-1,-1,-1,-1,-1,-1,-1,-1,-1,-1,-1,-1,-1,-1,-1,-1,-1,-1,-1,-1,-1,-1,-1],"loss_changes":[6.1807867E4,5.9712695E3,1.4153217E4,8.915234E1,4.1020117E2,9.0358466E2,9.043164E2,8.712891E1,0E0,2.7303613E2,0E0,1.6256428E3,1.3402761E3,3.584016E2,5.6566797E2,0E0,0E0,5.3041113E2,8.7946387E2,0E0,6.899729E2,3.2333362E2,4.634108E2,3.3336353E2,1.2880962E2,2.649414E2,4.5816605E1,3.4340234E2,5.4704614E2,3.0118542E2,2.938047E2,2.8678986E2,3.6194354E2,0E0,1.6979236E2,4.4628403E2,9.0699524E1,2.7543457E2,1.0060341E1,1.3153801E1,0E0,2.4493555E2,2.1594629E2,0E0,0E0,0E0,2.3223975E2,2.1186584E2,2.1013818E2,3.5604218E1,1.26342804E2,2.5505371E2,0E0,3.0754196E2,0E0,4.4808716E1,7.356262E1,0E0,1.2049707E2,5.427715E2,4.6280444E2,4.3015184E0,3.6284973E1,1.8044043E2,6.721457E1,0E0,0E0,0E0,0E0,2.0833203E2,2.5060115E2,8.0563965E1,2.39125E2,2.8691144E2,8.416992E0,5.4509926E1,9.0933716E1,1.347976E2,1.0911572E2,1.637969E-1,2.6733948E1,9.076568E0,9.888947E0,2.0789209E2,0E0,2.1134297E2,3.5479657E2,0E0,0E0,1.0893445E2,0E0,1.479834E1,0E0,6.829141E1,3.8052228E2,3.0498065E2,2.9367892E2,0E0,1.04698E-1,3.2337097E1,0E0,1.1792432E2,2.6790698E2,0E0,5.82957E0,3.5791016E2,2.556997E2,3.8929577E1,0E0,0E0,0E0,2.0102417E1,1.8883203E2,0E0,0E0,0E0,0E0,0E0,0E0,0E0,0E0,0E0,0E0,0E0,0E0,0E0,0E0,0E0,0E0,0E0,0E0,0E0,0E0,0E0,0E0,0E0,0E0,0E0,0E0,0E0,0E0,0E0,0E0,0E0,0E0,0E0,0E0,0E0,0E0,0E0,0E0,0E0,0E0,0E0,0E0,0E0,0E0,0E0,0E0,0E0,0E0,0E0,0E0,0E0,0E0,0E0,0E0,0E0,0E0,0E0,0E0],"parents":[2147483647,0,0,1,1,2,2,3,3,4,4,5,5,6,6,7,7,9,9,11,11,12,12,13,13,14,14,17,17,18,18,20,20,21,21,22,22,23,23,24,24,25,25,26,26,27,27,28,28,29,29,30,30,31,31,32,32,34,34,35,35,36,36,37,37,38,38,39,39,41,41,42,42,46,46,47,47,48,48,49,49,50,50,51,51,53,53,55,55,56,56,58,58,59,59,60,60,61,61,62,62,63,63,64,64,69,69,70,70,71,71,72,72,73,73,74,74,75,75,76,76,77,77,78,78,79,79,80,80,81,81,82,82,83,83,85,85,86,86,89,89,91,91,93,93,94,94,95,95,96,96,98,98,99,99,101,101,102,102,104,104,105,105,106,106,107,107,111,111,112,112],"right_children":[2,4,6,8,10,12,14,16,-1,18,-1,20,22,24,26,-1,-1,28,30,-1,32,34,36,38,40,42,44,46,48,50,52,54,56,-1,58,60,62,64,66,68,-1,70,72,-1,-1,-1,74,76,78,80,82,84,-1,86,-1,88,90,-1,92,94,96,98,100,102,104,-1,-1,-1,-1,106,108,110,112,114,116,118,120,122,124,126,128,130,132,134,-1,136,138,-1,-1,140,-1,142,-1,144,146,148,150,-1,152,154,-1,156,158,-1,160,162,164,166,-1,-1,-1,168,170,-1,-1,-1,-1,-1,-1,-1,-1,-1,-1,-1,-1,-1,-1,-1,-1,-1,-1,-1,-1,-1,-1,-1,-1,-1,-1,-1,-1,-1,-1,-1,-1,-1,-1,-1,-1,-1,-1,-1,-1,-1,-1,-1,-1,-1,-1,-1,-1,-1,-1,-1,-1,-1,-1,-1,-1,-1,-1],"split_conditions":[5.4666668E1,3.55E1,6.2944443E1,4.9E1,5.9E1,5.4E1,6.65E1,1.3866713E1,-3.0346784E-1,4.6133335E1,-1.007845E0,3.6449573E0,5.5E1,6.614286E1,1.7957623E1,-1.2853435E0,-6.636279E-1,1.0612212E1,4.4E1,-1.1420343E0,5.8366665E1,4.4E1,1.3163803E1,6.785714E1,4E0,7.3566666E1,7.3E1,1.5E1,4.1E1,4.8E1,5.557143E1,7.1E1,5.1E1,-6.515891E-2,3.6449573E0,6E1,5.6533333E1,1.1284207E1,2E0,6.636364E1,-2.5061378E-1,8.3E1,7.43E1,-1.6113769E-1,1.3389377E-1,5.1192474E-2,4.1E1,4.3333332E1,4.0785713E1,3.8E1,4.5714287E1,1.4292855E1,1.43923E-1,5.9E1,4.2286658E-1,4.3E1,1.2229939E1,-2.1983434E-2,7.6E1,5.4E1,5.7857143E1,1.449959E1,7E1,7.1E1,7.6E1,-5.531311E-3,-2.0553131E-1,4.058234E-2,2.3251966E-1,7.7E1,7.2666664E1,6E0,7.2666664E1,3.8E1,2.5E1,4.8E1,1E0,4E0,4.0285713E1,1E0,1E0,1E0,3.3E1,3.8E1,9.517298E-2,6.4E1,4.7E1,2.668828E-1,-4.8728626E-2,9.026416E0,-1.2534396E-1,5.3142857E1,5.0568677E-2,5.7E1,5.3E1,6.3E1,6E0,-1.09485306E-1,1E0,3.9E1,-4.8041727E-2,7.1E1,3E0,2.4127829E-1,4E0,6.3E1,6.8E1,7.7E1,5.789557E-1,1.0388107E0,2.3126526E-1,2E0,7.6E1,-6.10277E-1,1.5970774E-1,-2.7902707E-1,-9.9066544E-1,-9.40051E-2,1.610529E-1,-5.207348E-3,-5.435523E-1,-3.6103472E-1,1.7104454E-1,-2.0761395E-1,-7.47096E-1,4.1952133E-4,-2.395544E-2,-2.3270608E-3,2.8440833E-1,7.097969E-2,-6.706264E-2,-1.08421996E-1,-4.574259E-1,-2.6214248E-1,-6.9351643E-1,-2.6148686E-1,6.704786E-2,6.3264024E-1,2.7054882E-2,-2.4282037E-1,-6.7223066E-1,1.8381377E-1,7.0537984E-1,-6.568947E-2,-3.730857E-1,5.2647084E-1,1.3788283E-1,-3.879186E-1,-3.5338473E-2,1.6145158E-1,-3.69467E-1,1.958275E-3,-1.6186237E-2,-7.304173E-2,-4.7283283E-1,6.897515E-1,1.6924204E-1,5.402215E-1,3.6718022E-2,-1.1690674E-1,1.6910363E-2,3.5316184E-1,6.1927384E-1,1.0732414E0,6.162306E-1,-1.448162E-1,1.10369876E-1,-1.0869789E-2,2.3772748E-1,8.3416766E-1,5.418581E-1],"split_indices":[11,11,11,6,7,8,10,18,0,11,0,18,10,10,18,0,0,18,8,0,11,5,18,12,2,11,5,6,8,7,12,5,7,0,18,8,11,18,2,10,0,7,11,0,0,0,7,11,10,7,10,18,0,7,0,6,18,0,5,6,12,18,5,6,7,0,0,0,0,8,10,2,10,7,8,6,2,2,12,2,2,2,8,5,0,6,6,0,0,18,0,10,0,10,7,8,2,0,2,5,0,5,2,0,2,6,6,6,0,0,0,2,8,0,0,0,0,0,0,0,0,0,0,0,0,0,0,0,0,0,0,0,0,0,0,0,0,0,0,0,0,0,0,0,0,0,0,0,0,0,0,0,0,0,0,0,0,0,0,0,0,0,0,0,0,0,0,0,0,0,0],"split_type":[0,0,0,0,0,0,0,0,0,0,0,0,0,0,0,0,0,0,0,0,0,0,0,0,0,0,0,0,0,0,0,0,0,0,0,0,0,0,0,0,0,0,0,0,0,0,0,0,0,0,0,0,0,0,0,0,0,0,0,0,0,0,0,0,0,0,0,0,0,0,0,0,0,0,0,0,0,0,0,0,0,0,0,0,0,0,0,0,0,0,0,0,0,0,0,0,0,0,0,0,0,0,0,0,0,0,0,0,0,0,0,0,0,0,0,0,0,0,0,0,0,0,0,0,0,0,0,0,0,0,0,0,0,0,0,0,0,0,0,0,0,0,0,0,0,0,0,0,0,0,0,0,0,0,0,0,0,0,0,0,0,0,0,0,0,0,0,0,0,0,0],"sum_hessian":[5.65E2,1.64E2,4.01E2,5.3E1,1.11E2,1.66E2,2.35E2,5.2E1,1E0,1.05E2,6E0,5.6E1,1.1E2,4.2E1,1.93E2,4.8E1,4E0,5.9E1,4.6E1,3E0,5.3E1,1.5E1,9.5E1,3.6E1,6E0,1.89E2,4E0,2.6E1,3.3E1,1.4E1,3.2E1,3.8E1,1.5E1,2E0,1.3E1,8.4E1,1.1E1,3.4E1,2E0,4E0,2E0,1.3E2,5.9E1,1E0,3E0,1E0,2.5E1,1.2E1,2.1E1,6E0,8E0,3.1E1,1E0,3.5E1,3E0,3E0,1.2E1,1E0,1.2E1,3.7E1,4.7E1,4E0,7E0,2.7E1,7E0,1E0,1E0,2E0,2E0,1.24E2,6E0,1.3E1,4.6E1,8E0,1.7E1,8E0,4E0,4E0,1.7E1,2E0,4E0,3E0,5E0,3E1,1E0,2E1,1.5E1,1E0,2E0,1E1,2E0,1.1E1,1E0,8E0,2.9E1,2.4E1,2.3E1,2E0,2E0,6E0,1E0,1.7E1,1E1,5E0,2E0,9.7E1,2.7E1,4E0,2E0,1.2E1,1E0,3E0,4.3E1,7E0,1E0,1E0,1.6E1,6E0,2E0,1E0,3E0,3E0,1E0,2E0,1.5E1,1E0,1E0,1E0,3E0,1E0,2E0,1E0,4E0,5E0,2.5E1,1.3E1,7E0,2E0,1.3E1,4E0,6E0,1E0,1E1,6E0,2E0,9E0,2E1,1.1E1,1.3E1,2.1E1,2E0,1E0,1E0,1E0,5E0,1.5E1,2E0,5E0,5E0,1E0,1E0,2.1E1,7.6E1,7E0,2E1,2E0,2E0,1E0,2E0,2.2E1,2.1E1],"tree_param":{"num_deleted":"0","num_feature":"21","num_nodes":"171","size_leaf_vector":"1"}},{"base_weights":[3.9289352E-1,-1.4396734E1,6.787443E0,-2.2807629E1,-1.0281588E1,-6.055366E-1,1.1289911E1,-2.3003563E1,-2.9588118E-1,-1.2325347E1,-7.8843737E0,9.230633E-3,-7.321396E0,6.431809E0,1.2199111E1,-1.1773955E0,-6.370828E-1,-1.4518261E1,-8.646266E0,-1.5864841E0,-9.668509E0,-4.3267608E-1,7.520491E0,-8.03089E0,2.9813481E-2,7.749814E0,-1.3843918E-1,1.0858796E1,1.4274896E1,-6.739644E0,-1.6057316E1,-3.9180436E0,-1.3836022E1,4.713168E0,-6.900369E0,-6.8727865E0,-1.2819523E1,5.2091537E0,-1.0713179E0,2.1149054E0,1.0340861E1,-8.633516E0,-3.5050105E-2,8.468937E0,-2.7438138E0,2.2380142E0,-2.4225998E-1,9.41775E0,1.4213574E1,1.4544922E1,1.2479553E-1,3.0885697E-3,-7.7200994E0,-2.0387596E1,-1.224937E1,6.501579E-2,-7.4113474E0,-1.416564E-1,-7.289364E-1,7.447443E-1,7.5032997E0,-8.9669037E-1,-6.339938E-1,-8.086955E0,5.13149E0,-4.0763254E0,-1.4122656E1,-2.5102654E-1,6.382247E0,9.29006E0,-1.4976672E0,1.2400507E-1,2.5482941E-2,6.216516E-1,4.9304485E-2,-6.385813E-2,-9.241436E0,1.0257058E1,2.560941E0,-5.3930283E-3,-2.00393E-1,-1.4513016E-2,2.2476895E-1,1.2458299E1,7.549413E0,9.343343E0,1.698358E1,1.5514086E1,1.0154739E1,-4.3368083E-1,-4.997492E-2,-2.9562044E-1,-1.055058E0,-2.651113E-1,-1.3643687E1,3.198655E0,-1.9341436E-1,4.9912643E-2,-4.377663E-1,-2.2688867E-3,5.1162213E-2,4.540832E-1,6.920519E-2,1.0969687E0,-2.2178316E-1,-9.382528E0,7.365465E-1,3.2150108E-1,6.336069E-2,-6.6092706E0,8.806276E-2,-3.1212527E-1,-8.033563E-1,5.519327E-1,3.8814597E0,1.7736112E-1,5.968105E-1,-1.0334548E1,-7.6767087E-1,-5.837779E-1,-5.6727605E0,1.202402E1,5.7797914E0,2.728952E-1,2.6763874E-1,-6.029577E-2,3.9229646E-2,5.705684E0,1.39426775E1,3.6651363E0,9.180486E0,4.638521E0,1.2487257E1,-2.601309E-2,1.7802856E1,1.03244705E1,1.668022E1,6.4948044E0,1.4455389E1,6.238165E-2,-8.2265E-2,-3.1418857E-1,-7.712455E-1,2.468143E-1,-9.379673E-2,-1.5298336E-2,1.3264437E-1,-6.540907E-1,-2.7589568E-1,1.4032488E-1,-4.444682E-2,-8.174544E-2,-4.1394988E-1,2.9961154E-1,-3.9137747E-2,-1.8284601E-1,-1.1235416E0,-6.721427E-2,2.5952822E-1,-1.4616871E-2,-3.3451888E-1,1.4010887E-1,6.212625E-1,4.7718006E-1,4.3001175E-2,1.4672022E-1,-4.2314377E-2,4.4024214E-1,1.6025788E-1,7.384491E-1,1.0669085E-1,2.716578E-1,-4.0823475E-1,5.952825E-1,3.1465706E-1,2.7078268E-1,-2.0035172E-2,6.94917E-1,2.9964829E-2,9.2872685E-1,3.3620194E-1,2.1707116E-1,6.1417735E-1,8.827777E-1,5.8529174E-1,4.173282E-1,-6.1270524E-2,2.914861E-1,9.733605E-1],"categories":[],"categories_nodes":[],"categories_segments":[],"categories_sizes":[],"default_left":[0,0,1,0,0,1,0,0,0,0,0,0,0,0,0,0,0,0,0,0,1,0,0,0,0,0,0,0,0,0,0,0,0,0,0,0,0,0,0,0,0,0,0,1,0,0,0,0,0,0,0,0,0,0,0,0,0,0,0,0,0,0,0,0,0,0,0,0,0,0,0,0,0,0,0,0,0,0,0,0,0,0,0,0,0,0,0,0,0,0,0,0,0,0,0,0,0,0,0,0,0,0,0,0,0,0,0,0,0,0,0,0,0,0,0,0,0,0,0,0,0,0,0,0,0,0,0,0,0,0,0,0,0,0,0,0,0,0,0,0,0,0,0,0,0,0,0,0,0,0,0,0,0,0,0,0,0,0,0,0,0,0,0,0,0,0,0,0,0,0,0,0,0,0,0,0,0,0,0,0,0,0,0,0,0,0,0,0,0],"id":3,"left_children":[1,3,5,7,9,11,13,15,-1,17,19,21,23,25,27,-1,-1,29,31,33,35,37,39,41,-1,43,45,47,49,51,53,55,57,59,61,63,65,67,69,71,73,75,-1,77,79,81,-1,83,85,87,-1,-1,89,91,93,95,97,-1,-1,99,101,103,-1,105,107,109,111,-1,113,115,117,-1,-1,-1,-1,-1,119,121,123,-1,-1,125,-1,127,129,131,133,135,137,-1,-1,-1,-1,139,141,143,-1,-1,-1,-1,-1,-1,-1,145,-1,147,149,-1,-1,151,-1,-1,-1,-1,153,-1,-1,155,157,-1,159,161,163,165,-1,-1,-1,167,169,171,173,175,177,-1,179,181,183,185,187,-1,-1,-1,-1,-1,-1,-1,-1,-1,-1,-1,-1,-1,-1,-1,-1,-1,-1,-1,-1,-1,-1,-1,-1,-1,-1,-1,-1,-1,-1,-1,-1,-1,-1,-1,-1,-1,-1,-1,-1,-1,-1,-1,-1,-1,-1,-1,-1,-1,-1],"loss_changes":[5.5139207E4,5.8572266E3,1.3554502E4,5.2507812E1,4.907412E2,6.400146E2,1.0390371E3,1.2777344E1,0E0,3.8275098E2,6.36365E2,4.7791046E2,7.781653E1,3.6477698E2,4.3481836E2,0E0,0E0,3.467041E2,5.8378613E2,5.0118134E2,3.0831592E2,4.9560342E2,1.0009613E2,4.69541E1,0E0,2.873545E2,1.00326805E2,5.0911328E2,2.1815039E2,5.3824738E1,2.6143848E2,2.091924E2,5.675952E1,7.1918945E1,2.6621646E2,4.2045374E2,1.7030249E2,2.0004752E2,5.5727405E2,1.0809135E0,8.5598816E1,3.7389893E1,0E0,3.2235132E2,9.563612E0,3.0573898E1,0E0,4.5130176E2,3.539585E2,1.7433398E2,0E0,0E0,3.61882E1,9.518066E0,3.138706E2,1.1097774E2,9.915869E1,0E0,0E0,9.2662835E-1,2.6063309E1,4.014331E1,0E0,2.812666E2,6.9054337E0,7.0785706E1,1.6018701E2,0E0,1.0853473E2,3.3641724E1,7.597224E2,0E0,0E0,0E0,0E0,0E0,2.06333E1,1.2828271E2,5.6029846E1,0E0,0E0,4.7543797E0,0E0,2.7126807E2,3.5915552E2,1.7874255E2,3.3909424E2,2.029961E2,1.7369666E2,0E0,0E0,0E0,0E0,8.316348E0,1.259375E2,5.334897E1,0E0,0E0,0E0,0E0,0E0,0E0,0E0,9.543108E0,0E0,2.2803833E2,1.5953479E1,0E0,0E0,1.138208E1,0E0,0E0,0E0,0E0,1.0314134E2,0E0,0E0,6.4720013E2,3.8832974E2,0E0,3.0895432E1,2.8083252E1,1.5844589E2,2.035564E1,0E0,0E0,0E0,3.37753E1,2.4170117E2,4.6266754E2,2.634209E2,3.3499237E1,1.4264478E2,0E0,6.3188477E1,1.1076941E2,3.105957E1,1.6748376E2,1.8912354E2,0E0,0E0,0E0,0E0,0E0,0E0,0E0,0E0,0E0,0E0,0E0,0E0,0E0,0E0,0E0,0E0,0E0,0E0,0E0,0E0,0E0,0E0,0E0,0E0,0E0,0E0,0E0,0E0,0E0,0E0,0E0,0E0,0E0,0E0,0E0,0E0,0E0,0E0,0E0,0E0,0E0,0E0,0E0,0E0,0E0,0E0,0E0,0E0,0E0,0E0],"parents":[2147483647,0,0,1,1,2,2,3,3,4,4,5,5,6,6,7,7,9,9,10,10,11,11,12,12,13,13,14,14,17,17,18,18,19,19,20,20,21,21,22,22,23,23,25,25,26,26,27,27,28,28,29,29,30,30,31,31,32,32,33,33,34,34,35,35,36,36,37,37,38,38,39,39,40,40,41,41,43,43,44,44,45,45,47,47,48,48,49,49,52,52,53,53,54,54,55,55,56,56,59,59,60,60,61,61,63,63,64,64,65,65,66,66,68,68,69,69,70,70,76,76,77,77,78,78,81,81,83,83,84,84,85,85,86,86,87,87,88,88,93,93,94,94,95,95,103,103,105,105,106,106,109,109,114,114,117,117,118,118,120,120,121,121,122,122,123,123,127,127,128,128,129,129,130,130,131,131,132,132,134,134,135,135,136,136,137,137,138,138],"right_children":[2,4,6,8,10,12,14,16,-1,18,20,22,24,26,28,-1,-1,30,32,34,36,38,40,42,-1,44,46,48,50,52,54,56,58,60,62,64,66,68,70,72,74,76,-1,78,80,82,-1,84,86,88,-1,-1,90,92,94,96,98,-1,-1,100,102,104,-1,106,108,110,112,-1,114,116,118,-1,-1,-1,-1,-1,120,122,124,-1,-1,126,-1,128,130,132,134,136,138,-1,-1,-1,-1,140,142,144,-1,-1,-1,-1,-1,-1,-1,146,-1,148,150,-1,-1,152,-1,-1,-1,-1,154,-1,-1,156,158,-1,160,162,164,166,-1,-1,-1,168,170,172,174,176,178,-1,180,182,184,186,188,-1,-1,-1,-1,-1,-1,-1,-1,-1,-1,-1,-1,-1,-1,-1,-1,-1,-1,-1,-1,-1,-1,-1,-1,-1,-1,-1,-1,-1,-1,-1,-1,-1,-1,-1,-1,-1,-1,-1,-1,-1,-1,-1,-1,-1,-1,-1,-1,-1,-1],"split_conditions":[5.5333332E1,3.55E1,6.2357143E1,4.9E1,4.6133335E1,6E1,6.65E1,1.3866713E1,-2.9588118E-1,4E0,4.6866665E1,7.5E1,7.5E1,6.614286E1,7.292308E1,-1.1773955E0,-6.370828E-1,3.3E1,6E0,9.795715E0,1.0028531E1,5.525E1,5.7633335E1,6.1857143E1,2.9813481E-2,6.785714E1,4E0,5E0,4.8083267E1,3.8142857E1,1.0737119E1,4.2142857E1,4.0590873E0,7.0169864E0,4.3E1,5.9E1,4.1E1,3.3E1,3.9E1,4E0,7.6E1,5.557143E1,-3.5050105E-2,1.1284207E1,2E0,6.636364E1,-2.4225998E-1,6.978571E1,2E0,7.6545456E1,1.2479553E-1,3.0885697E-3,1.21576185E1,4.13E1,4.14E1,1.1375943E1,1.5E1,-1.416564E-1,-7.289364E-1,1E0,4.4E1,5.5E1,-6.339938E-1,5.4666668E1,5.3E1,3.8E1,4.7285713E1,-2.5102654E-1,5.2714287E1,5.7105263E1,4.7E1,1.2400507E-1,2.5482941E-2,6.216516E-1,4.9304485E-2,-6.385813E-2,6.1E1,7.1E1,6.3E1,-5.3930283E-3,-2.00393E-1,6.7E1,2.2476895E-1,6.65E1,6.985714E1,7.1E1,6.692857E1,7.2666664E1,5E0,-4.3368083E-1,-4.997492E-2,-2.9562044E-1,-1.055058E0,3E0,1.0853672E1,4.8E1,-1.9341436E-1,4.9912643E-2,-4.377663E-1,-2.2688867E-3,5.1162213E-2,4.540832E-1,6.920519E-2,4.2E1,-2.2178316E-1,8.420497E0,2E0,3.2150108E-1,6.336069E-2,5E0,8.806276E-2,-3.1212527E-1,-8.033563E-1,5.519327E-1,5.7166668E1,1.7736112E-1,5.968105E-1,4.6E1,6.2714287E1,-5.837779E-1,1.0125856E1,5.4E1,3E0,4.4E1,2.6763874E-1,-6.029577E-2,3.9229646E-2,6.5E1,8.3E1,7.1958336E1,7E1,7E1,7.264286E1,-2.601309E-2,8.8E1,6.2E1,8.5E1,4E0,7.6833336E1,6.238165E-2,-8.2265E-2,-3.1418857E-1,-7.712455E-1,2.468143E-1,-9.379673E-2,-1.5298336E-2,1.3264437E-1,-6.540907E-1,-2.7589568E-1,1.4032488E-1,-4.444682E-2,-8.174544E-2,-4.1394988E-1,2.9961154E-1,-3.9137747E-2,-1.8284601E-1,-1.1235416E0,-6.721427E-2,2.5952822E-1,-1.4616871E-2,-3.3451888E-1,1.4010887E-1,6.212625E-1,4.7718006E-1,4.3001175E-2,1.4672022E-1,-4.2314377E-2,4.4024214E-1,1.6025788E-1,7.384491E-1,1.0669085E-1,2.716578E-1,-4.0823475E-1,5.952825E-1,3.1465706E-1,2.7078268E-1,-2.0035172E-2,6.94917E-1,2.9964829E-2,9.2872685E-1,3.3620194E-1,2.1707116E-1,6.1417735E-1,8.827777E-1,5.8529174E-1,4.173282E-1,-6.1270524E-2,2.914861E-1,9.733605E-1],"split_indices":[11,11,10,6,11,11,10,18,0,2,11,6,6,10,11,0,0,6,2,17,18,10,11,10,0,12,2,2,17,12,18,12,18,18,8,8,8,8,8,2,8,10,0,18,2,10,0,10,13,11,0,0,17,10,11,17,6,0,0,2,6,6,0,12,6,8,12,0,12,11,8,0,0,0,0,0,6,6,8,0,0,6,0,11,12,8,10,12,2,0,0,0,0,2,17,8,0,0,0,0,0,0,0,8,0,18,2,0,0,2,0,0,0,0,11,0,0,8,12,0,17,8,2,6,0,0,0,12,8,11,6,8,10,0,6,8,8,2,11,0,0,0,0,0,0,0,0,0,0,0,0,0,0,0,0,0,0,0,0,0,0,0,0,0,0,0,0,0,0,0,0,0,0,0,0,0,0,0,0,0,0,0,0,0,0,0,0,0,0],"split_type":[0,0,0,0,0,0,0,0,0,0,0,0,0,0,0,0,0,0,0,0,0,0,0,0,0,0,0,0,0,0,0,0,0,0,0,0,0,0,0,0,0,0,0,0,0,0,0,0,0,0,0,0,0,0,0,0,0,0,0,0,0,0,0,0,0,0,0,0,0,0,0,0,0,0,0,0,0,0,0,0,0,0,0,0,0,0,0,0,0,0,0,0,0,0,0,0,0,0,0,0,0,0,0,0,0,0,0,0,0,0,0,0,0,0,0,0,0,0,0,0,0,0,0,0,0,0,0,0,0,0,0,0,0,0,0,0,0,0,0,0,0,0,0,0,0,0,0,0,0,0,0,0,0,0,0,0,0,0,0,0,0,0,0,0,0,0,0,0,0,0,0,0,0,0,0,0,0,0,0,0,0,0,0,0,0,0,0,0,0],"sum_hessian":[5.81E2,1.75E2,4.06E2,5.6E1,1.19E2,1.54E2,2.52E2,5.5E1,1E0,6.2E1,5.7E1,1.42E2,1.2E1,4.1E1,2.11E2,5.1E1,4E0,3.7E1,2.5E1,1.3E1,4.4E1,1.35E2,7E0,1.1E1,1E0,3.4E1,7E0,1.32E2,7.9E1,7E0,3E1,1.4E1,1.1E1,6E0,7E0,2.5E1,1.9E1,1.3E1,1.22E2,3E0,4E0,1E1,1E0,3.2E1,2E0,5E0,2E0,9.5E1,3.7E1,7.7E1,2E0,1E0,6E0,1.2E1,1.8E1,7E0,7E0,1E0,1E1,3E0,3E0,4E0,3E0,2.3E1,2E0,3E0,1.6E1,1E0,1.2E1,4E0,1.18E2,2E0,1E0,3E0,1E0,1E0,9E0,2.4E1,8E0,1E0,1E0,3E0,2E0,3.4E1,6.1E1,1.5E1,2.2E1,6.1E1,1.6E1,5E0,1E0,1E0,1.1E1,2E0,1.6E1,4E0,3E0,1E0,6E0,1E0,2E0,2E0,1E0,3E0,1E0,2E1,3E0,1E0,1E0,2E0,1E0,4E0,1.2E1,3E0,9E0,2E0,2E0,8E0,1.1E2,4E0,5E0,1.6E1,8E0,5E0,3E0,1E0,2E0,7E0,2.7E1,1.9E1,4.2E1,7E0,8E0,1E0,2.1E1,1.3E1,4.8E1,1E1,6E0,1E0,1E0,4E0,1.2E1,3E0,1E0,2E0,1E0,9E0,1.1E1,1E0,2E0,1E0,1E0,6E0,3E0,6E0,2E0,1.01E2,9E0,1E0,4E0,1E0,1.5E1,4E0,4E0,1E0,4E0,2E0,5E0,2.5E1,2E0,1.7E1,2E0,2E1,2.2E1,6E0,1E0,7E0,1E0,1.9E1,2E0,4E0,9E0,3.8E1,1E1,8E0,2E0,3E0,3E0],"tree_param":{"num_deleted":"0","num_feature":"21","num_nodes":"189","size_leaf_vector":"1"}},{"base_weights":[9.3721926E-2,-1.4588163E1,6.2576337E0,-1.1124483E0,-1.0114236E1,8.356003E-1,1.1593295E1,-7.6107125E0,-1.1702186E1,-2.196843E-1,4.2815213E0,1.0253133E1,1.4504783E1,1.9677429E-1,-7.970752E0,-1.2009032E1,-1.5622495E0,6.755457E0,-1.0964081E0,-1.38087225E1,5.4176397E0,1.0651138E1,-2.5436447E0,1.4723185E1,4.04768E-2,-4.0364757E0,-9.363488E0,-1.2900054E1,-8.416559E0,4.4148255E-2,-1.6131698E-1,2.510563E0,9.475826E0,5.5980015E0,-1.562182E0,-1.0409107E0,5.2565574E-3,9.273249E0,1.4941168E0,-1.4219545E-1,1.0875455E1,3.5442924E-1,-6.7238483E0,2.4389489E-1,1.4983056E1,-1.0738643E1,1.4947085E0,-9.858027E0,1.3681678E-1,-1.4132584E1,-9.328487E0,-3.2240593E0,-1.0011644E1,-2.3358154E-1,4.203766E0,-4.179592E-2,1.0714456E1,-2.387535E0,8.22066E0,-4.426809E0,-2.4232678E-1,4.5115976E0,1.1194579E1,5.230069E0,-8.470624E-1,1.7002382E1,1.012731E1,-4.825859E-1,5.149403E-2,1.6540607E1,1.2152229E1,-6.6603136E-1,-1.8582243E-1,3.2026768E-1,-1.209732E0,-4.9221616E0,-1.173901E1,-1.0692398E1,-8.559753E-1,-7.0113146E-1,-1.2401968E1,-2.4007578E-1,7.7144146E-2,-1.0487781E1,-1.3125706E-1,-2.7027702E-2,1.7183399E-2,5.7340727E0,-4.7936536E-2,5.646723E-1,1.5206347E-1,-3.418484E-2,-1.448803E-1,1.6397487E-1,5.553329E-1,-1.6016246E0,-8.564484E0,3.2958577E0,-2.531107E0,6.1758566E0,-1.7845535E-1,6.6339517E-1,4.3943496E0,2.9550594E-1,-5.258179E-3,-2.6215115E-1,6.888463E-1,8.9601624E-1,1.4967671E-1,9.357252E0,1.5344375E1,8.5092336E-1,1.9281292E-2,5.6224523E0,1.4016463E1,-1.0692841E-1,8.5861206E-2,-4.026702E-1,2.53427E-1,-2.0544867E-1,-6.646304E-1,-4.095962E-1,-8.698036E-1,5.35728E-2,-1.9478703E-1,-1.6373816E-1,-6.493606E-1,-3.0631652E-1,-6.1871797E-1,3.660082E-1,2.4394989E-2,9.915202E-2,-2.2798966E-1,-7.615592E-2,-4.7307992E-1,4.6682683E-1,-1.1412134E-1,-2.4944966E-1,-1.2010259E-2,3.544098E-1,1.7545415E-2,-4.5345536E-1,5.0137454E-1,-5.356204E-2,2.2384153E-1,4.9050227E-1,1.2355435E-1,8.722993E-1,9.115689E-2,4.595047E-1,-1.098884E-1,2.6990129E-2,7.3887277E-1],"categories":[],"categories_nodes":[],"categories_segments":[],"categories_sizes":[],"default_left":[0,0,1,0,0,0,0,0,0,0,0,0,0,0,0,1,0,0,0,0,1,1,0,0,0,0,0,0,0,0,0,0,0,0,0,0,0,0,0,0,0,0,0,0,0,0,0,0,0,0,0,0,0,0,0,0,0,0,0,0,0,0,0,0,0,0,0,0,0,0,0,0,0,0,0,0,0,0,0,0,0,0,0,0,0,0,0,0,0,0,0,0,0,0,0,0,0,0,0,0,0,0,0,0,0,0,0,0,0,0,0,0,0,0,0,0,0,0,0,0,0,0,0,0,0,0,0,0,0,0,0,0,0,0,0,0,0,0,0,0,0,0,0,0,0,0,0,0,0,0,0,0,0],"id":4,"left_children":[1,3,5,-1,7,9,11,13,15,17,19,21,23,-1,25,27,29,31,33,35,37,39,41,43,-1,45,47,49,51,-1,-1,53,55,57,59,-1,-1,61,63,-1,65,-1,67,-1,69,71,73,75,-1,77,79,81,83,85,87,-1,89,91,93,95,97,99,101,103,105,107,109,-1,-1,111,113,-1,-1,-1,115,117,119,121,-1,123,125,-1,-1,127,-1,-1,-1,129,-1,-1,-1,-1,-1,-1,-1,131,133,135,137,139,-1,-1,141,-1,-1,-1,143,-1,-1,145,147,-1,-1,149,151,-1,-1,-1,-1,-1,-1,-1,-1,-1,-1,-1,-1,-1,-1,-1,-1,-1,-1,-1,-1,-1,-1,-1,-1,-1,-1,-1,-1,-1,-1,-1,-1,-1,-1,-1,-1,-1,-1],"loss_changes":[5.049859E4,5.43016E3,1.1359858E4,0E0,3.323379E2,7.1368036E2,6.238496E2,2.1428052E2,1.7725684E2,9.308129E2,1.0202329E3,7.350459E2,1.6754492E2,0E0,1.9781909E2,8.668555E1,1.5055914E1,1.7252081E2,4.2968604E2,2.9477576E2,6.517578E2,4.3959375E2,2.4898596E2,7.786621E1,0E0,4.9797308E2,2.1247388E2,7.5061035E1,9.195911E1,0E0,0E0,3.815307E1,1.366806E2,2.0811713E2,4.7910062E2,0E0,0E0,1.5076599E2,2.0560046E2,0E0,4.3746094E2,0E0,1.0074774E2,0E0,5.0316406E1,5.928174E1,1.1399315E2,2.2074683E2,0E0,1.5604541E2,3.890448E2,4.5006397E1,1.1154785E1,8.945701E-1,4.499845E1,0E0,5.6379395E0,6.2615204E-1,6.3397034E1,4.538706E2,7.2097723E2,1.2962938E2,1.5318225E2,3.3275543E1,1.0488855E2,1.1352637E2,3.425293E2,0E0,0E0,2.5591211E2,2.133457E2,0E0,0E0,0E0,1.9984375E1,3.5365216E2,1.9431494E2,1.5921533E2,0E0,3.2487732E1,1.6227905E1,0E0,0E0,6.4727783E0,0E0,0E0,0E0,2.9712128E1,0E0,0E0,0E0,0E0,0E0,0E0,0E0,2.741433E2,8.6659546E1,1.2006919E3,3.0286353E2,3.4713013E1,0E0,0E0,4.7014816E2,0E0,0E0,0E0,8.480195E1,0E0,0E0,3.125039E2,3.6602295E2,0E0,0E0,2.154959E2,1.7662451E2,0E0,0E0,0E0,0E0,0E0,0E0,0E0,0E0,0E0,0E0,0E0,0E0,0E0,0E0,0E0,0E0,0E0,0E0,0E0,0E0,0E0,0E0,0E0,0E0,0E0,0E0,0E0,0E0,0E0,0E0,0E0,0E0,0E0,0E0,0E0,0E0,0E0,0E0],"parents":[2147483647,0,0,1,1,2,2,4,4,5,5,6,6,7,7,8,8,9,9,10,10,11,11,12,12,14,14,15,15,16,16,17,17,18,18,19,19,20,20,21,21,22,22,23,23,25,25,26,26,27,27,28,28,31,31,32,32,33,33,34,34,37,37,38,38,40,40,42,42,44,44,45,45,46,46,47,47,49,49,50,50,51,51,52,52,53,53,54,54,56,56,57,57,58,58,59,59,60,60,61,61,62,62,63,63,64,64,65,65,66,66,69,69,70,70,74,74,75,75,76,76,77,77,79,79,80,80,83,83,87,87,95,95,96,96,97,97,98,98,99,99,102,102,106,106,109,109,110,110,113,113,114,114],"right_children":[2,4,6,-1,8,10,12,14,16,18,20,22,24,-1,26,28,30,32,34,36,38,40,42,44,-1,46,48,50,52,-1,-1,54,56,58,60,-1,-1,62,64,-1,66,-1,68,-1,70,72,74,76,-1,78,80,82,84,86,88,-1,90,92,94,96,98,100,102,104,106,108,110,-1,-1,112,114,-1,-1,-1,116,118,120,122,-1,124,126,-1,-1,128,-1,-1,-1,130,-1,-1,-1,-1,-1,-1,-1,132,134,136,138,140,-1,-1,142,-1,-1,-1,144,-1,-1,146,148,-1,-1,150,152,-1,-1,-1,-1,-1,-1,-1,-1,-1,-1,-1,-1,-1,-1,-1,-1,-1,-1,-1,-1,-1,-1,-1,-1,-1,-1,-1,-1,-1,-1,-1,-1,-1,-1,-1,-1,-1,-1],"split_conditions":[5.4666668E1,3.55E1,6.642857E1,-1.1124483E0,9.95153E0,6.3375E1,7.385714E1,2.9E1,4.9125E1,5.525E1,4.7E1,7.371429E1,8.3E1,1.9677429E-1,4.2E1,1.2594792E1,1E0,9.676356E0,4.3E1,1E0,6.442857E1,4.4347115E0,2E0,7.15E1,4.04768E-2,4.4214287E1,5.557143E1,4.6633335E1,4.357143E1,4.4148255E-2,-1.6131698E-1,5.7E1,4.4E1,8.463561E0,5.4E1,-1.0409107E0,5.2565574E-3,5.9E1,9.0543995E0,-1.4219545E-1,7.7781744E0,3.5442924E-1,8.3E1,2.4389489E-1,7.7E1,9.420576E0,4.4857143E1,4.6866665E1,1.3681678E-1,4.3714287E1,4.3E1,4.2857143E1,6.1E1,5.1E1,6E0,-4.179592E-2,5.4857143E1,1E0,5.7105263E1,5.78E1,6E1,5.7E1,7E1,6.728571E1,9.336505E0,7.264286E1,7.292308E1,-4.825859E-1,5.149403E-2,7.907143E1,8.2E1,-6.6603136E-1,-1.8582243E-1,3.2026768E-1,4.8545456E1,4.4785713E1,3.8E1,1.2153042E1,-8.559753E-1,5E0,4.542857E1,-2.4007578E-1,7.7144146E-2,4.1E1,-1.3125706E-1,-2.7027702E-2,1.7183399E-2,6E1,-4.7936536E-2,5.646723E-1,1.5206347E-1,-3.418484E-2,-1.448803E-1,1.6397487E-1,5.553329E-1,4E0,6.0827627E0,9.492623E0,5.7857143E1,6E0,-1.7845535E-1,6.6339517E-1,7.3E1,2.9550594E-1,-5.258179E-3,-2.6215115E-1,6.657143E1,8.9601624E-1,1.4967671E-1,7.253333E1,7.422222E1,8.5092336E-1,1.9281292E-2,7.7E1,1E0,-1.0692841E-1,8.5861206E-2,-4.026702E-1,2.53427E-1,-2.0544867E-1,-6.646304E-1,-4.095962E-1,-8.698036E-1,5.35728E-2,-1.9478703E-1,-1.6373816E-1,-6.493606E-1,-3.0631652E-1,-6.1871797E-1,3.660082E-1,2.4394989E-2,9.915202E-2,-2.2798966E-1,-7.615592E-2,-4.7307992E-1,4.6682683E-1,-1.1412134E-1,-2.4944966E-1,-1.2010259E-2,3.544098E-1,1.7545415E-2,-4.5345536E-1,5.0137454E-1,-5.356204E-2,2.2384153E-1,4.9050227E-1,1.2355435E-1,8.722993E-1,9.115689E-2,4.595047E-1,-1.098884E-1,2.6990129E-2,7.3887277E-1],"split_indices":[11,11,10,0,17,11,10,5,10,10,8,10,10,0,8,17,2,17,8,2,12,17,2,12,0,10,12,11,12,0,0,5,5,17,8,0,0,8,17,0,17,0,5,0,8,17,10,11,0,12,5,12,8,5,2,0,12,2,11,11,8,8,5,12,17,10,11,0,0,10,8,0,0,0,10,10,5,17,0,2,12,0,0,5,0,0,0,5,0,0,0,0,0,0,0,2,17,17,10,2,0,0,5,0,0,0,12,0,0,11,11,0,0,10,2,0,0,0,0,0,0,0,0,0,0,0,0,0,0,0,0,0,0,0,0,0,0,0,0,0,0,0,0,0,0,0,0,0,0,0,0,0,0],"split_type":[0,0,0,0,0,0,0,0,0,0,0,0,0,0,0,0,0,0,0,0,0,0,0,0,0,0,0,0,0,0,0,0,0,0,0,0,0,0,0,0,0,0,0,0,0,0,0,0,0,0,0,0,0,0,0,0,0,0,0,0,0,0,0,0,0,0,0,0,0,0,0,0,0,0,0,0,0,0,0,0,0,0,0,0,0,0,0,0,0,0,0,0,0,0,0,0,0,0,0,0,0,0,0,0,0,0,0,0,0,0,0,0,0,0,0,0,0,0,0,0,0,0,0,0,0,0,0,0,0,0,0,0,0,0,0,0,0,0,0,0,0,0,0,0,0,0,0,0,0,0,0,0,0],"sum_hessian":[5.56E2,1.64E2,3.92E2,5.9E1,1.05E2,1.95E2,1.97E2,4.3E1,6.2E1,1.5E2,4.5E1,1.38E2,5.9E1,1E0,4.2E1,6E1,2E0,1.6E1,1.34E2,2E0,4.3E1,1.34E2,4E0,5.8E1,1E0,1.2E1,3E1,4.6E1,1.4E1,1E0,1E0,7E0,9E0,8E0,1.26E2,1E0,1E0,2.1E1,2.2E1,2E0,1.32E2,1E0,3E0,2E0,5.6E1,5E0,7E0,2.9E1,1E0,3.2E1,1.4E1,4E0,1E1,3E0,4E0,1E0,8E0,2E0,6E0,3.9E1,8.7E1,7E0,1.4E1,8E0,1.4E1,1.2E1,1.2E2,2E0,1E0,3.3E1,2.3E1,3E0,2E0,2E0,5E0,9E0,2E1,1.7E1,1.5E1,4E0,1E1,3E0,1E0,9E0,1E0,2E0,1E0,3E0,1E0,7E0,1E0,1E0,1E0,3E0,3E0,2.4E1,1.5E1,3.4E1,5.3E1,6E0,1E0,1E1,4E0,7E0,1E0,3E0,1.1E1,1.1E1,1E0,1.07E2,1.3E1,3.2E1,1E0,6E0,1.7E1,4E0,1E0,7E0,2E0,4E0,1.6E1,1.4E1,3E0,3E0,1E0,1E0,9E0,4E0,5E0,2E0,1E0,1.1E1,1.3E1,2E0,1.3E1,1.6E1,1.8E1,2.5E1,2.8E1,5E0,1E0,1E0,3E0,8E0,3E0,1E2,7E0,1.1E1,2E0,4E0,2E0,1E0,1.6E1],"tree_param":{"num_deleted":"0","num_feature":"21","num_nodes":"153","size_leaf_vector":"1"}},{"base_weights":[-8.339851E-2,-1.3118593E1,5.439106E0,-2.1167189E1,-9.154149E0,-6.652902E-1,9.794837E0,-2.2075563E1,-9.91815E0,-6.72104E0,-1.0869588E1,-1.9447745E0,1.4314889E0,7.654643E0,1.1248682E1,-1.1389313E-1,-2.2425959E1,-5.671016E-1,-6.9968514E-2,-3.6867073E0,-8.89582E0,-1.210567E1,-5.7774615E0,-1.2444664E0,-1.1671351E1,5.549875E0,-6.602379E-1,8.148924E0,-5.7541984E-3,1.23473625E1,4.8444543E0,-1.3032302E0,-1.8636148E1,3.133697E-1,-4.933164E0,3.0742016E-1,-9.652699E0,-9.479008E0,-1.4283974E1,1.0905441E0,-8.374059E0,3.1001256E0,-2.0476313E0,-9.566637E-1,-1.2915897E0,6.799217E0,-1.7719717E0,2.5339477E0,-2.575985E0,1.4163168E1,7.571354E0,-2.0651196E-1,2.4700875E0,4.4617047E0,1.3036203E1,1.4772562E-2,1.0638596E1,-3.5661617E-1,-1.9731314E1,-2.4752317E-1,-6.7909193E0,-3.3651779E0,-1.08732395E1,-1.1025008E1,-4.7160262E-1,-1.5404068E1,-3.9924116E0,2.8909807E0,-1.5278006E-1,-3.3745565E0,-9.827053E0,4.5317665E-1,-4.344715E-1,-3.707347E0,1.1187593E0,4.3768445E-1,-3.7789562E-1,-1.709156E-1,8.116799E0,-1.372516E-1,2.868023E-2,5.349151E0,5.120957E-1,-5.6632233E0,1.4218453E0,1.710682E-2,8.2048255E-1,9.4183235E0,5.7203956E0,1.3889568E-1,1.9889584E-1,5.3835833E-1,-2.5873737E0,1.408995E1,1.0724305E1,2.2257922E0,-4.048612E-1,2.7322197E-2,1.1699229E1,-2.0355806E1,-1.1858731E-1,-3.2727262E-1,1.8930403E0,-8.956863E0,1.4046421E0,2.5389671E0,-3.475996E-1,-1.4835347E1,-6.0050287E0,1.325121E-2,-1.1550239E1,1.6992136E0,-2.485218E0,-9.133262E-1,-1.2054706E1,-3.6748162E-1,-4.2346063E-1,4.3044567E-2,1.6403566E-1,-1.9912276E-1,-3.8771536E-2,-1.2797566E-1,-5.2498144E-1,3.4288445E0,-2.3118205E0,-1.6985143E0,-6.1303587E0,4.6421237E0,-1.488046E0,1.0495472E-1,-1.7452364E-1,8.952633E0,7.553215E-2,1.7419294E0,3.2218271E-1,2.4226856E-1,-4.0576896E-1,-1.6099696E0,-9.51523E0,-4.6292427E-1,3.9293596E-1,1.0321662E1,2.2780159E0,6.552048E-1,7.695919E0,-2.0730973E-3,1.24902725E-2,-5.540311E0,3.0443278E-1,1.6125727E1,1.1104918E1,-3.7682064E0,1.1634117E1,4.0144444E-1,4.411655E-2,1.2395223E1,1.5328208E-1,-2.6425296E-1,-1.0390636E0,-1.0762406E-2,1.5004984E-1,-5.266997E-1,-3.5706773E-2,-2.909707E-1,2.876233E-1,1.5961151E-1,3.0811025E-2,-1.3346949E-1,-7.8493357E-1,1.5696803E-1,-3.5608667E-1,-1.217713E-1,-6.169974E-1,-5.478859E-4,1.2798892E-1,-2.431345E-2,-1.620779E-1,-1.5964471E-1,-6.2453884E-1,-3.325758E-2,1.4980317E-3,2.1998298E-1,1.2909985E-2,-2.594661E-1,-2.4388313E-2,1.0521247E-1,-3.369043E-1,2.8888616E-1,-3.4336337E-1,5.798749E-1,1.1615962E-1,1.5442787E-1,-2.7290922E-1,4.7659755E-1,3.553753E-2,1.041029E-1,2.6541805E-2,8.396711E-2,-4.120208E-2,9.460735E-2,-1.4404406E-1,6.667671E-2,-5.6277794E-1,2.521387E-1,-1.12336054E-1,1.8742351E-1,5.502411E-1,2.7609492E-2,1.9098893E-1,-1.3422705E-1,2.7778113E-1,-3.474636E-2,4.279084E-1,-3.9802858E-1,1.035183E-1,3.2323804E-1,8.8202316E-1,7.5710773E-1,4.290765E-1,1.0949736E-1,-3.9211282E-1,6.7607623E-1,3.6273703E-1,-1.2689267E-1,1.3086316E-1,1.7624722E-1,6.579421E-1],"categories":[],"categories_nodes":[],"categories_segments":[],"categories_sizes":[],"default_left":[0,0,1,0,1,0,0,0,0,0,0,0,1,0,0,0,0,0,0,0,0,0,0,0,0,1,0,0,0,0,1,0,0,0,0,0,0,0,0,0,0,0,0,0,0,0,0,0,0,0,0,0,0,0,0,1,0,0,0,0,0,0,0,0,0,0,0,0,0,0,0,0,0,0,0,0,0,0,0,0,0,0,0,0,0,0,0,0,0,0,0,0,0,0,0,0,0,0,0,0,0,0,0,0,0,0,0,0,0,0,0,0,0,0,0,0,0,0,0,0,0,0,0,0,0,0,0,0,0,0,0,0,0,0,0,0,0,0,0,0,0,0,0,0,0,0,0,0,0,0,0,0,0,0,0,0,0,0,0,0,0,0,0,0,0,0,0,0,0,0,0,0,0,0,0,0,0,0,0,0,0,0,0,0,0,0,0,0,0,0,0,0,0,0,0,0,0,0,0,0,0,0,0,0,0,0,0,0,0,0,0,0,0,0,0,0,0,0,0,0,0,0,0,0,0,0,0],"id":5,"left_children":[1,3,5,7,9,11,13,15,17,19,21,23,25,27,29,-1,31,-1,-1,33,35,37,39,41,43,45,47,49,51,53,55,-1,57,-1,59,-1,61,63,65,67,69,71,73,-1,75,77,79,81,83,85,87,-1,89,91,93,95,97,-1,99,101,103,105,107,109,111,113,115,117,-1,119,121,-1,123,125,127,-1,-1,129,131,-1,-1,133,135,137,139,-1,-1,141,143,145,-1,-1,147,149,151,153,-1,-1,155,157,-1,-1,159,161,163,165,-1,167,169,-1,171,173,175,-1,177,-1,179,-1,-1,-1,-1,-1,-1,181,183,185,187,189,191,-1,-1,193,-1,195,-1,-1,197,199,201,203,-1,205,207,209,211,-1,-1,213,-1,215,217,219,221,-1,223,225,-1,-1,-1,-1,-1,-1,-1,-1,-1,-1,-1,-1,-1,-1,-1,-1,-1,-1,-1,-1,-1,-1,-1,-1,-1,-1,-1,-1,-1,-1,-1,-1,-1,-1,-1,-1,-1,-1,-1,-1,-1,-1,-1,-1,-1,-1,-1,-1,-1,-1,-1,-1,-1,-1,-1,-1,-1,-1,-1,-1,-1,-1,-1,-1,-1,-1,-1,-1,-1,-1,-1],"loss_changes":[4.160781E4,5.2944473E3,1.0801695E4,3.5327734E2,4.1528418E2,4.5885922E2,6.513242E2,3.0270508E2,5.690674E1,3.0375293E2,3.5177734E2,7.07505E2,5.6360925E2,3.748994E2,9.182168E2,0E0,2.0374414E2,0E0,0E0,3.1628732E2,3.8956177E2,1.6785059E2,2.766339E2,3.5529022E2,5.174586E2,2.1329291E2,2.757745E2,2.1581445E2,8.168305E1,5.828086E2,6.154877E2,0E0,2.1203125E2,0E0,1.8111935E2,0E0,1.7828662E2,3.707881E2,2.4974365E2,4.6158043E1,4.674475E1,3.411897E2,4.5084882E2,0E0,3.1794742E2,1.7587799E2,1.070411E1,9.4023445E1,3.536353E2,2.1172656E2,2.4354736E2,0E0,1.7022684E1,5.167833E2,1.12E2,2.5118794E2,1.00647705E2,0E0,2.2274316E2,1.0675863E2,2.7884808E2,1.4471332E2,3.5454565E2,1.3944775E2,2.6078861E1,9.899902E0,4.4814743E1,3.404312E-1,0E0,3.231907E0,1.2229858E1,0E0,8.770759E1,2.6216333E2,2.8244943E2,0E0,0E0,3.7468544E1,7.482202E1,0E0,0E0,1.6412384E1,4.5717068E1,2.3449133E2,1.613543E2,0E0,0E0,2.473916E2,4.5525208E2,7.0367694E-2,0E0,0E0,1.8745163E2,2.5238086E2,5.448872E2,1.3891101E2,0E0,0E0,1.6080933E1,4.405957E1,0E0,0E0,1.4661308E1,1.4847577E2,1.5911168E2,1.8010597E0,0E0,8.4132324E1,1.4489664E2,0E0,1.283042E2,4.4431887E0,2.9593868E0,0E0,1.42196045E1,0E0,3.4869182E-1,0E0,0E0,0E0,0E0,0E0,0E0,1.1176449E1,3.945858E1,6.2743616E2,2.590564E2,1.8273422E2,3.4391342E2,0E0,0E0,6.0070557E1,0E0,1.3055038E-1,0E0,0E0,1.0105297E1,4.5508976E1,1.6605298E2,1.1936124E2,0E0,1.24898926E2,1.38556385E1,2.440404E2,2.4470215E2,0E0,0E0,1.085804E2,0E0,4.7131055E2,1.9605762E2,8.999558E1,1.9946875E2,0E0,6.643631E1,7.803955E0,0E0,0E0,0E0,0E0,0E0,0E0,0E0,0E0,0E0,0E0,0E0,0E0,0E0,0E0,0E0,0E0,0E0,0E0,0E0,0E0,0E0,0E0,0E0,0E0,0E0,0E0,0E0,0E0,0E0,0E0,0E0,0E0,0E0,0E0,0E0,0E0,0E0,0E0,0E0,0E0,0E0,0E0,0E0,0E0,0E0,0E0,0E0,0E0,0E0,0E0,0E0,0E0,0E0,0E0,0E0,0E0,0E0,0E0,0E0,0E0,0E0,0E0,0E0,0E0,0E0,0E0,0E0,0E0,0E0,0E0,0E0],"parents":[2147483647,0,0,1,1,2,2,3,3,4,4,5,5,6,6,7,7,8,8,9,9,10,10,11,11,12,12,13,13,14,14,16,16,19,19,20,20,21,21,22,22,23,23,24,24,25,25,26,26,27,27,28,28,29,29,30,30,32,32,34,34,36,36,37,37,38,38,39,39,40,40,41,41,42,42,44,44,45,45,46,46,47,47,48,48,49,49,50,50,52,52,53,53,54,54,55,55,56,56,58,58,59,59,60,60,61,61,62,62,63,63,64,64,65,65,66,66,67,67,69,69,70,70,72,72,73,73,74,74,77,77,78,78,81,81,82,82,83,83,84,84,87,87,88,88,89,89,92,92,93,93,94,94,95,95,98,98,99,99,102,102,103,103,104,104,105,105,107,107,108,108,110,110,111,111,112,112,114,114,116,116,123,123,124,124,125,125,126,126,127,127,128,128,131,131,133,133,136,136,137,137,138,138,139,139,141,141,142,142,143,143,144,144,147,147,149,149,150,150,151,151,152,152,154,154,155,155],"right_children":[2,4,6,8,10,12,14,16,18,20,22,24,26,28,30,-1,32,-1,-1,34,36,38,40,42,44,46,48,50,52,54,56,-1,58,-1,60,-1,62,64,66,68,70,72,74,-1,76,78,80,82,84,86,88,-1,90,92,94,96,98,-1,100,102,104,106,108,110,112,114,116,118,-1,120,122,-1,124,126,128,-1,-1,130,132,-1,-1,134,136,138,140,-1,-1,142,144,146,-1,-1,148,150,152,154,-1,-1,156,158,-1,-1,160,162,164,166,-1,168,170,-1,172,174,176,-1,178,-1,180,-1,-1,-1,-1,-1,-1,182,184,186,188,190,192,-1,-1,194,-1,196,-1,-1,198,200,202,204,-1,206,208,210,212,-1,-1,214,-1,216,218,220,222,-1,224,226,-1,-1,-1,-1,-1,-1,-1,-1,-1,-1,-1,-1,-1,-1,-1,-1,-1,-1,-1,-1,-1,-1,-1,-1,-1,-1,-1,-1,-1,-1,-1,-1,-1,-1,-1,-1,-1,-1,-1,-1,-1,-1,-1,-1,-1,-1,-1,-1,-1,-1,-1,-1,-1,-1,-1,-1,-1,-1,-1,-1,-1,-1,-1,-1,-1,-1,-1,-1,-1,-1,-1],"split_conditions":[5.4666668E1,4.14E1,6.3375E1,1.3685237E1,9.832665E0,6.1E1,7.073333E1,1.2E1,4.7E1,3E0,3E0,6.0636364E1,9.017992E0,8.4E1,1.4224392E1,-1.1389313E-1,8.917202E0,-5.671016E-1,-6.9968514E-2,4.4E1,2.5E1,5E1,3.7E1,5.4E1,5.5E1,6.0714287E1,5.3E1,5.2E1,6.785714E1,5.8E1,1.327002E1,-1.3032302E0,2.8366667E1,3.133697E-1,4.4714287E1,3.0742016E-1,8.322154E0,4.6633335E1,1.396483E1,5E0,4.275E1,5.2E1,5.9E1,-9.566637E-1,5.7E1,5.584E1,5.7E1,5.4714287E1,6.3E1,5.2E1,9.086883E0,-2.0651196E-1,6.8E1,4E0,7.8E1,1.2932836E1,2E0,-3.5661617E-1,3.7142857E1,6.3388734E0,5.7E1,4.4E1,4.9E1,3.8142857E1,4E0,4.5E1,1E0,1E0,-1.5278006E-1,4.9E1,2.4E1,4.5317665E-1,5.2E1,5.7105263E1,6.1E1,4.3768445E-1,-3.7789562E-1,2E0,6E0,-1.372516E-1,2.868023E-2,5.773503E0,1E0,1.0612212E1,6.057143E1,1.710682E-2,8.2048255E-1,7.045E1,9.463928E0,1E0,1.9889584E-1,5.3835833E-1,7.6E1,9.62854E0,6.2686086E0,6E1,-4.048612E-1,2.7322197E-2,7.7E1,8.9421215E0,-1.1858731E-1,-3.2727262E-1,5E1,5.2E1,3.7E1,6E0,-3.475996E-1,2.7E1,4.0857143E1,1.325121E-2,1E0,1E0,5E0,-9.133262E-1,4.6E1,-3.6748162E-1,2E0,4.3044567E-2,1.6403566E-1,-1.9912276E-1,-3.8771536E-2,-1.2797566E-1,-5.2498144E-1,5.2E1,5.3E1,6E1,3.3E1,5.92E1,5.7433334E1,1.0495472E-1,-1.7452364E-1,7.6E1,7.553215E-2,1E0,3.2218271E-1,2.4226856E-1,3.7E1,5.2E1,4.2E1,5.2E1,3.9293596E-1,6.5335145E0,6.7E1,9.352362E0,5.4E1,-2.0730973E-3,1.24902725E-2,6E0,3.0443278E-1,6.8E1,6.4E1,2E0,7.59E1,4.0144444E-1,7.292308E1,1.3325387E1,1.5328208E-1,-2.6425296E-1,-1.0390636E0,-1.0762406E-2,1.5004984E-1,-5.266997E-1,-3.5706773E-2,-2.909707E-1,2.876233E-1,1.5961151E-1,3.0811025E-2,-1.3346949E-1,-7.8493357E-1,1.5696803E-1,-3.5608667E-1,-1.217713E-1,-6.169974E-1,-5.478859E-4,1.2798892E-1,-2.431345E-2,-1.620779E-1,-1.5964471E-1,-6.2453884E-1,-3.325758E-2,1.4980317E-3,2.1998298E-1,1.2909985E-2,-2.594661E-1,-2.4388313E-2,1.0521247E-1,-3.369043E-1,2.8888616E-1,-3.4336337E-1,5.798749E-1,1.1615962E-1,1.5442787E-1,-2.7290922E-1,4.7659755E-1,3.553753E-2,1.041029E-1,2.6541805E-2,8.396711E-2,-4.120208E-2,9.460735E-2,-1.4404406E-1,6.667671E-2,-5.6277794E-1,2.521387E-1,-1.12336054E-1,1.8742351E-1,5.502411E-1,2.7609492E-2,1.9098893E-1,-1.3422705E-1,2.7778113E-1,-3.474636E-2,4.279084E-1,-3.9802858E-1,1.035183E-1,3.2323804E-1,8.8202316E-1,7.5710773E-1,4.290765E-1,1.0949736E-1,-3.9211282E-1,6.7607623E-1,3.6273703E-1,-1.2689267E-1,1.3086316E-1,1.7624722E-1,6.579421E-1],"split_indices":[11,11,11,18,17,6,11,7,7,2,13,11,17,5,18,0,17,0,0,7,6,7,5,12,5,12,5,5,12,7,17,0,11,0,12,0,17,11,17,2,11,6,12,0,5,11,5,12,5,8,17,0,11,2,8,17,2,0,12,17,8,6,6,12,2,8,2,2,0,5,7,0,12,11,5,0,0,2,2,0,0,18,2,18,12,0,0,11,17,2,0,0,8,17,17,7,0,0,7,17,0,0,6,11,5,2,0,7,12,0,2,2,2,0,8,0,2,0,0,0,0,0,0,5,12,8,5,12,11,0,0,5,0,2,0,0,5,7,8,7,0,17,8,18,5,0,0,2,0,6,6,2,11,0,11,17,0,0,0,0,0,0,0,0,0,0,0,0,0,0,0,0,0,0,0,0,0,0,0,0,0,0,0,0,0,0,0,0,0,0,0,0,0,0,0,0,0,0,0,0,0,0,0,0,0,0,0,0,0,0,0,0,0,0,0,0,0,0,0,0,0,0,0,0,0,0,0],"split_type":[0,0,0,0,0,0,0,0,0,0,0,0,0,0,0,0,0,0,0,0,0,0,0,0,0,0,0,0,0,0,0,0,0,0,0,0,0,0,0,0,0,0,0,0,0,0,0,0,0,0,0,0,0,0,0,0,0,0,0,0,0,0,0,0,0,0,0,0,0,0,0,0,0,0,0,0,0,0,0,0,0,0,0,0,0,0,0,0,0,0,0,0,0,0,0,0,0,0,0,0,0,0,0,0,0,0,0,0,0,0,0,0,0,0,0,0,0,0,0,0,0,0,0,0,0,0,0,0,0,0,0,0,0,0,0,0,0,0,0,0,0,0,0,0,0,0,0,0,0,0,0,0,0,0,0,0,0,0,0,0,0,0,0,0,0,0,0,0,0,0,0,0,0,0,0,0,0,0,0,0,0,0,0,0,0,0,0,0,0,0,0,0,0,0,0,0,0,0,0,0,0,0,0,0,0,0,0,0,0,0,0,0,0,0,0,0,0,0,0,0,0,0,0,0,0,0,0],"sum_hessian":[5.76E2,1.71E2,4.05E2,5.5E1,1.16E2,1.69E2,2.36E2,5E1,5E0,5E1,6.6E1,1.05E2,6.4E1,9.8E1,1.38E2,1E0,4.9E1,4E0,1E0,2.2E1,2.8E1,5.2E1,1.4E1,9.9E1,6E0,2.1E1,4.3E1,9.2E1,6E0,1.17E2,2.1E1,2.2E1,2.7E1,2E0,2E1,1E0,2.7E1,2.6E1,2.6E1,4E0,1E1,1.5E1,8.4E1,3E0,3E0,1.8E1,3E0,1.6E1,2.7E1,6E0,8.6E1,2E0,4E0,1E1,1.07E2,1.2E1,9E0,3E0,2.4E1,6E0,1.4E1,5E0,2.2E1,2.2E1,4E0,2.3E1,3E0,3E0,1E0,3E0,7E0,5E0,1E1,5.5E1,2.9E1,1E0,2E0,3E0,1.5E1,2E0,1E0,6E0,1E1,1.5E1,1.2E1,1E0,5E0,4.1E1,4.5E1,2E0,2E0,5E0,5E0,7E1,3.7E1,1E1,2E0,1E0,8E0,2.3E1,1E0,1E0,5E0,1.1E1,3E0,2E0,3E0,1.1E1,1.1E1,1E0,2.1E1,2E0,2E0,1E1,1.3E1,1E0,2E0,1E0,2E0,2E0,1E0,1E0,6E0,3E0,7E0,3.1E1,2.4E1,1.2E1,1.7E1,2E0,1E0,1.3E1,2E0,2E0,4E0,1E0,9E0,8E0,7E0,1E1,2E0,3.6E1,5E0,1.3E1,3.2E1,1E0,1E0,4E0,1E0,3.9E1,3.1E1,2E0,3.5E1,2E0,8E0,7E0,1E0,1E0,2.2E1,2E0,3E0,9E0,2E0,1E0,2E0,1E0,1E0,1E0,1E1,1E0,1E1,2E0,1.9E1,1E0,1E0,1E0,1E0,1E0,1.2E1,1E0,1E0,2E0,1E0,2E0,5E0,1.8E1,1.3E1,1E0,2.3E1,2E0,1E1,8E0,9E0,1.2E1,1E0,1E0,1E0,1E0,8E0,2E0,6E0,1E0,6E0,2E0,8E0,4E0,3.2E1,3E0,2E0,8E0,5E0,3E0,2.9E1,3E0,1E0,6E0,3.3E1,1E1,2.1E1,1E0,1E0,2.3E1,1.2E1,4E0,4E0,1E0,6E0],"tree_param":{"num_deleted":"0","num_feature":"21","num_nodes":"227","size_leaf_vector":"1"}},{"base_weights":[3.192732E-2,-1.3209035E1,5.119509E0,-1.0065812E0,-9.753742E0,-3.6256287E-1,9.274163E0,-8.994762E0,-1.9202925E1,5.442949E0,-8.589715E-1,5.8108015E0,1.0247817E1,-1.4657154E1,-8.343063E0,-1.0244416E0,-2.8718692E-1,8.4595424E-1,7.9028397E0,3.909718E-1,-2.484123E0,1.1179888E1,4.3021793E0,1.0747015E1,3.0467474E0,-1.7659153E1,-1.3833861E-1,-5.4688616E0,-9.714069E0,3.072137E0,-5.1758576E-2,-2.8293738E-1,1.0282053E1,1.4556094E0,-5.2421846E0,-1.1033165E0,-6.805313E0,6.2112075E-1,3.7256775E0,5.746516E0,9.210014E-2,-2.97686E-1,1.0883488E1,-3.9136583E-1,5.735424E0,-9.724288E-1,-1.7306519E-1,-8.937878E0,-2.6249099E0,-1.0914918E1,-3.9010289E0,4.1968442E-2,1.8844186E-1,2.8148174E-2,-4.936848E-2,1.4628191E-1,5.510258E-1,9.0592736E-1,9.4097185E0,-6.4464393E0,-3.1887436E-1,-5.7476E-1,-4.9427938E-1,-7.636465E0,1.6232796E-1,2.6274663E-1,1.6679192E-2,7.26915E0,2.1788383E0,3.1725746E-1,-2.697266E0,2.2329109E0,1.1083299E1,9.3887635E-2,7.6715574E0,-1.8150047E0,-5.8027637E-1,-5.8830385E0,1.6489042E0,-1.2488485E1,-7.4236608E0,-6.4326205E0,-1.1738036E0,-3.4034019E0,2.6448035E0,5.7078284E-1,3.4649085E-2,-7.583505E0,-2.537028E-2,-4.5680046E-2,3.6632635E-2,1.2670157E0,-2.8467083E0,-1.9529428E0,-8.79782E0,4.689305E0,9.422694E0,-1.3005093E0,6.614157E0,3.303089E-1,-4.266105E0,-2.499934E0,3.1107262E-1,9.856074E0,1.2634814E1,4.5704904E-1,-2.8624535E-2,1.7335993E-1,-3.2461032E-1,1.1236077E-1,-3.9697263E-1,3.2592258E-1,-9.3613915E-2,-6.821928E-2,-6.396738E-1,-3.9100114E-2,-4.63271E-1,-4.3618208E-1,1.255621E-1,1.6673708E-1,-1.2405091E-1,-9.909714E-1,-8.38952E-2,-3.4854308E-1,1.6735573E-1,-4.0022144E-1,-9.4879724E-2,-2.698095E-2,2.8715956E-1,-2.7639267E-1,9.690834E-2,-2.1277161E-1,1.1651549E-2,-2.8099155E-2,-4.7186542E-1,5.067098E-2,4.8164302E-1,5.7399094E-1,1.4763851E-1,1.2178808E-1,-2.3558263E-1,1.0399247E-2,4.081852E-1,-3.622036E-2,8.736143E-2,-6.43939E-2,-2.3020874E-1,-2.0213127E-3,-1.8547373E-1,6.293863E-1,4.2325407E-1,4.9270836E-1,7.060772E-1],"categories":[],"categories_nodes":[],"categories_segments":[],"categories_sizes":[],"default_left":[0,0,1,0,0,0,0,0,0,0,1,0,0,0,1,0,0,0,0,0,0,0,0,0,0,0,0,0,0,0,0,0,0,0,0,0,0,0,0,0,0,0,0,0,0,0,0,0,0,0,0,0,0,0,0,0,0,1,0,0,0,0,0,0,0,0,0,0,0,0,0,0,0,0,0,0,0,0,0,0,0,0,0,0,0,0,0,0,0,0,0,0,0,0,0,0,0,0,0,0,0,0,0,0,0,0,0,0,0,0,0,0,0,0,0,0,0,0,0,0,0,0,0,0,0,0,0,0,0,0,0,0,0,0,0,0,0,0,0,0,0,0,0,0,0,0,0,0,0,0,0,0,0],"id":6,"left_children":[1,3,5,-1,7,9,11,13,15,17,19,21,23,25,27,-1,-1,29,31,33,35,37,39,41,43,45,-1,47,49,51,-1,53,55,57,59,61,63,-1,65,67,69,-1,71,-1,73,-1,-1,75,77,79,81,-1,-1,-1,-1,-1,-1,83,85,87,89,-1,91,93,-1,-1,-1,95,97,-1,99,101,103,-1,105,107,-1,109,111,113,115,117,119,121,123,-1,-1,125,-1,-1,-1,127,129,131,133,135,137,139,141,143,145,147,-1,149,151,-1,-1,-1,-1,-1,-1,-1,-1,-1,-1,-1,-1,-1,-1,-1,-1,-1,-1,-1,-1,-1,-1,-1,-1,-1,-1,-1,-1,-1,-1,-1,-1,-1,-1,-1,-1,-1,-1,-1,-1,-1,-1,-1,-1,-1,-1,-1,-1],"loss_changes":[3.78591E4,3.5350938E3,9.250465E3,0E0,5.8747754E2,5.1189078E2,7.1941016E2,2.4673242E2,3.4685059E0,1.5162802E2,3.320808E2,3.81198E2,6.107168E2,2.723954E2,3.0940527E2,0E0,0E0,2.8306572E1,1.7819055E2,5.653767E2,4.161292E2,5.5600586E1,2.609439E2,4.4542383E2,4.2497192E2,1.1052417E2,0E0,2.9224176E2,3.8323584E2,1.5032635E0,0E0,2.3434923E0,5.784973E0,3.368817E2,8.6878204E1,3.424155E2,1.6682092E2,0E0,1.380917E1,1.5799426E2,2.2641908E2,0E0,2.621797E2,0E0,6.775333E1,0E0,0E0,2.4495447E2,2.7426862E2,1.8197607E2,7.53E1,0E0,0E0,0E0,0E0,0E0,0E0,5.7100555E2,7.951535E1,7.7188995E1,3.1708364E0,0E0,2.2320285E2,8.8427795E1,0E0,0E0,0E0,7.804187E1,1.7835394E2,0E0,4.4157127E1,1.0993895E2,1.8392773E2,0E0,9.003107E1,1.4603943E2,0E0,2.017525E2,1.6652344E2,9.450537E1,2.129364E2,1.4485063E2,4.9529E1,5.8991284E2,3.8800433E2,0E0,0E0,8.744202E0,0E0,0E0,0E0,2.5379036E2,3.0577954E2,2.112437E1,6.3163635E1,2.0830121E2,1.1250653E2,1.0069115E2,4.7935394E1,7.243497E0,1.1147308E-1,8.774664E0,0E0,2.5441602E2,1.4196094E2,0E0,0E0,0E0,0E0,0E0,0E0,0E0,0E0,0E0,0E0,0E0,0E0,0E0,0E0,0E0,0E0,0E0,0E0,0E0,0E0,0E0,0E0,0E0,0E0,0E0,0E0,0E0,0E0,0E0,0E0,0E0,0E0,0E0,0E0,0E0,0E0,0E0,0E0,0E0,0E0,0E0,0E0,0E0,0E0,0E0,0E0,0E0,0E0],"parents":[2147483647,0,0,1,1,2,2,4,4,5,5,6,6,7,7,8,8,9,9,10,10,11,11,12,12,13,13,14,14,17,17,18,18,19,19,20,20,21,21,22,22,23,23,24,24,25,25,27,27,28,28,29,29,31,31,32,32,33,33,34,34,35,35,36,36,38,38,39,39,40,40,42,42,44,44,47,47,48,48,49,49,50,50,57,57,58,58,59,59,60,60,62,62,63,63,67,67,68,68,70,70,71,71,72,72,74,74,75,75,77,77,78,78,79,79,80,80,81,81,82,82,83,83,84,84,87,87,91,91,92,92,93,93,94,94,95,95,96,96,97,97,98,98,99,99,100,100,101,101,103,103,104,104],"right_children":[2,4,6,-1,8,10,12,14,16,18,20,22,24,26,28,-1,-1,30,32,34,36,38,40,42,44,46,-1,48,50,52,-1,54,56,58,60,62,64,-1,66,68,70,-1,72,-1,74,-1,-1,76,78,80,82,-1,-1,-1,-1,-1,-1,84,86,88,90,-1,92,94,-1,-1,-1,96,98,-1,100,102,104,-1,106,108,-1,110,112,114,116,118,120,122,124,-1,-1,126,-1,-1,-1,128,130,132,134,136,138,140,142,144,146,148,-1,150,152,-1,-1,-1,-1,-1,-1,-1,-1,-1,-1,-1,-1,-1,-1,-1,-1,-1,-1,-1,-1,-1,-1,-1,-1,-1,-1,-1,-1,-1,-1,-1,-1,-1,-1,-1,-1,-1,-1,-1,-1,-1,-1,-1,-1,-1,-1,-1,-1],"split_conditions":[5.242857E1,3.757143E1,6.3375E1,-1.0065812E0,5.9E1,5.492857E1,6.7E1,6.8417487E0,7E1,5.1E1,9.082951E0,6.3857143E1,1.4735768E1,4.8E1,9.673233E0,-1.0244416E0,-2.8718692E-1,1E0,3.8234863E0,6E0,5.8733334E1,9.856108E0,7.7E1,4.9E1,1.5240922E1,4.6714287E1,-1.3833861E-1,8.035635E0,3E0,3.6E1,-5.1758576E-2,4E0,5.3142857E1,7.3E1,8.336666E0,9.198861E0,6.614286E1,6.2112075E-1,5E0,6.878571E1,5.871643E0,-2.97686E-1,6.5833336E1,-3.9136583E-1,2E0,-9.724288E-1,-1.7306519E-1,4.1E1,4.6214287E1,4E0,1.1645559E1,4.1968442E-2,1.8844186E-1,2.8148174E-2,-4.936848E-2,1.4628191E-1,5.510258E-1,5.5966667E1,7.6E1,7.1E1,5.6E1,-5.7476E-1,1.2686701E1,4.3E1,1.6232796E-1,2.6274663E-1,1.6679192E-2,6.528571E1,7.021429E1,3.1725746E-1,6.3E1,6.6E1,7.273333E1,9.3887635E-2,5E0,7.158079E0,-5.8027637E-1,3.8857143E1,4.8E1,3.95E1,4.142857E1,5.4857143E1,3.3E1,4.7E1,3.3166249E0,5.7078284E-1,3.4649085E-2,8.320943E0,-2.537028E-2,-4.5680046E-2,3.6632635E-2,6.3E1,4E0,5.7E1,5.65E1,6.7E1,6.657143E1,3E0,5.7E1,6.528571E1,7.8E1,1E0,3.1107262E-1,7E1,8.420497E0,4.5704904E-1,-2.8624535E-2,1.7335993E-1,-3.2461032E-1,1.1236077E-1,-3.9697263E-1,3.2592258E-1,-9.3613915E-2,-6.821928E-2,-6.396738E-1,-3.9100114E-2,-4.63271E-1,-4.3618208E-1,1.255621E-1,1.6673708E-1,-1.2405091E-1,-9.909714E-1,-8.38952E-2,-3.4854308E-1,1.6735573E-1,-4.0022144E-1,-9.4879724E-2,-2.698095E-2,2.8715956E-1,-2.7639267E-1,9.690834E-2,-2.1277161E-1,1.1651549E-2,-2.8099155E-2,-4.7186542E-1,5.067098E-2,4.8164302E-1,5.7399094E-1,1.4763851E-1,1.2178808E-1,-2.3558263E-1,1.0399247E-2,4.081852E-1,-3.622036E-2,8.736143E-2,-6.43939E-2,-2.3020874E-1,-2.0213127E-3,-1.8547373E-1,6.293863E-1,4.2325407E-1,4.9270836E-1,7.060772E-1],"split_indices":[10,12,11,0,7,10,12,18,7,5,18,12,18,5,18,0,0,2,18,2,11,18,7,7,18,10,0,18,13,5,0,2,10,5,18,18,12,0,2,10,18,0,11,0,2,0,0,5,10,2,18,0,0,0,0,0,0,11,5,7,5,0,18,5,0,0,0,12,10,0,5,7,11,0,2,18,0,12,10,10,12,12,7,5,18,0,0,18,0,0,0,5,2,7,10,5,12,2,7,10,7,2,0,10,18,0,0,0,0,0,0,0,0,0,0,0,0,0,0,0,0,0,0,0,0,0,0,0,0,0,0,0,0,0,0,0,0,0,0,0,0,0,0,0,0,0,0,0,0,0,0,0,0],"split_type":[0,0,0,0,0,0,0,0,0,0,0,0,0,0,0,0,0,0,0,0,0,0,0,0,0,0,0,0,0,0,0,0,0,0,0,0,0,0,0,0,0,0,0,0,0,0,0,0,0,0,0,0,0,0,0,0,0,0,0,0,0,0,0,0,0,0,0,0,0,0,0,0,0,0,0,0,0,0,0,0,0,0,0,0,0,0,0,0,0,0,0,0,0,0,0,0,0,0,0,0,0,0,0,0,0,0,0,0,0,0,0,0,0,0,0,0,0,0,0,0,0,0,0,0,0,0,0,0,0,0,0,0,0,0,0,0,0,0,0,0,0,0,0,0,0,0,0,0,0,0,0,0,0],"sum_hessian":[5.6E2,1.55E2,4.05E2,5E1,1.05E2,1.75E2,2.3E2,9.9E1,6E0,1.3E1,1.62E2,5.2E1,1.78E2,8E0,9.1E1,5E0,1E0,5E0,8E0,9.2E1,7E1,1E1,4.2E1,1.66E2,1.2E1,6E0,2E0,3.1E1,6E1,2E0,3E0,2E0,6E0,7.8E1,1.4E1,5.4E1,1.6E1,8E0,2E0,3.1E1,1.1E1,1E0,1.65E2,2E0,1E1,5E0,1E0,1.3E1,1.8E1,4.9E1,1.1E1,1E0,1E0,1E0,1E0,1E0,5E0,7.4E1,4E0,1.1E1,3E0,2E0,5.2E1,1.5E1,1E0,1E0,1E0,2.1E1,1E1,3E0,8E0,4E0,1.61E2,4E0,6E0,4E0,9E0,1E1,8E0,3.2E1,1.7E1,5E0,6E0,2.1E1,5.3E1,3E0,1E0,9E0,2E0,2E0,1E0,3E1,2.2E1,3E0,1.2E1,1.1E1,1E1,6E0,4E0,3E0,5E0,2E0,2E0,9.4E1,6.7E1,5E0,1E0,2E0,2E0,2E0,8E0,3E0,5E0,1E0,3.1E1,4E0,1.3E1,4E0,1E0,1E0,5E0,1E0,2E1,3E0,5E1,8E0,1E0,2.2E1,8E0,1.4E1,8E0,1E0,2E0,1E0,1.1E1,7E0,4E0,7E0,3E0,3E0,3E0,1E0,3E0,2E0,1E0,1E0,4E0,1E0,1E0,2.9E1,6.5E1,2.6E1,4.1E1],"tree_param":{"num_deleted":"0","num_feature":"21","num_nodes":"153","size_leaf_vector":"1"}},{"base_weights":[1.8046254E-1,-1.1859936E1,5.054213E0,-1.8741186E1,-8.52561E0,-6.2783355E-1,8.844766E0,-8.588133E-2,-1.9029976E1,-8.857002E0,6.7987022E0,4.0078883E0,-1.0782126E0,7.9632015E0,1.1488971E1,-1.923476E1,-2.0953189E-1,-6.1742706E0,-1.0187438E1,4.7611982E-1,3.3782866E-2,5.1052527E0,-2.8388023E-1,-3.1768723E0,-5.8874242E-2,9.194563E0,6.22928E0,1.2659467E1,3.4495518E0,-9.8433256E-1,-4.4451973E-1,-9.592125E0,-3.7398727E0,-1.1233199E1,-5.325231E0,6.4971375E0,-1.0820192E-1,-4.904264E-1,-4.9514885E0,2.5889332E0,-2.2034965E0,8.011173E0,1.6076393E1,1.0764435E1,4.1670704E0,1.3441135E1,6.6801486E0,1.0147953E0,3.1196496E-1,-1.248987E1,-7.191124E-1,2.2577248E0,-5.3521585E0,-6.5614524E0,-1.2512395E1,-2.3960109E0,-8.330625E0,2.7190456E0,4.4036698E-1,5.4399514E0,-3.225241E0,-3.8348684E0,-6.8613905E-1,-8.604908E0,3.8303351E0,3.0083594E-1,-2.7612667E0,9.206508E0,4.822104E0,2.0796822E-1,1.7589832E1,1.1842545E1,-1.0892168E0,-1.3249127E0,5.2028413E0,1.4481064E1,9.374575E0,-2.9327457E0,5.186619E-1,-1.172905E-1,8.0508046E-2,1.837697E-1,-1.4293567E1,4.0782295E-2,-1.0070833E-1,-4.731636E-1,1.8707299E-1,1.1688881E0,-7.055475E0,-8.11868E0,2.3736851E0,-1.3828722E1,-7.0669236E0,9.454543E-2,-3.8909748E0,-9.6095E0,-1.6434288E-2,2.436894E-1,-5.3014632E-2,5.2358246E-1,3.6508912E-1,-8.019498E-1,-4.8444018E-1,-2.1838086E0,-8.476075E0,-4.5087814E-2,-5.1526284E-1,9.309874E0,5.623725E-1,-3.0899801E0,3.7473154E-1,5.5916996E0,1.1597081E1,-2.2749083E0,6.8610578E0,1.8355938E1,2.0991392E-1,3.6541815E0,1.2888089E1,3.129365E-1,-3.9462778E-1,-3.6839235E0,3.1345844E0,6.3807635E0,1.039184E0,2.3359528E-1,7.4740696E-1,1.0688484E1,-1.2696095E-1,-1.5569019E-2,-2.043869E-1,-4.0493012E-4,-8.391857E-3,-1.0706301E0,-3.5833022E-1,1.0336113E-2,-4.5823384E-2,2.7416393E-1,-1.767566E-1,1.0643931E-1,-3.9048395E-1,-1.0652218E-1,-4.8510534E-1,1.5457726E-2,1.6256867E-1,-4.4197413E-1,-7.70384E-1,-4.5813552E-1,7.880389E-2,-2.3145473E-1,-6.8189174E-2,-2.1208362E-1,-5.6164974E-1,8.10463E-2,-4.177761E-2,-9.3051225E-2,1.497808E-1,-2.8579074E-1,6.1792392E-2,-1.5309092E-1,-5.0147074E-1,5.697791E-1,1.9672152E-1,1.107201E-1,-2.3550296E-1,-1.7739765E-1,1.7608337E-1,3.9516622E-1,8.291442E-2,6.270582E-1,-1.7473222E-3,1.0703974E-1,-1.683829E-1,5.0595593E-1,1.6513738E-1,1.0175514E0,4.638999E-1,2.5929126E-1,-2.3518754E-2,9.0348914E-2,6.6881007E-1,-3.0330893E-1,7.572384E-2,1.8334542E-1,3.8440324E-2,2.0388834E-1,5.0187445E-1,1.0659646E-1,-2.7452537E-1,2.606282E-1,6.536465E-1],"categories":[],"categories_nodes":[],"categories_segments":[],"categories_sizes":[],"default_left":[1,0,0,0,0,0,0,0,0,0,0,0,0,0,0,0,0,0,1,0,0,0,0,0,0,0,0,0,0,0,0,0,0,0,0,0,0,0,0,1,0,0,0,0,0,0,0,0,0,0,0,0,0,0,0,0,0,0,0,0,0,0,0,0,0,0,0,0,1,0,0,0,0,0,0,0,0,0,0,0,0,0,0,0,0,0,0,0,0,0,0,0,0,0,0,0,0,0,0,0,0,0,0,0,0,0,0,0,0,0,0,0,0,0,0,0,0,0,0,0,0,0,0,0,0,0,0,0,0,0,0,0,0,0,0,0,0,0,0,0,0,0,0,0,0,0,0,0,0,0,0,0,0,0,0,0,0,0,0,0,0,0,0,0,0,0,0,0,0,0,0,0,0,0,0,0,0,0,0,0,0,0,0,0,0,0,0,0,0,0,0],"id":7,"left_children":[1,3,5,7,9,11,13,-1,15,17,19,21,23,25,27,29,-1,31,33,-1,-1,35,-1,37,39,41,43,45,47,-1,-1,49,51,53,55,57,-1,59,61,63,65,67,69,71,73,75,77,79,-1,81,83,85,87,89,91,93,95,97,-1,99,101,103,-1,105,107,-1,109,111,113,-1,115,117,119,121,123,125,127,129,-1,131,-1,-1,133,-1,-1,135,-1,137,139,141,143,145,147,-1,149,151,-1,-1,-1,153,-1,155,-1,157,159,-1,-1,161,163,165,-1,167,169,171,173,175,-1,177,179,-1,-1,181,183,185,187,-1,-1,189,-1,-1,-1,-1,-1,-1,-1,-1,-1,-1,-1,-1,-1,-1,-1,-1,-1,-1,-1,-1,-1,-1,-1,-1,-1,-1,-1,-1,-1,-1,-1,-1,-1,-1,-1,-1,-1,-1,-1,-1,-1,-1,-1,-1,-1,-1,-1,-1,-1,-1,-1,-1,-1,-1,-1,-1,-1,-1,-1,-1,-1,-1,-1],"loss_changes":[3.4212805E4,3.6948672E3,8.943862E3,2.3279297E2,6.4422754E2,3.5298932E2,4.8893945E2,0E0,8.045117E1,3.4041992E2,4.3598022E1,1.8841331E2,3.271173E2,3.4839062E2,5.20937E2,6.805469E1,0E0,2.9694336E2,3.1644873E2,0E0,0E0,1.5571231E2,0E0,2.3594226E2,5.9627356E2,7.588926E2,7.2204346E2,1.5325098E2,5.4799583E1,0E0,0E0,4.02406E2,2.5382971E2,2.7646582E2,1.1209161E2,8.0790344E1,0E0,3.581333E2,2.4120093E2,6.860742E2,2.8254327E2,3.177456E2,1.9737256E2,3.3238745E2,3.3682257E2,5.454834E1,3.1443222E2,4.232886E0,0E0,4.0242114E2,1.1580821E1,2.6081812E1,2.3039526E2,2.2798181E2,2.3200195E2,6.503659E1,6.847583E1,5.402864E1,0E0,6.025107E1,2.2717645E2,1.9605142E2,0E0,5.6197388E1,7.647622E2,0E0,2.0857712E2,5.2277246E2,4.207818E2,0E0,5.630835E1,1.498147E2,1.9936908E2,1.16747574E2,2.3368799E2,8.593848E1,2.1498438E2,7.810129E0,0E0,1.5198603E-2,0E0,0E0,4.0465234E2,0E0,0E0,1.0936428E0,0E0,1.20859024E2,1.2745392E2,1.0259534E2,4.4308643E0,1.4740527E2,2.1369391E2,0E0,6.7445145E0,4.6411743E0,0E0,0E0,0E0,5.828681E0,0E0,5.3837776E1,0E0,2.7278537E2,2.8162964E1,0E0,0E0,1.3455054E2,2.543159E2,1.7600427E2,0E0,2.5057855E2,4.3970166E2,4.0986267E1,2.2162927E2,2.8518799E1,0E0,2.7708687E1,8.400586E1,0E0,0E0,9.587451E1,2.218296E0,2.7908374E2,9.7328835E1,0E0,0E0,7.548389E1,0E0,0E0,0E0,0E0,0E0,0E0,0E0,0E0,0E0,0E0,0E0,0E0,0E0,0E0,0E0,0E0,0E0,0E0,0E0,0E0,0E0,0E0,0E0,0E0,0E0,0E0,0E0,0E0,0E0,0E0,0E0,0E0,0E0,0E0,0E0,0E0,0E0,0E0,0E0,0E0,0E0,0E0,0E0,0E0,0E0,0E0,0E0,0E0,0E0,0E0,0E0,0E0,0E0,0E0,0E0,0E0,0E0,0E0,0E0,0E0,0E0,0E0,0E0],"parents":[2147483647,0,0,1,1,2,2,3,3,4,4,5,5,6,6,8,8,9,9,10,10,11,11,12,12,13,13,14,14,15,15,17,17,18,18,21,21,23,23,24,24,25,25,26,26,27,27,28,28,31,31,32,32,33,33,34,34,35,35,37,37,38,38,39,39,40,40,41,41,42,42,43,43,44,44,45,45,46,46,47,47,49,49,50,50,51,51,52,52,53,53,54,54,55,55,56,56,57,57,59,59,60,60,61,61,63,63,64,64,66,66,67,67,68,68,70,70,71,71,72,72,73,73,74,74,75,75,76,76,77,77,79,79,82,82,85,85,87,87,88,88,89,89,90,90,91,91,92,92,94,94,95,95,99,99,101,101,103,103,104,104,107,107,108,108,109,109,111,111,112,112,113,113,114,114,115,115,117,117,118,118,121,121,122,122,123,123,124,124,127,127],"right_children":[2,4,6,8,10,12,14,-1,16,18,20,22,24,26,28,30,-1,32,34,-1,-1,36,-1,38,40,42,44,46,48,-1,-1,50,52,54,56,58,-1,60,62,64,66,68,70,72,74,76,78,80,-1,82,84,86,88,90,92,94,96,98,-1,100,102,104,-1,106,108,-1,110,112,114,-1,116,118,120,122,124,126,128,130,-1,132,-1,-1,134,-1,-1,136,-1,138,140,142,144,146,148,-1,150,152,-1,-1,-1,154,-1,156,-1,158,160,-1,-1,162,164,166,-1,168,170,172,174,176,-1,178,180,-1,-1,182,184,186,188,-1,-1,190,-1,-1,-1,-1,-1,-1,-1,-1,-1,-1,-1,-1,-1,-1,-1,-1,-1,-1,-1,-1,-1,-1,-1,-1,-1,-1,-1,-1,-1,-1,-1,-1,-1,-1,-1,-1,-1,-1,-1,-1,-1,-1,-1,-1,-1,-1,-1,-1,-1,-1,-1,-1,-1,-1,-1,-1,-1,-1,-1,-1,-1,-1,-1],"split_conditions":[5.2666668E1,3.7357143E1,6.3E1,1.2E1,7.3E1,4.7E1,7.385714E1,-8.588133E-2,4.9E1,9.795715E0,7.6E1,1.2594405E1,5.4E1,7.3E1,1.2280453E1,1.3866713E1,-2.0953189E-1,8.360907E0,1.2594792E1,4.7611982E-1,3.3782866E-2,5.9785713E1,-2.8388023E-1,5.61E1,6.2E1,7.8E1,9.135127E0,7.778571E1,2E0,-9.8433256E-1,-4.4451973E-1,9.420576E0,4.5714287E1,4.2E1,1.3325387E1,7.0169864E0,-1.0820192E-1,2E0,5.3E1,5.168055E0,5.4785713E1,1.0814452E1,6.578571E1,7.378571E1,9.508816E0,7.9E1,7.2E1,7.2E1,3.1196496E-1,2.9E1,2E0,3.5E1,8.548504E0,1.3866713E1,5.6E1,3E1,1.3849267E1,5.65E1,4.4036698E-1,1E0,1.0562737E1,5.892857E1,-6.8613905E-1,4.4347115E0,9.092927E0,3.0083594E-1,7.1E1,6.2E1,1.111841E1,2.0796822E-1,8.6E1,6.564286E1,2E0,5E0,7.8E1,6.3E1,6E0,3E0,5.186619E-1,1E0,8.0508046E-2,1.837697E-1,4E0,4.0782295E-2,-1.0070833E-1,2E0,1.8707299E-1,2E0,4.1E1,3E0,1E0,4E1,6.2E1,9.454543E-2,5.5E1,2E0,-1.6434288E-2,2.436894E-1,-5.3014632E-2,3.8E1,3.6508912E-1,5.5714287E1,-4.8444018E-1,5E1,7.80415E0,-4.5087814E-2,-5.1526284E-1,7.931252E0,6.9E1,6.2357143E1,3.7473154E-1,4E0,7.24E1,5.7E1,2E0,8.6E1,2.0991392E-1,3E0,5.8E1,3.129365E-1,-3.9462778E-1,7.021429E1,7.2E1,1.1064248E1,8.9E1,2.3359528E-1,7.4740696E-1,8.463561E0,-1.2696095E-1,-1.5569019E-2,-2.043869E-1,-4.0493012E-4,-8.391857E-3,-1.0706301E0,-3.5833022E-1,1.0336113E-2,-4.5823384E-2,2.7416393E-1,-1.767566E-1,1.0643931E-1,-3.9048395E-1,-1.0652218E-1,-4.8510534E-1,1.5457726E-2,1.6256867E-1,-4.4197413E-1,-7.70384E-1,-4.5813552E-1,7.880389E-2,-2.3145473E-1,-6.8189174E-2,-2.1208362E-1,-5.6164974E-1,8.10463E-2,-4.177761E-2,-9.3051225E-2,1.497808E-1,-2.8579074E-1,6.1792392E-2,-1.5309092E-1,-5.0147074E-1,5.697791E-1,1.9672152E-1,1.107201E-1,-2.3550296E-1,-1.7739765E-1,1.7608337E-1,3.9516622E-1,8.291442E-2,6.270582E-1,-1.7473222E-3,1.0703974E-1,-1.683829E-1,5.0595593E-1,1.6513738E-1,1.0175514E0,4.638999E-1,2.5929126E-1,-2.3518754E-2,9.0348914E-2,6.6881007E-1,-3.0330893E-1,7.572384E-2,1.8334542E-1,3.8440324E-2,2.0388834E-1,5.0187445E-1,1.0659646E-1,-2.7452537E-1,2.606282E-1,6.536465E-1],"split_indices":[10,10,10,7,5,7,10,0,6,17,5,18,8,6,18,18,0,18,17,0,0,10,0,10,8,8,17,10,2,0,0,17,10,7,17,18,0,2,8,17,10,18,10,10,17,5,5,6,0,5,2,8,17,18,8,6,17,10,0,2,18,10,0,17,17,0,5,6,18,0,5,10,2,2,5,6,2,2,0,2,0,0,2,0,0,2,0,2,8,2,2,5,6,0,5,2,0,0,0,5,0,10,0,8,18,0,0,18,5,10,0,2,10,6,13,8,0,2,7,0,0,10,5,17,7,0,0,17,0,0,0,0,0,0,0,0,0,0,0,0,0,0,0,0,0,0,0,0,0,0,0,0,0,0,0,0,0,0,0,0,0,0,0,0,0,0,0,0,0,0,0,0,0,0,0,0,0,0,0,0,0,0,0,0,0,0,0,0,0,0,0],"split_type":[0,0,0,0,0,0,0,0,0,0,0,0,0,0,0,0,0,0,0,0,0,0,0,0,0,0,0,0,0,0,0,0,0,0,0,0,0,0,0,0,0,0,0,0,0,0,0,0,0,0,0,0,0,0,0,0,0,0,0,0,0,0,0,0,0,0,0,0,0,0,0,0,0,0,0,0,0,0,0,0,0,0,0,0,0,0,0,0,0,0,0,0,0,0,0,0,0,0,0,0,0,0,0,0,0,0,0,0,0,0,0,0,0,0,0,0,0,0,0,0,0,0,0,0,0,0,0,0,0,0,0,0,0,0,0,0,0,0,0,0,0,0,0,0,0,0,0,0,0,0,0,0,0,0,0,0,0,0,0,0,0,0,0,0,0,0,0,0,0,0,0,0,0,0,0,0,0,0,0,0,0,0,0,0,0,0,0,0,0,0,0],"sum_hessian":[5.81E2,1.67E2,4.14E2,5.3E1,1.14E2,1.66E2,2.48E2,1E0,5.2E1,1.12E2,2E0,1.4E1,1.52E2,1.89E2,5.9E1,5.1E1,1E0,3.9E1,7.3E1,1E0,1E0,1.3E1,1E0,4.9E1,1.03E2,1.08E2,8.1E1,5.1E1,8E0,4.8E1,3E0,1.5E1,2.4E1,5.9E1,1.4E1,1.1E1,2E0,2E1,2.9E1,4.6E1,5.7E1,9.4E1,1.4E1,2.4E1,5.7E1,4.4E1,7E0,5E0,3E0,1.1E1,4E0,5E0,1.9E1,1.4E1,4.5E1,8E0,6E0,5E0,6E0,6E0,1.4E1,2.7E1,2E0,4E0,4.2E1,3E0,5.4E1,6.7E1,2.7E1,2E0,1.2E1,2.2E1,2E0,9E0,4.8E1,3.3E1,1.1E1,2E0,5E0,2E0,3E0,1E0,1E1,2E0,2E0,2E0,3E0,4E0,1.5E1,1.2E1,2E0,3.5E1,1E1,2E0,6E0,5E0,1E0,3E0,2E0,2E0,4E0,1.1E1,3E0,2.1E1,6E0,1E0,3E0,1.5E1,2.7E1,5.3E1,1E0,2.8E1,3.9E1,6E0,2.1E1,1.1E1,1E0,3E0,1.9E1,1E0,1E0,6E0,3E0,3.7E1,1.1E1,2E0,3.1E1,1E1,1E0,1E0,1E0,1E0,1E0,4E0,6E0,1E0,1E0,2E0,2E0,1E0,1.4E1,3E0,9E0,1E0,1E0,1E1,2.5E1,8E0,2E0,4E0,2E0,2E0,3E0,1E0,1E0,9E0,2E0,1E1,1.1E1,2E0,4E0,1E1,5E0,2.1E1,6E0,5E1,3E0,1.7E1,1.1E1,3.6E1,3E0,1E0,5E0,1E1,1.1E1,8E0,3E0,2E0,1E0,1E0,1.8E1,4E0,2E0,2E0,1E0,2.4E1,1.3E1,1E1,1E0,4E0,6E0],"tree_param":{"num_deleted":"0","num_feature":"21","num_nodes":"191","size_leaf_vector":"1"}},{"base_weights":[2.6676598E-1,-1.152691E1,5.156176E0,-1.8887032E1,-8.476313E0,-1.3594149E-1,8.943155E0,-2.0076405E1,-5.685111E-1,-9.855002E0,-6.5576854E0,5.7997026E0,-6.985916E-1,7.882249E0,1.1976823E1,-2.037402E1,-2.0429353E-1,-1.0939248E1,-6.175236E0,-1.4969907E0,-8.291504E0,8.196831E-1,7.5361023E0,-4.5962434E0,1.0394767E-1,1.0273441E1,6.959997E0,1.2939471E1,5.084097E0,-1.0327584E0,-2.352335E-1,-1.3338496E1,-8.026982E0,2.5683823E0,-7.428713E0,2.960397E0,-7.014062E0,-8.639681E0,1.3218518E-1,-2.642603E-1,1.2888642E-1,4.175007E-1,-1.5075207E-2,9.129067E0,-6.059431E0,-1.212198E0,2.6754339E0,6.664871E0,1.1423343E1,1.5578341E0,7.9589934E0,1.070422E1,1.4612697E1,1.1743667E0,3.9885038E-1,-6.584978E-2,-1.3750208E1,-4.5097747E0,-1.1754576E1,1.7917548E-1,1.3453198E-2,6.523857E-2,-8.09793E0,-3.4444237E-1,7.177557E0,2.2253559E0,-1.1154901E1,-5.980576E0,-1.0866801E1,1.9990794E-2,-5.641222E-2,1.1813078E-1,5.665493E-1,2.010217E0,-8.177354E0,-2.1771789E0,4.0439277E0,5.8206E0,3.6307836E-1,9.1961414E-1,3.77289E-1,1.3142254E1,6.4782405E0,-3.754385E-2,8.746421E0,5.9110565E0,9.515216E0,1.490308E1,8.010111E0,1.5541672E1,2.0003395E0,-8.182049E-3,7.748895E-2,-1.03304386E-1,-7.0674646E-1,-5.7789016E0,4.2505074E-1,-9.739256E-2,-1.2469019E1,-3.927026E0,-9.790679E0,1.217699E0,-2.3124835E0,4.428332E-1,5.3505898E-2,1.5071297E-2,1.5183039E-1,3.8146973E-6,-6.971832E-1,-7.773838E0,-5.0065804E-1,-1.1657219E1,1.0377836E-1,-1.6573687E-1,3.7381554E0,-1.633434E1,-5.777042E0,-3.2341456E-1,-6.628365E0,5.964576E0,-2.4933206E-1,6.6486144E0,-2.2709131E-1,-1.0128833E0,4.439095E0,7.0920945E-3,6.1878968E-2,1.4021224E1,2.5111786E-1,9.330011E0,2.5467625E0,1.7136928E0,-5.283745E0,1.32751465E-2,5.742447E-1,6.64389E0,-6.925106E-1,9.770358E0,-1.5121193E-1,7.976453E-1,1.6261207E-1,4.8461723E0,6.7651457E-1,1.0310768E1,9.4575924E-1,-1.5179825E-2,1.6520528E-1,3.7219178E-2,-3.5789987E-1,1.0844733E-1,-1.2016592E-1,-4.149859E-1,-7.906119E-1,-2.1359737E-1,-5.5060484E-2,-5.1990765E-1,-1.0808535E-1,1.3341332E-2,7.228572E-2,-1.4791957E-1,-2.5516702E-2,-2.3066776E-2,-4.4316754E-1,-2.707412E-1,1.6550656E-1,-5.964448E-1,-1.6917573E-1,2.1848373E-1,3.0301953E-2,-9.976533E-1,-1.3695411E-1,7.282906E-2,-3.16009E-1,-1.22808754E-1,1.4452134E-1,-9.86235E-2,-3.940859E-1,1.899128E-2,3.5217717E-1,4.578222E-2,4.3915844E-1,1.9515198E-2,-3.5370025E-1,2.8838363E-1,3.7255034E-2,3.628537E-1,8.052106E-1,5.8042175E-1,1.591055E-1,2.5155324E-1,2.3422719E-3,1.9791646E-1,-1.7836231E-1,1.9993944E-1,-4.3020377E-1,4.0326926E-1,9.721036E-2,-1.8768322E-1,3.6533147E-1,5.292484E-1,2.7809748E-1,-1.1704451E-1,3.1828597E-1,6.490546E-1,2.7384654E-1],"categories":[],"categories_nodes":[],"categories_segments":[],"categories_sizes":[],"default_left":[0,0,1,0,0,0,0,0,0,0,0,0,0,0,0,0,0,1,0,0,0,0,0,0,0,0,1,0,0,0,0,0,0,0,0,0,0,0,0,0,0,0,0,0,0,0,0,0,0,0,0,0,0,0,0,0,0,0,0,0,0,0,0,0,0,0,0,0,1,0,0,0,0,0,1,1,0,0,0,0,0,0,0,0,0,0,0,0,0,0,0,0,0,0,0,0,0,0,0,0,0,0,0,0,0,0,0,0,0,0,0,0,0,0,0,0,0,1,0,0,0,0,0,0,1,0,0,0,0,0,0,0,0,0,0,0,0,0,0,0,0,0,0,0,0,0,0,0,0,0,0,0,0,0,0,0,0,0,0,0,0,0,0,0,0,0,0,0,0,0,0,0,0,0,0,0,0,0,0,0,0,0,0,0,0,0,0,0,0,0,0,0,0,0,0,0,0,0,0,0,0,0,0,0,0],"id":8,"left_children":[1,3,5,7,9,11,13,15,-1,17,19,21,23,25,27,29,-1,31,33,35,37,39,41,43,45,47,49,51,53,-1,-1,55,57,59,61,63,65,67,-1,69,-1,-1,-1,71,73,75,77,79,81,83,85,87,89,91,-1,-1,93,95,97,-1,-1,-1,99,101,103,105,107,109,111,-1,-1,-1,-1,113,115,117,119,121,123,125,-1,127,129,131,133,135,137,139,141,143,145,-1,-1,-1,-1,147,149,-1,151,153,155,157,159,-1,-1,-1,-1,-1,-1,161,163,165,-1,-1,167,169,171,173,175,177,-1,179,-1,181,183,-1,-1,185,-1,187,189,191,193,-1,-1,195,197,199,-1,-1,-1,201,-1,203,-1,-1,-1,-1,-1,-1,-1,-1,-1,-1,-1,-1,-1,-1,-1,-1,-1,-1,-1,-1,-1,-1,-1,-1,-1,-1,-1,-1,-1,-1,-1,-1,-1,-1,-1,-1,-1,-1,-1,-1,-1,-1,-1,-1,-1,-1,-1,-1,-1,-1,-1,-1,-1,-1,-1,-1,-1,-1,-1,-1,-1],"loss_changes":[3.344696E4,3.656877E3,8.218083E3,2.0980078E2,2.580869E2,5.7847845E2,6.7480273E2,1.11875E2,0E0,2.0774219E2,4.6140137E2,1.2353235E2,4.947047E2,3.2544824E2,3.3233105E2,7.903906E1,0E0,2.5626855E2,2.1635828E2,3.896403E2,1.7513623E2,1.0209298E1,7.2687805E1,5.9755005E2,4.499906E2,1.23041016E2,7.053677E2,3.8066406E1,9.2426575E1,0E0,0E0,1.15524414E2,2.8786816E2,6.038109E0,1.0407941E2,1.2790557E2,2.9263623E2,1.6597412E2,0E0,2.746095E0,0E0,0E0,0E0,1.7926773E1,4.4371045E2,4.5514563E2,3.2516013E2,6.3915344E1,2.1236768E2,2.5263567E2,3.007041E2,1.747417E2,2.852583E2,2.765129E0,0E0,0E0,8.766943E1,9.640015E1,5.978833E1,0E0,0E0,0E0,6.745624E1,2.126206E1,3.1542496E1,3.7670631E0,1.5554395E2,1.9264655E2,2.2879272E2,0E0,0E0,0E0,0E0,6.759816E1,2.9722205E2,6.1671497E2,2.7256683E2,1.9322125E2,1.5592424E2,5.663729E-1,0E0,1.08009766E2,9.956714E1,1.8361417E2,8.984973E1,2.5140613E2,2.2790771E2,5.819922E1,2.4880908E2,2.4613232E2,1.0014498E1,0E0,0E0,0E0,0E0,1.1328311E2,2.4942194E1,0E0,2.2090698E1,1.1437912E0,2.386621E1,4.8149872E-1,1.9822979E0,0E0,0E0,0E0,0E0,0E0,0E0,1.1541705E2,1.3028488E2,2.3459473E0,0E0,0E0,7.241768E0,1.4213684E2,7.59964E1,3.7723456E2,1.1283423E2,6.963382E1,0E0,2.1222986E2,0E0,1.8136368E2,3.0056824E1,0E0,0E0,1.9310254E2,0E0,4.7105774E1,3.7027607E1,1.9192715E2,1.8851128E2,0E0,0E0,2.916256E2,1.743462E2,1.5024805E2,0E0,0E0,0E0,1.5687546E2,0E0,8.379846E1,0E0,0E0,0E0,0E0,0E0,0E0,0E0,0E0,0E0,0E0,0E0,0E0,0E0,0E0,0E0,0E0,0E0,0E0,0E0,0E0,0E0,0E0,0E0,0E0,0E0,0E0,0E0,0E0,0E0,0E0,0E0,0E0,0E0,0E0,0E0,0E0,0E0,0E0,0E0,0E0,0E0,0E0,0E0,0E0,0E0,0E0,0E0,0E0,0E0,0E0,0E0,0E0,0E0,0E0,0E0,0E0,0E0,0E0,0E0,0E0,0E0],"parents":[2147483647,0,0,1,1,2,2,3,3,4,4,5,5,6,6,7,7,9,9,10,10,11,11,12,12,13,13,14,14,15,15,17,17,18,18,19,19,20,20,21,21,22,22,23,23,24,24,25,25,26,26,27,27,28,28,31,31,32,32,33,33,34,34,35,35,36,36,37,37,39,39,43,43,44,44,45,45,46,46,47,47,48,48,49,49,50,50,51,51,52,52,53,53,56,56,57,57,58,58,62,62,63,63,64,64,65,65,66,66,67,67,68,68,73,73,74,74,75,75,76,76,77,77,78,78,79,79,81,81,82,82,83,83,84,84,85,85,86,86,87,87,88,88,89,89,90,90,95,95,96,96,98,98,99,99,100,100,101,101,102,102,109,109,110,110,111,111,114,114,115,115,116,116,117,117,118,118,119,119,121,121,123,123,124,124,127,127,129,129,130,130,131,131,132,132,135,135,136,136,137,137,141,141,143,143],"right_children":[2,4,6,8,10,12,14,16,-1,18,20,22,24,26,28,30,-1,32,34,36,38,40,42,44,46,48,50,52,54,-1,-1,56,58,60,62,64,66,68,-1,70,-1,-1,-1,72,74,76,78,80,82,84,86,88,90,92,-1,-1,94,96,98,-1,-1,-1,100,102,104,106,108,110,112,-1,-1,-1,-1,114,116,118,120,122,124,126,-1,128,130,132,134,136,138,140,142,144,146,-1,-1,-1,-1,148,150,-1,152,154,156,158,160,-1,-1,-1,-1,-1,-1,162,164,166,-1,-1,168,170,172,174,176,178,-1,180,-1,182,184,-1,-1,186,-1,188,190,192,194,-1,-1,196,198,200,-1,-1,-1,202,-1,204,-1,-1,-1,-1,-1,-1,-1,-1,-1,-1,-1,-1,-1,-1,-1,-1,-1,-1,-1,-1,-1,-1,-1,-1,-1,-1,-1,-1,-1,-1,-1,-1,-1,-1,-1,-1,-1,-1,-1,-1,-1,-1,-1,-1,-1,-1,-1,-1,-1,-1,-1,-1,-1,-1,-1,-1,-1,-1,-1,-1,-1],"split_conditions":[5.4666668E1,3.7142857E1,6.3375E1,3.22E1,4.6133335E1,5.3285713E1,7.3566666E1,4.9E1,-5.685111E-1,5.1E1,4.6866665E1,5.6366665E1,5E1,7.9102106E0,1.2280453E1,1.3866713E1,-2.0429353E-1,1.0612212E1,5.3E1,8.850612E0,5.557143E1,5E0,6E0,3.8E1,6.1E1,6.5E1,8.706866E0,7.628571E1,2E0,-1.0327584E0,-2.352335E-1,2.8E1,4.1E1,3E0,1.5E1,4.4714287E1,4E0,4.9E1,1.3218518E-1,5.3E1,1.2888642E-1,4.175007E-1,-1.5075207E-2,4E0,7.521398E0,3E0,6.5E1,6.1E1,7.1958336E1,6E0,6.828571E1,7.43E1,8.6E1,7.2E1,3.9885038E-1,-6.584978E-2,4.0590873E0,4.8E1,4.1125E1,1.7917548E-1,1.3453198E-2,6.523857E-2,4.142857E1,2E0,6E0,1E0,2.7E1,5.7E1,1.1928357E1,1.9990794E-2,-5.641222E-2,1.1813078E-1,5.665493E-1,5.5333332E1,5.4E1,5.7533333E1,1.2190941E1,6E0,7.5E1,5E0,3.77289E-1,8E1,4.2706084E0,4E0,5.7E1,6.8E1,7.657143E1,5E0,1.1043205E1,7.3E1,3E0,-8.182049E-3,7.748895E-2,-1.03304386E-1,-7.0674646E-1,3E1,3E0,-9.739256E-2,4.5E1,6.1E1,6.5E1,5E1,6E0,4.428332E-1,5.3505898E-2,1.5071297E-2,1.5183039E-1,3.8146973E-6,-6.971832E-1,4.7E1,3.5E1,1.1731114E1,1.0377836E-1,-1.6573687E-1,6.5E1,4E0,4.2E1,5.6733334E1,5.1E1,1E0,-2.4933206E-1,5.5E1,-2.2709131E-1,6E1,1.2548952E1,7.0920945E-3,6.1878968E-2,6.1875453E0,2.5111786E-1,7.3E1,7.2E1,7.1625E1,8.400681E0,1.32751465E-2,5.742447E-1,8.2E1,5E0,1.4130345E1,-1.5121193E-1,7.976453E-1,1.6261207E-1,6.4E1,6.7651457E-1,7.47E1,9.4575924E-1,-1.5179825E-2,1.6520528E-1,3.7219178E-2,-3.5789987E-1,1.0844733E-1,-1.2016592E-1,-4.149859E-1,-7.906119E-1,-2.1359737E-1,-5.5060484E-2,-5.1990765E-1,-1.0808535E-1,1.3341332E-2,7.228572E-2,-1.4791957E-1,-2.5516702E-2,-2.3066776E-2,-4.4316754E-1,-2.707412E-1,1.6550656E-1,-5.964448E-1,-1.6917573E-1,2.1848373E-1,3.0301953E-2,-9.976533E-1,-1.3695411E-1,7.282906E-2,-3.16009E-1,-1.22808754E-1,1.4452134E-1,-9.86235E-2,-3.940859E-1,1.899128E-2,3.5217717E-1,4.578222E-2,4.3915844E-1,1.9515198E-2,-3.5370025E-1,2.8838363E-1,3.7255034E-2,3.628537E-1,8.052106E-1,5.8042175E-1,1.591055E-1,2.5155324E-1,2.3422719E-3,1.9791646E-1,-1.7836231E-1,1.9993944E-1,-4.3020377E-1,4.0326926E-1,9.721036E-2,-1.8768322E-1,3.6533147E-1,5.292484E-1,2.7809748E-1,-1.1704451E-1,3.1828597E-1,6.490546E-1,2.7384654E-1],"split_indices":[11,12,11,11,11,12,11,6,0,8,11,11,8,18,18,18,0,18,8,18,12,2,2,8,6,8,18,12,2,0,0,6,8,2,6,12,2,12,0,6,0,0,0,2,18,13,6,6,11,2,12,11,6,6,0,0,18,6,11,0,0,0,12,2,2,2,6,8,18,0,0,0,0,11,12,11,18,2,6,2,0,6,18,2,6,12,12,2,18,6,2,0,0,0,0,6,2,0,6,8,8,6,2,0,0,0,0,0,0,6,6,18,0,0,6,2,8,11,6,2,0,8,0,11,18,0,0,18,0,8,12,11,18,0,0,6,2,18,0,0,0,8,0,11,0,0,0,0,0,0,0,0,0,0,0,0,0,0,0,0,0,0,0,0,0,0,0,0,0,0,0,0,0,0,0,0,0,0,0,0,0,0,0,0,0,0,0,0,0,0,0,0,0,0,0,0,0,0,0,0,0,0,0,0,0],"split_type":[0,0,0,0,0,0,0,0,0,0,0,0,0,0,0,0,0,0,0,0,0,0,0,0,0,0,0,0,0,0,0,0,0,0,0,0,0,0,0,0,0,0,0,0,0,0,0,0,0,0,0,0,0,0,0,0,0,0,0,0,0,0,0,0,0,0,0,0,0,0,0,0,0,0,0,0,0,0,0,0,0,0,0,0,0,0,0,0,0,0,0,0,0,0,0,0,0,0,0,0,0,0,0,0,0,0,0,0,0,0,0,0,0,0,0,0,0,0,0,0,0,0,0,0,0,0,0,0,0,0,0,0,0,0,0,0,0,0,0,0,0,0,0,0,0,0,0,0,0,0,0,0,0,0,0,0,0,0,0,0,0,0,0,0,0,0,0,0,0,0,0,0,0,0,0,0,0,0,0,0,0,0,0,0,0,0,0,0,0,0,0,0,0,0,0,0,0,0,0,0,0,0,0,0,0],"sum_hessian":[5.78E2,1.69E2,4.09E2,4.8E1,1.21E2,1.71E2,2.38E2,4E1,8E0,6.8E1,5.3E1,1.4E1,1.57E2,1.79E2,5.9E1,3.9E1,1E0,5.1E1,1.7E1,1.4E1,3.9E1,4E0,1E1,2.6E1,1.31E2,4.7E1,1.32E2,5.1E1,8E0,3.8E1,1E0,2.6E1,2.5E1,2E0,1.5E1,8E0,6E0,3.8E1,1E0,3E0,1E0,9E0,1E0,2E0,2.4E1,8.7E1,4.4E1,1.3E1,3.4E1,2.1E1,1.11E2,2.5E1,2.6E1,4E0,4E0,1E0,2.5E1,1.4E1,1.1E1,1E0,1E0,1E0,1.4E1,5E0,3E0,2E0,4E0,1.9E1,1.9E1,2E0,1E0,1E0,1E0,5E0,1.9E1,7.4E1,1.3E1,1.8E1,2.6E1,2E0,1.1E1,2.4E1,1E1,1.8E1,3E0,5E1,6.1E1,8E0,1.7E1,2.4E1,2E0,1E0,3E0,1E0,2.4E1,1.1E1,3E0,1E0,1E1,5E0,9E0,3E0,2E0,2E0,1E0,1E0,1E0,1E0,3E0,1.4E1,5E0,1.8E1,1E0,1E0,4E0,3E0,1.6E1,5.3E1,2.1E1,1.1E1,2E0,1.7E1,1E0,2E1,6E0,1E0,1E0,2.1E1,3E0,5E0,5E0,1.4E1,4E0,1E0,2E0,4.5E1,5E0,6E1,1E0,7E0,1E0,1.2E1,5E0,1.1E1,1.3E1,1E0,1E0,2E0,9E0,2E0,1E0,6E0,4E0,4E0,1E0,8E0,1E0,1E0,2E0,1E0,1E0,2E0,1.2E1,2E0,3E0,1.7E1,1E0,3E0,1E0,2E0,1E0,1E0,1.5E1,3.2E1,2.1E1,5E0,1.6E1,2E0,9E0,5E0,1.2E1,1.7E1,3E0,4E0,2E0,6E0,1.5E1,3E0,2E0,2E0,3E0,1E1,4E0,1E0,3E0,3.4E1,1.1E1,4E0,1E0,4.9E1,1.1E1,2E0,1E1,6E0,5E0],"tree_param":{"num_deleted":"0","num_feature":"21","num_nodes":"205","size_leaf_vector":"1"}},{"base_weights":[-6.322741E-2,-1.1430556E1,4.699302E0,-1.6118753E1,-7.6583753E0,-1.7363259E-1,8.1421995E0,-1.6917501E1,-4.246689E0,3.6934872E0,-8.068691E0,4.3354067E-1,-3.6397183E0,4.8167048E0,8.799651E0,-2.000804E1,-1.3343609E1,1.6134949E0,-7.5801544E0,8.481509E-1,3.057374E-1,-1.9895325E0,-8.545921E0,1.40305E0,-2.1877933E0,2.6586565E-1,-4.649778E0,6.9453335E0,1.056639E0,-7.687729E-1,9.004062E0,-5.79154E-2,-1.0264187E0,-1.366909E1,-5.693064E-2,1.7469607E-1,-5.3683948E-2,-4.4447303E-1,-9.130593E-2,6.3607596E-2,3.71933E-6,1.5030865E-1,-5.5881906E0,-6.152828E0,-1.0178544E1,-5.4872745E-1,1.6275898E0,-3.2871184E0,4.1265413E-1,-5.874402E0,-1.0114375E0,2.2022967E0,8.576858E0,5.1439867E0,-2.8228644E-1,-1.4357783E-1,7.951342E-2,9.135004E0,-2.246629E0,-9.495773E-2,-1.3968205E1,-3.5582033E-1,1.3116837E-2,-8.746432E0,-2.2020707E0,-1.2449365E1,-7.294382E0,-6.992691E-1,2.9230084E0,4.8031363E0,-3.9042845E0,-1.8661886E0,-7.388975E0,-3.8616707E0,4.076097E0,-1.0791988E0,4.387034E0,8.984465E0,3.0998422E-2,2.9138375E-2,3.2350686E-1,1.985209E0,-3.258566E0,7.8098855E0,1.0285779E1,-2.6297018E-1,9.447298E-2,-1.1126298E1,-1.7030344E1,3.3637077E-1,-9.803636E0,-7.6571107E0,2.5436845E-1,-1.0538321E-1,-1.2778727E1,1.0287412E0,-8.097791E0,-7.88617E0,6.286301E-1,7.690069E0,1.1484065E0,3.341179E-1,2.6117325E-2,-7.2009706E-1,-6.694668E0,1.3311335E0,-3.7976332E0,-8.020432E0,-1.1073589E-2,6.591263E-1,-3.547622E-1,2.8529826E-1,2.0409012E-2,-1.782177E-1,9.373042E-1,2.440236E-1,6.033201E-2,5.9972453E-1,6.4799104E0,-4.881134E-1,1.445501E-1,-1.5446759E-2,-1.8933526E-1,3.2042747E0,9.29865E0,1.2104847E1,7.6775556E0,-6.0690564E-1,-6.7332335E-2,-8.7846464E-1,-2.5060055E-1,-5.5024666E-1,-9.734445E-2,-5.3793527E-2,-4.5167264E-1,-1.5870868E-1,8.749508E-2,-1.4422159E-1,-6.5354025E-1,-7.087908E-2,1.4803468E-1,-1.942548E-1,-4.7173664E-1,2.0181732E-1,-5.5389714E-1,1.00876294E-1,-2.409172E-1,7.1144134E-2,4.9955368E-1,-1.7617865E-2,2.516341E-1,1.3576576E-1,-2.0377493E-1,-3.8116962E-1,2.4504153E-2,8.881054E-2,1.1024475E-2,-5.4186154E-2,-2.1705143E-1,-9.441166E-2,-4.2224145E-1,7.741251E-2,-2.7978038E-2,8.7594226E-2,-1.729641E-2,3.8026085E-1,1.1639962E-1,-5.0294876E-2,1.3686371E-2,3.7668347E-1,-2.1313477E-2,-2.0093906E-1,4.8780838E-1,2.567751E-1,6.497831E-1,4.6511745E-1,2.4520504E-1],"categories":[],"categories_nodes":[],"categories_segments":[],"categories_sizes":[],"default_left":[0,0,1,0,0,1,0,0,0,0,0,0,0,0,1,0,0,0,0,0,0,0,0,0,0,0,0,0,0,0,0,0,0,0,0,0,0,0,0,0,0,0,0,0,1,0,0,0,0,0,0,0,1,0,0,0,0,0,0,0,0,0,0,0,0,0,0,1,0,0,0,0,0,0,0,0,0,0,0,0,0,0,0,0,0,0,0,0,0,0,0,0,0,0,0,0,0,0,0,0,0,0,0,0,0,0,0,0,0,0,0,0,0,0,0,0,0,0,0,0,0,0,0,0,0,0,0,0,0,0,0,0,0,0,0,0,0,0,0,0,0,0,0,0,0,0,0,0,0,0,0,0,0,0,0,0,0,0,0,0,0,0,0,0,0,0,0,0,0,0,0,0,0,0,0,0,0],"id":9,"left_children":[1,3,5,7,9,11,13,15,17,19,21,23,25,27,29,31,33,35,37,39,-1,41,43,45,47,-1,49,51,53,55,57,-1,-1,59,-1,-1,-1,-1,-1,-1,-1,-1,61,63,65,-1,67,69,-1,71,73,75,77,79,81,-1,-1,83,85,-1,87,-1,-1,89,91,93,95,97,99,101,103,105,107,109,111,113,115,117,-1,-1,-1,119,121,123,125,-1,-1,127,129,-1,131,133,135,-1,137,139,141,143,145,147,149,-1,-1,151,153,155,157,159,-1,161,-1,-1,-1,-1,163,-1,-1,-1,165,167,-1,-1,-1,169,171,173,175,-1,-1,-1,-1,-1,-1,-1,-1,-1,-1,-1,-1,-1,-1,-1,-1,-1,-1,-1,-1,-1,-1,-1,-1,-1,-1,-1,-1,-1,-1,-1,-1,-1,-1,-1,-1,-1,-1,-1,-1,-1,-1,-1,-1,-1,-1,-1,-1,-1,-1],"loss_changes":[3.0803668E4,2.8475918E3,6.728996E3,6.298828E2,4.7229785E2,3.5303192E2,4.714082E2,4.9514258E2,1.2943887E2,2.237098E1,2.4990381E2,3.6649084E2,2.5090274E2,3.208164E2,3.883203E2,3.1950977E2,1.2347412E2,1.8910448E1,1.3901962E1,1.0786612E0,0E0,1.6062177E2,2.6946973E2,3.096848E2,4.747676E2,0E0,9.65372E1,1.8230908E2,8.901454E1,2.9369312E1,3.0190137E2,0E0,0E0,9.317041E1,0E0,0E0,0E0,0E0,0E0,0E0,0E0,0E0,4.6571228E1,3.598678E2,2.3011084E2,0E0,3.1552664E2,1.9850189E2,0E0,8.941321E1,1.1724516E2,6.2088127E1,5.6052246E1,2.0424873E1,9.4202034E1,0E0,0E0,2.0787695E2,4.7320732E1,0E0,9.7691895E1,0E0,0E0,4.2585083E2,2.1634729E2,6.1626953E1,1.688153E2,3.676097E2,5.579643E2,2.064315E1,2.972727E2,4.210786E1,5.253534E1,7.776831E1,1.5605595E1,2.3386177E1,1.9576645E0,5.797473E1,0E0,0E0,0E0,1.933368E1,8.177044E0,6.0101855E2,3.7202832E2,0E0,0E0,1.8155835E2,2.6237793E0,0E0,1.7677905E2,3.557138E1,6.7084465E1,0E0,3.4546143E1,1.837556E1,8.7252075E1,2.7303818E2,2.593754E2,2.4535876E2,2.9324225E2,0E0,0E0,2.0702843E2,1.2384381E2,1.0913315E0,1.1944351E0,1.268158E1,0E0,4.1170316E0,0E0,0E0,0E0,0E0,3.7419136E0,0E0,0E0,0E0,3.836133E1,1.458749E0,0E0,0E0,0E0,3.8044476E2,4.596211E2,2.8093164E2,1.4815088E2,0E0,0E0,0E0,0E0,0E0,0E0,0E0,0E0,0E0,0E0,0E0,0E0,0E0,0E0,0E0,0E0,0E0,0E0,0E0,0E0,0E0,0E0,0E0,0E0,0E0,0E0,0E0,0E0,0E0,0E0,0E0,0E0,0E0,0E0,0E0,0E0,0E0,0E0,0E0,0E0,0E0,0E0,0E0,0E0,0E0,0E0,0E0,0E0,0E0,0E0],"parents":[2147483647,0,0,1,1,2,2,3,3,4,4,5,5,6,6,7,7,8,8,9,9,10,10,11,11,12,12,13,13,14,14,15,15,16,16,17,17,18,18,19,19,21,21,22,22,23,23,24,24,26,26,27,27,28,28,29,29,30,30,33,33,42,42,43,43,44,44,46,46,47,47,49,49,50,50,51,51,52,52,53,53,54,54,57,57,58,58,60,60,63,63,64,64,65,65,66,66,67,67,68,68,69,69,70,70,71,71,72,72,73,73,74,74,75,75,76,76,77,77,81,81,82,82,83,83,84,84,87,87,88,88,90,90,91,91,92,92,94,94,95,95,96,96,97,97,98,98,99,99,100,100,103,103,104,104,105,105,106,106,107,107,109,109,114,114,118,118,119,119,123,123,124,124,125,125,126,126],"right_children":[2,4,6,8,10,12,14,16,18,20,22,24,26,28,30,32,34,36,38,40,-1,42,44,46,48,-1,50,52,54,56,58,-1,-1,60,-1,-1,-1,-1,-1,-1,-1,-1,62,64,66,-1,68,70,-1,72,74,76,78,80,82,-1,-1,84,86,-1,88,-1,-1,90,92,94,96,98,100,102,104,106,108,110,112,114,116,118,-1,-1,-1,120,122,124,126,-1,-1,128,130,-1,132,134,136,-1,138,140,142,144,146,148,150,-1,-1,152,154,156,158,160,-1,162,-1,-1,-1,-1,164,-1,-1,-1,166,168,-1,-1,-1,170,172,174,176,-1,-1,-1,-1,-1,-1,-1,-1,-1,-1,-1,-1,-1,-1,-1,-1,-1,-1,-1,-1,-1,-1,-1,-1,-1,-1,-1,-1,-1,-1,-1,-1,-1,-1,-1,-1,-1,-1,-1,-1,-1,-1,-1,-1,-1,-1,-1,-1,-1,-1],"split_conditions":[5.242857E1,4.192857E1,6.3E1,5.1E1,2.7E1,1.2971122E1,6.65E1,9.666092E0,3.2E1,1E0,4.2714287E1,1E0,5.4785713E1,6.6E1,4.031129E0,1.2E1,5.9E1,2.9E1,2.5E1,4.1E1,3.057374E-1,4.5E1,9.795715E0,4.9193497E0,1.197219E1,2.6586565E-1,1E0,6E1,6.525E1,7.5E1,9.2E1,-5.79154E-2,-1.0264187E0,1.5E1,-5.693064E-2,1.7469607E-1,-5.3683948E-2,-4.4447303E-1,-9.130593E-2,6.3607596E-2,3.71933E-6,1.5030865E-1,1.3692262E1,9.335033E0,1.1010818E1,-5.4872745E-1,5.4E1,4.8E1,4.1265413E-1,5.5E1,5.7714287E1,7.1E1,1.1656485E1,6.2E1,9.183418E0,-1.4357783E-1,7.951342E-2,2E0,7.7E1,-9.495773E-2,4.3E1,-3.5582033E-1,1.3116837E-2,3.3E1,4.2E1,2.4E1,1.1056134E1,4.2706084E0,5.8E1,4.7E1,7.7781744E0,5.7E1,7.1E1,4.2E1,6.6E1,1E0,6.5E1,5.9E1,3.0998422E-2,2.9138375E-2,3.2350686E-1,6.5335145E0,6.7E1,8.706866E0,9.135127E0,-2.6297018E-1,9.447298E-2,5E1,5.4E1,3.3637077E-1,5.7E1,4.4785713E1,4.2E1,-1.0538321E-1,2.7E1,3.3E1,3.7E1,5.3E1,5.9785713E1,5.4E1,6.3E1,3.341179E-1,2.6117325E-2,5.7E1,6.107143E1,4.7E1,3.9E1,5.3E1,-1.1073589E-2,3.7E1,-3.547622E-1,2.8529826E-1,2.0409012E-2,-1.782177E-1,5.1E1,2.440236E-1,6.033201E-2,5.9972453E-1,1E0,7E1,1.445501E-1,-1.5446759E-2,-1.8933526E-1,6.2905827E0,9.086883E0,6.3E1,7.5E1,-6.0690564E-1,-6.7332335E-2,-8.7846464E-1,-2.5060055E-1,-5.5024666E-1,-9.734445E-2,-5.3793527E-2,-4.5167264E-1,-1.5870868E-1,8.749508E-2,-1.4422159E-1,-6.5354025E-1,-7.087908E-2,1.4803468E-1,-1.942548E-1,-4.7173664E-1,2.0181732E-1,-5.5389714E-1,1.00876294E-1,-2.409172E-1,7.1144134E-2,4.9955368E-1,-1.7617865E-2,2.516341E-1,1.3576576E-1,-2.0377493E-1,-3.8116962E-1,2.4504153E-2,8.881054E-2,1.1024475E-2,-5.4186154E-2,-2.1705143E-1,-9.441166E-2,-4.2224145E-1,7.741251E-2,-2.7978038E-2,8.7594226E-2,-1.729641E-2,3.8026085E-1,1.1639962E-1,-5.0294876E-2,1.3686371E-2,3.7668347E-1,-2.1313477E-2,-2.0093906E-1,4.8780838E-1,2.567751E-1,6.497831E-1,4.6511745E-1,2.4520504E-1],"split_indices":[10,10,10,8,6,18,10,17,5,4,10,4,10,5,17,7,5,5,6,5,0,5,17,17,18,0,4,6,10,5,7,0,0,5,0,0,0,0,0,0,0,0,17,17,18,0,8,5,0,5,10,7,17,7,17,0,0,13,6,0,8,0,0,7,6,7,18,18,8,5,18,6,5,5,5,4,5,5,0,0,0,17,5,18,17,0,0,6,7,0,8,10,5,0,5,5,8,5,10,5,5,0,0,7,10,5,5,8,0,5,0,0,0,0,5,0,0,0,4,5,0,0,0,18,17,6,6,0,0,0,0,0,0,0,0,0,0,0,0,0,0,0,0,0,0,0,0,0,0,0,0,0,0,0,0,0,0,0,0,0,0,0,0,0,0,0,0,0,0,0,0,0,0,0,0,0,0],"split_type":[0,0,0,0,0,0,0,0,0,0,0,0,0,0,0,0,0,0,0,0,0,0,0,0,0,0,0,0,0,0,0,0,0,0,0,0,0,0,0,0,0,0,0,0,0,0,0,0,0,0,0,0,0,0,0,0,0,0,0,0,0,0,0,0,0,0,0,0,0,0,0,0,0,0,0,0,0,0,0,0,0,0,0,0,0,0,0,0,0,0,0,0,0,0,0,0,0,0,0,0,0,0,0,0,0,0,0,0,0,0,0,0,0,0,0,0,0,0,0,0,0,0,0,0,0,0,0,0,0,0,0,0,0,0,0,0,0,0,0,0,0,0,0,0,0,0,0,0,0,0,0,0,0,0,0,0,0,0,0,0,0,0,0,0,0,0,0,0,0,0,0,0,0,0,0,0,0],"sum_hessian":[5.67E2,1.67E2,4E2,7.3E1,9.4E1,1.66E2,2.34E2,6.8E1,5E0,3E0,9.1E1,1.42E2,2.4E1,4E1,1.94E2,3.4E1,3.4E1,2E0,3E0,2E0,1E0,7E0,8.4E1,1.04E2,3.8E1,2E0,2.2E1,2.5E1,1.5E1,4E0,1.9E2,1E0,3.3E1,3.3E1,1E0,1E0,1E0,2E0,1E0,1E0,1E0,3E0,4E0,3.6E1,4.8E1,1E0,1.03E2,3.5E1,3E0,1.6E1,6E0,7E0,1.8E1,3E0,1.2E1,2E0,2E0,1.88E2,2E0,1E0,3.2E1,3E0,1E0,2.1E1,1.5E1,2.5E1,2.3E1,3.7E1,6.6E1,2E0,3.3E1,5E0,1.1E1,4E0,2E0,3E0,4E0,1.7E1,1E0,1E0,2E0,7E0,5E0,9.1E1,9.7E1,1E0,1E0,1.9E1,1.3E1,1E0,2E1,4E0,1.1E1,1E0,2.4E1,2E0,2.1E1,5E0,3.2E1,1.7E1,4.9E1,1E0,1E0,1.6E1,1.7E1,2E0,3E0,1E1,1E0,2E0,2E0,1E0,1E0,1E0,2E0,3E0,1E0,6E0,1.1E1,2E0,5E0,1E0,4E0,2.3E1,6.8E1,5.5E1,4.2E1,1.7E1,2E0,1.2E1,1E0,1.7E1,3E0,1E0,3E0,3E0,8E0,1E0,2.3E1,1E0,1E0,6E0,1.5E1,1E0,4E0,2.6E1,6E0,5E0,1.2E1,3.6E1,1.3E1,8E0,8E0,1.5E1,2E0,1E0,1E0,1E0,2E0,1E0,9E0,1E0,1E0,1E0,1E0,8E0,3E0,1E0,1E0,1E1,1.3E1,2E0,6.6E1,7E0,4.8E1,2.5E1,1.7E1],"tree_param":{"num_deleted":"0","num_feature":"21","num_nodes":"177","size_leaf_vector":"1"}},{"base_weights":[-4.2364853E-3,-1.0940272E1,4.5413146E0,-1.6838137E1,-7.9731364E0,-4.835692E-1,8.010898E0,-5.6467533E-2,-1.7103218E1,-7.3043184E0,-1.6005533E1,5.809833E-1,-2.9371696E0,6.51883E0,1.0739801E1,-1.1280167E1,-8.927186E-1,-1.1165676E1,-6.354527E0,-2.0652114E-1,-8.555959E-1,4.807378E0,1.0156535E-1,-6.185877E0,1.9984065E0,9.6102085E0,5.4685607E0,-2.9799205E-1,1.1012807E1,-2.098648E0,-6.801826E-1,-1.2979681E1,-3.1277237E0,-1.5545349E-1,-7.049979E0,-6.691551E-1,6.707239E0,-4.4075003E-1,4.431625E0,1.2663711E0,-7.3368163E0,-4.1174865E-1,8.09242E0,6.1951385E0,1.0898567E1,-9.1079634E-1,6.311755E0,1.2544951E1,8.038083E0,-2.2697869E-1,6.958008E-2,-5.4244866E0,-1.697035E1,1.7032862E-1,-5.612941E0,1.8617073E-1,-2.3497417E0,3.6011505E0,-7.511727E0,1.3152504E-2,-5.337868E-2,3.724655E-1,1.9266892E-2,8.382261E-1,-2.9078326E0,-2.9650524E0,6.207465E0,-7.7394865E-2,1.1784563E-1,-9.2704153E-1,-6.192784E0,-4.5192122E-1,1.4662353E0,9.5554E0,1.9437885E-2,3.5144713E0,4.8906562E-1,5.1774592E0,1.2286624E1,-5.981066E0,3.1339464E0,7.4581985E0,3.3917093E0,1.28100815E1,-3.104496E-2,1.1341709E1,4.2320766E0,-7.7362494E0,2.3661423E-1,-8.8640165E-1,-2.537799E-1,-9.424343E-2,-4.1992894E-1,-2.4077289E-1,-4.0036392E-1,8.269475E-1,2.98094E-1,-3.9046066E0,-9.381479E0,-2.0130024E0,4.348778E0,-4.719674E0,