{"learner":{"attributes":{"feature_names":"avg_delay_days,category,day_of_week,ending_stock,is_weekend,lag_1,lag_14,lag_30,lag_7,lift_factor,ma_14,ma_30,ma_7,month,on_time_rate,quarter,shelf_life_days,std_14,std_7,supplier,unit_cost","scikit_learn":"{\"_estimator_type\": \"classifier\"}"},"feature_names":["avg_delay_days","category","day_of_week","ending_stock","is_weekend","lag_1","lag_14","lag_30","lag_7","lift_factor","ma_14","ma_30","ma_7","month","on_time_rate","quarter","shelf_life_days","std_14","std_7","supplier","unit_cost"],"feature_types":["int","int","int","int","int","float","float","float","float","int","float","float","float","int","int","int","int","float","float","int","int"],"gradient_booster":{"model":{"cats":{"enc":[],"feature_segments":[],"sorted_idx":[]},"gbtree_model_param":{"num_parallel_tree":"1","num_trees":"350"},"iteration_indptr":[0,1,2,3,4,5,6,7,8,9,10,11,12,13,14,15,16,17,18,19,20,21,22,23,24,25,26,27,28,29,30,31,32,33,34,35,36,37,38,39,40,41,42,43,44,45,46,47,48,49,50,51,52,53,54,55,56,57,58,59,60,61,62,63,64,65,66,67,68,69,70,71,72,73,74,75,76,77,78,79,80,81,82,83,84,85,86,87,88,89,90,91,92,93,94,95,96,97,98,99,100,101,102,103,104,105,106,107,108,109,110,111,112,113,114,115,116,117,118,119,120,121,122,123,124,125,126,127,128,129,130,131,132,133,134,135,136,137,138,139,140,141,142,143,144,145,146,147,148,149,150,151,152,153,154,155,156,157,158,159,160,161,162,163,164,165,166,167,168,169,170,171,172,173,174,175,176,177,178,179,180,181,182,183,184,185,186,187,188,189,190,191,192,193,194,195,196,197,198,199,200,201,202,203,204,205,206,207,208,209,210,211,212,213,214,215,216,217,218,219,220,221,222,223,224,225,226,227,228,229,230,231,232,233,234,235,236,237,238,239,240,241,242,243,244,245,246,247,248,249,250,251,252,253,254,255,256,257,258,259,260,261,262,263,264,265,266,267,268,269,270,271,272,273,274,275,276,277,278,279,280,281,282,283,284,285,286,287,288,289,290,291,292,293,294,295,296,297,298,299,300,301,302,303,304,305,306,307,308,309,310,311,312,313,314,315,316,317,318,319,320,321,322,323,324,325,326,327,328,329,330,331,332,333,334,335,336,337,338,339,340,341,342,343,344,345,346,347,348,349,350],"tree_info":[0,0,0,0,0,0,0,0,0,0,0,0,0,0,0,0,0,0,0,0,0,0,0,0,0,0,0,0,0,0,0,0,0,0,0,0,0,0,0,0,0,0,0,0,0,0,0,0,0,0,0,0,0,0,0,0,0,0,0,0,0,0,0,0,0,0,0,0,0,0,0,0,0,0,0,0,0,0,0,0,0,0,0,0,0,0,0,0,0,0,0,0,0,0,0,0,0,0,0,0,0,0,0,0,0,0,0,0,0,0,0,0,0,0,0,0,0,0,0,0,0,0,0,0,0,0,0,0,0,0,0,0,0,0,0,0,0,0,0,0,0,0,0,0,0,0,0,0,0,0,0,0,0,0,0,0,0,0,0,0,0,0,0,0,0,0,0,0,0,0,0,0,0,0,0,0,0,0,0,0,0,0,0,0,0,0,0,0,0,0,0,0,0,0,0,0,0,0,0,0,0,0,0,0,0,0,0,0,0,0,0,0,0,0,0,0,0,0,0,0,0,0,0,0,0,0,0,0,0,0,0,0,0,0,0,0,0,0,0,0,0,0,0,0,0,0,0,0,0,0,0,0,0,0,0,0,0,0,0,0,0,0,0,0,0,0,0,0,0,0,0,0,0,0,0,0,0,0,0,0,0,0,0,0,0,0,0,0,0,0,0,0,0,0,0,0,0,0,0,0,0,0,0,0,0,0,0,0,0,0,0,0,0,0,0,0,0,0,0,0,0,0,0,0,0,0,0,0,0,0,0,0,0,0,0,0,0,0,0,0,0,0,0,0,0,0,0,0,0,0],"trees":[{"base_weights":[5.049771E-2,5.454897E-1,-9.496349E-2,-2.5233877E-1,7.846214E-1,8.662891E-2,-3.3351123E-1,3.168662E-2,-3.426099E-2,9.443614E-1,-2.9626343E-1,-5.2227646E-1,2.3435865E-1,-3.9649725E-1,5.3989537E-2,4.3013301E-1,-4.01698E-2,1.0374867E0,-1.662997E-2,-4.6412967E-2,3.0449701E-2,-7.8229964E-1,4.155714E-2,1.2465335E0,-5.0140964E-4,-9.994687E-2,-6.3586545E-1,-1.2712635E-1,5.3989537E-2,6.522321E-1,1.6254536E0,2.0270316E-2,-1.0086613E0,4.3013301E-1,8.3458535E-2,-3.073934E-1,4.719609E-1,4.1259527E-1,-3.7620032E-1,-4.116939E-1,-1.0502596E0,3.0449701E-2,-4.01698E-2,8.552658E-1,-4.01698E-2,9.9122085E-2,7.854778E-1,-1.0165067E-3,-5.916232E-2,7.9648536E-1,-1.662997E-2,4.5585322E-1,-4.7145247E-1,9.598686E-3,8.5566956E-1,-2.230333E-2,6.725817E-1,-1.0638413E0,4.567356E-1,-6.54132E-1,7.9648536E-1,-6.1506625E-2,-4.3499693E-1,1.5002078E0,4.5721537E-1,-1.0165067E-3,6.284396E-2,6.909866E-3,5.3989537E-2,-3.0915499E-2,6.4968124E-2,-9.34715E-1,-1.7761716E-1,-5.900622E-1,1.1043559E0,1.4225236E0,1.6976564E-1,6.6317424E-2,-2.1716924E-1,-6.360506E-2,-7.558138E-3,8.70636E-1,-1.7722804E-2,-3.321028E-1,-9.8670876E-1,6.909866E-3,5.3989537E-2,-4.01698E-2,6.909866E-3,9.415174E-2,2.0270316E-2,-3.0915499E-2,4.0913567E-2,-6.0163893E-2,-1.8314572E-2,1.3250698E-3,-3.9652593E-2,-4.710905E-2,1.1869276E-2,7.752937E-2,6.909866E-3,9.804449E-2,1.1869276E-2,-1.4813172E-2,4.155714E-2,6.909866E-3,-2.230333E-2,9.037211E-3,7.015152E-2,2.5752127E-2,-3.9296526E-2,-1.7722804E-2,-5.939403E-2],"categories":[],"categories_nodes":[],"categories_segments":[],"categories_sizes":[],"default_left":[0,0,0,0,0,0,0,0,0,0,0,0,0,0,0,0,0,1,0,0,0,0,0,0,0,0,0,0,0,0,0,0,0,0,0,0,0,0,0,0,1,0,0,0,0,0,0,0,0,0,0,0,0,0,0,0,1,0,0,0,0,0,0,0,0,0,0,0,0,0,0,0,0,0,0,0,0,0,0,0,0,0,0,0,0,0,0,0,0,0,0,0,0,0,0,0,0,0,0,0,0,0,0,0,0,0,0,0,0,0,0,0,0],"id":0,"left_children":[1,3,5,7,9,11,13,15,-1,17,19,21,23,25,-1,27,-1,29,-1,-1,-1,31,-1,33,35,37,39,41,-1,43,45,-1,47,49,-1,51,53,55,57,59,61,-1,-1,63,-1,-1,65,-1,-1,67,-1,69,71,73,75,-1,77,79,81,83,85,-1,87,89,91,-1,-1,-1,-1,-1,-1,93,95,97,99,101,103,-1,105,-1,-1,107,-1,109,111,-1,-1,-1,-1,-1,-1,-1,-1,-1,-1,-1,-1,-1,-1,-1,-1,-1,-1,-1,-1,-1,-1,-1,-1,-1,-1,-1,-1],"loss_changes":[9.301793E0,5.7930374E0,4.3668895E0,9.46234E-1,4.2176037E0,5.3084474E0,4.2994866E0,2.1743612E0,0E0,2.7363777E0,2.6808527E0,4.720568E0,1.1193983E1,2.9437418E0,0E0,1.7201195E0,0E0,3.2402382E0,0E0,0E0,0E0,3.1558452E0,0E0,2.3420029E0,5.8314886E0,3.0024831E0,1.7280245E0,2.1062284E0,0E0,4.5704856E0,4.9542046E-1,0E0,1.5061712E0,1.4866228E0,0E0,3.2677712E0,2.8015695E0,1.9786822E0,8.269406E0,5.423369E0,2.9707623E-1,0E0,0E0,2.3987665E0,0E0,0E0,1.4301732E0,0E0,0E0,4.5653844E-1,0E0,5.1722813E0,2.6324778E0,6.030847E0,3.1192007E0,0E0,3.8774576E0,1.2797098E0,2.6068642E0,1.2240438E0,4.5653844E-1,0E0,7.969137E-1,9.748478E-1,3.949771E0,0E0,0E0,0E0,0E0,0E0,0E0,7.4148273E-1,1.7563888E0,1.9560449E0,1.186075E0,2.4675684E0,1.801709E0,0E0,3.441419E-1,0E0,0E0,1.5174315E0,0E0,3.81432E0,4.2099333E-1,0E0,0E0,0E0,0E0,0E0,0E0,0E0,0E0,0E0,0E0,0E0,0E0,0E0,0E0,0E0,0E0,0E0,0E0,0E0,0E0,0E0,0E0,0E0,0E0,0E0,0E0,0E0,0E0],"parents":[2147483647,0,0,1,1,2,2,3,3,4,4,5,5,6,6,7,7,9,9,10,10,11,11,12,12,13,13,15,15,17,17,21,21,23,23,24,24,25,25,26,26,27,27,29,29,30,30,32,32,33,33,35,35,36,36,37,37,38,38,39,39,40,40,43,43,46,46,49,49,51,51,52,52,53,53,54,54,56,56,57,57,58,58,59,59,60,60,62,62,63,63,64,64,71,71,72,72,73,73,74,74,75,75,76,76,78,78,81,81,83,83,84,84],"right_children":[2,4,6,8,10,12,14,16,-1,18,20,22,24,26,-1,28,-1,30,-1,-1,-1,32,-1,34,36,38,40,42,-1,44,46,-1,48,50,-1,52,54,56,58,60,62,-1,-1,64,-1,-1,66,-1,-1,68,-1,70,72,74,76,-1,78,80,82,84,86,-1,88,90,92,-1,-1,-1,-1,-1,-1,94,96,98,100,102,104,-1,106,-1,-1,108,-1,110,112,-1,-1,-1,-1,-1,-1,-1,-1,-1,-1,-1,-1,-1,-1,-1,-1,-1,-1,-1,-1,-1,-1,-1,-1,-1,-1,-1,-1],"split_conditions":[4.7E1,2.8E1,1.0195704E1,2.5E1,5.9E1,5.4E1,8.4E1,4.5E1,-3.426099E-2,6.1E1,3E0,5.942857E1,5.9E1,6E1,5.3989537E-2,3.5E1,-4.01698E-2,4.5966667E1,-1.662997E-2,-4.6412967E-2,3.0449701E-2,4.1E1,4.155714E-2,5.7E1,8.479668E0,5.7E1,7.328571E1,3E1,5.3989537E-2,4.757143E1,4.8166668E1,2.0270316E-2,5E1,8.820971E0,8.3458535E-2,5.3E1,6.7E1,3.6E1,6.2E1,7.2E1,1.1814035E1,3.0449701E-2,-4.01698E-2,3.1571428E1,-4.01698E-2,9.9122085E-2,5.9E1,-1.0165067E-3,-5.916232E-2,5.6366665E1,-1.662997E-2,5.8E1,6.728571E1,7.4E1,6.928571E1,-2.230333E-2,5.5666668E1,7.3E1,7.3E1,6.7E1,6.3E1,-6.1506625E-2,7.403333E1,3.0714285E1,2.6E1,-1.0165067E-3,6.284396E-2,6.909866E-3,5.3989537E-2,-3.0915499E-2,6.4968124E-2,6.6E1,7.9E1,1E0,2E0,7.2E1,8.6E1,6.6317424E-2,4.8E1,-6.360506E-2,-7.558138E-3,5.4E1,-1.7722804E-2,1.1501553E1,6.64E1,6.909866E-3,5.3989537E-2,-4.01698E-2,6.909866E-3,9.415174E-2,2.0270316E-2,-3.0915499E-2,4.0913567E-2,-6.0163893E-2,-1.8314572E-2,1.3250698E-3,-3.9652593E-2,-4.710905E-2,1.1869276E-2,7.752937E-2,6.909866E-3,9.804449E-2,1.1869276E-2,-1.4813172E-2,4.155714E-2,6.909866E-3,-2.230333E-2,9.037211E-3,7.015152E-2,2.5752127E-2,-3.9296526E-2,-1.7722804E-2,-5.939403E-2],"split_indices":[8,5,18,5,5,8,6,6,0,6,13,12,8,5,0,6,0,11,0,0,0,5,0,8,18,8,12,6,0,12,11,0,7,18,0,6,7,5,6,12,18,0,0,12,0,0,7,0,0,11,0,7,12,5,12,0,11,8,8,6,8,0,11,11,8,0,0,0,0,0,0,8,5,4,13,6,5,0,5,0,0,5,0,18,12,0,0,0,0,0,0,0,0,0,0,0,0,0,0,0,0,0,0,0,0,0,0,0,0,0,0,0,0],"split_type":[0,0,0,0,0,0,0,0,0,0,0,0,0,0,0,0,0,0,0,0,0,0,0,0,0,0,0,0,0,0,0,0,0,0,0,0,0,0,0,0,0,0,0,0,0,0,0,0,0,0,0,0,0,0,0,0,0,0,0,0,0,0,0,0,0,0,0,0,0,0,0,0,0,0,0,0,0,0,0,0,0,0,0,0,0,0,0,0,0,0,0,0,0,0,0,0,0,0,0,0,0,0,0,0,0,0,0,0,0,0,0,0,0],"sum_hessian":[1.274683E2,2.832629E1,9.914201E1,6.5195427E0,2.1806747E1,5.665258E1,4.2489433E1,4.4962363E0,2.0233064E0,1.9109005E1,2.697742E0,1.0566155E1,4.6086422E1,4.1365376E1,1.1240591E0,3.3721774E0,1.1240591E0,1.7984945E1,1.1240591E0,1.5736828E0,1.1240591E0,9.217285E0,1.348871E0,7.868414E0,3.821801E1,1.9109005E1,2.225637E1,2.2481182E0,1.1240591E0,1.2139838E1,5.8451076E0,1.348871E0,7.868414E0,3.3721774E0,4.4962363E0,2.338043E1,1.4837581E1,6.5195427E0,1.2589462E1,1.5736828E1,6.5195427E0,1.1240591E0,1.1240591E0,1.10157795E1,1.1240591E0,3.1473656E0,2.697742E0,1.348871E0,6.5195427E0,2.2481182E0,1.1240591E0,3.821801E0,1.9558628E1,7.1939783E0,7.643602E0,1.348871E0,5.170672E0,6.7443547E0,5.8451076E0,1.3488709E1,2.2481182E0,4.271425E0,2.2481182E0,3.1473656E0,7.868414E0,1.348871E0,1.348871E0,1.1240591E0,1.1240591E0,1.7984946E0,2.0233064E0,6.7443547E0,1.2814274E1,4.94586E0,2.2481182E0,3.5969892E0,4.0466127E0,2.697742E0,2.47293E0,5.170672E0,1.5736828E0,3.821801E0,2.0233064E0,7.868414E0,5.6202955E0,1.1240591E0,1.1240591E0,1.1240591E0,1.1240591E0,1.7984946E0,1.348871E0,1.7984946E0,6.069919E0,3.821801E0,2.9225538E0,1.0341344E1,2.47293E0,3.3721774E0,1.5736828E0,1.1240591E0,1.1240591E0,2.0233064E0,1.5736828E0,2.697742E0,1.348871E0,1.1240591E0,1.348871E0,2.2481182E0,1.5736828E0,2.697742E0,5.170672E0,2.0233064E0,3.5969892E0],"tree_param":{"num_deleted":"0","num_feature":"21","num_nodes":"113","size_leaf_vector":"1"}},{"base_weights":[4.638795E-2,5.293847E-1,-8.7743826E-2,-2.5562254E-1,6.4529556E-1,1.1926547E-1,-4.0136284E-1,-3.6536887E-2,2.908859E-2,7.730641E-1,-9.306101E-2,4.405354E-2,1.1088245E0,-4.8842427E-1,2.803996E-1,5.167358E-1,8.550121E-2,-4.0092032E-2,3.682648E-1,-2.3025762E-2,6.491008E-2,6.986905E-3,6.999911E-2,-3.1242543E-1,-8.932501E-1,5.334094E-2,-1.9079211E-1,8.8105285E-1,-3.2882378E-1,-4.2924593E-4,3.0506432E-2,3.0703545E-1,-2.6033914E-1,-6.400886E-1,5.5788994E-1,-1.241412E-3,-1.0175434E0,-4.012425E-2,1.5054131E-2,1.0726719E0,-2.2371411E-2,2.9648835E-2,-4.6277277E-2,6.1976756E-3,1.1082528E0,5.676041E-1,-4.0716392E-1,-3.4657925E-1,-1.0546098E0,8.2384473E-1,-2.170237E-2,-5.8396544E-2,-1.2507493E-2,3.5081685E-1,1.4120063E0,-2.6768854E-1,6.7785865E-1,1.3981615E0,-9.4265223E-4,-1.2174353E-2,1.0204026E0,-9.724609E-1,-1.0065229E-1,-5.9804004E-1,4.1165507E-1,-5.6412753E-2,-1.599951E-2,-1.6336804E-2,1.1172245E0,5.389702E-2,-3.1115359E-2,3.0773053E-2,8.403945E-2,1.5599556E-2,-2.9838119E-2,-1.6343191E-2,4.9710702E-2,1.1569883E-2,9.151397E-2,8.317742E-2,-2.4976442E-3,-5.776723E-2,-2.1339463E-2,5.405244E-2,-1.5561499E-2,-5.1780265E-2,-6.3257404E-3,5.4406554E-2,-1.2527755E-2,-7.1106775E-4,8.869637E-2],"categories":[],"categories_nodes":[],"categories_segments":[],"categories_sizes":[],"default_left":[0,0,0,0,0,0,1,0,0,0,0,0,0,1,0,0,0,0,0,0,0,0,0,1,0,0,0,0,0,0,0,0,0,0,0,0,0,0,0,0,0,0,0,0,0,0,0,0,0,0,0,0,0,0,0,0,0,0,0,0,0,0,0,1,0,0,0,0,0,0,0,0,0,0,0,0,0,0,0,0,0,0,0,0,0,0,0,0,0,0,0],"id":1,"left_children":[1,3,5,7,9,11,13,-1,-1,15,17,19,21,23,25,27,-1,-1,29,31,-1,-1,-1,33,35,-1,37,39,41,-1,-1,43,45,47,49,-1,51,-1,-1,53,-1,-1,-1,55,57,59,61,63,65,67,-1,-1,-1,69,71,73,75,77,-1,-1,79,81,83,85,87,-1,-1,-1,89,-1,-1,-1,-1,-1,-1,-1,-1,-1,-1,-1,-1,-1,-1,-1,-1,-1,-1,-1,-1,-1,-1],"loss_changes":[8.468223E0,2.748767E0,6.7087975E0,2.1636493E0,2.432932E0,4.6083994E0,2.5719337E0,0E0,0E0,4.2661457E0,1.7942992E0,5.0099196E0,1.039856E0,2.3388271E0,2.1603703E0,5.917613E0,0E0,0E0,3.208089E-1,4.558211E0,0E0,0E0,0E0,8.098684E0,1.1184368E0,0E0,1.4904112E0,3.7994032E0,3.975396E0,0E0,0E0,5.8678017E0,4.3400316E0,2.0906582E0,2.4573712E0,0E0,7.746763E-1,0E0,0E0,2.3682222E0,0E0,0E0,0E0,3.626077E0,2.1985035E0,2.2716856E0,4.977535E0,2.7836819E0,6.5244675E-2,2.6002197E0,0E0,0E0,0E0,4.2574115E0,5.973129E-1,2.8602245E0,2.1389267E0,2.249051E0,0E0,0E0,2.6494277E0,5.2312183E-1,5.3403454E0,2.0151172E0,2.0227401E0,0E0,0E0,0E0,4.1137557E0,0E0,0E0,0E0,0E0,0E0,0E0,0E0,0E0,0E0,0E0,0E0,0E0,0E0,0E0,0E0,0E0,0E0,0E0,0E0,0E0,0E0,0E0],"parents":[2147483647,0,0,1,1,2,2,3,3,4,4,5,5,6,6,9,9,10,10,11,11,12,12,13,13,14,14,15,15,18,18,19,19,23,23,24,24,26,26,27,27,28,28,31,31,32,32,33,33,34,34,36,36,39,39,43,43,44,44,45,45,46,46,47,47,48,48,49,49,53,53,54,54,55,55,56,56,57,57,60,60,61,61,62,62,63,63,64,64,68,68],"right_children":[2,4,6,8,10,12,14,-1,-1,16,18,20,22,24,26,28,-1,-1,30,32,-1,-1,-1,34,36,-1,38,40,42,-1,-1,44,46,48,50,-1,52,-1,-1,54,-1,-1,-1,56,58,60,62,64,66,68,-1,-1,-1,70,72,74,76,78,-1,-1,80,82,84,86,88,-1,-1,-1,90,-1,-1,-1,-1,-1,-1,-1,-1,-1,-1,-1,-1,-1,-1,-1,-1,-1,-1,-1,-1,-1,-1],"split_conditions":[4.6E1,2.4E1,1.0350984E1,1.0846836E1,5.8E1,8.4E1,1.3849267E1,-3.6536887E-2,2.908859E-2,5E1,5.3E1,1.0073539E1,6.4E1,1.1298157E1,1.4224392E1,4.9E1,8.550121E-2,-4.0092032E-2,4.3E1,6.2E1,6.491008E-2,6.986905E-3,6.999911E-2,1.0753226E1,5E1,5.334094E-2,7.2E1,1.1802635E1,9.95153E0,-4.2924593E-4,3.0506432E-2,5.8E1,5.4E1,7E1,7.4E1,-1.241412E-3,7.15E1,-4.012425E-2,1.5054131E-2,8.871302E0,-2.2371411E-2,2.9648835E-2,-4.6277277E-2,5.7142857E1,9.492623E0,6.8417487E0,6.7666664E1,6.957143E1,8.7E1,5.2666668E1,-2.170237E-2,-5.8396544E-2,-1.2507493E-2,3.0857143E1,3.3E1,4.7E1,6.0749288E0,8.213162E0,-9.4265223E-4,-1.2174353E-2,8.518887E0,7E1,6.871429E1,9.607289E0,9.95153E0,-5.6412753E-2,-1.599951E-2,-1.6336804E-2,1.0997835E1,5.389702E-2,-3.1115359E-2,3.0773053E-2,8.403945E-2,1.5599556E-2,-2.9838119E-2,-1.6343191E-2,4.9710702E-2,1.1569883E-2,9.151397E-2,8.317742E-2,-2.4976442E-3,-5.776723E-2,-2.1339463E-2,5.405244E-2,-1.5561499E-2,-5.1780265E-2,-6.3257404E-3,5.4406554E-2,-1.2527755E-2,-7.1106775E-4,8.869637E-2],"split_indices":[8,8,18,17,5,8,17,0,0,5,7,18,7,17,17,7,0,0,8,5,0,0,0,17,8,0,7,17,17,0,0,5,7,8,5,0,10,0,0,17,0,0,0,12,17,18,12,10,8,10,0,0,0,10,5,5,18,17,0,0,18,5,10,17,17,0,0,0,18,0,0,0,0,0,0,0,0,0,0,0,0,0,0,0,0,0,0,0,0,0,0],"split_type":[0,0,0,0,0,0,0,0,0,0,0,0,0,0,0,0,0,0,0,0,0,0,0,0,0,0,0,0,0,0,0,0,0,0,0,0,0,0,0,0,0,0,0,0,0,0,0,0,0,0,0,0,0,0,0,0,0,0,0,0,0,0,0,0,0,0,0,0,0,0,0,0,0,0,0,0,0,0,0,0,0,0,0,0,0,0,0,0,0,0,0],"sum_hessian":[1.2899529E2,2.7396425E1,1.0159886E2,3.3697085E0,2.4026716E1,6.1575005E1,4.002386E1,2.2311697E0,1.1385387E0,2.0442284E1,3.5844316E0,5.8196285E1,3.378719E0,3.5743042E1,4.2808194E0,1.7269339E1,3.1729462E0,1.1221862E0,2.4622455E0,5.6173435E1,2.0228496E0,1.1225096E0,2.2562096E0,2.6147234E1,9.595808E0,1.1302857E0,3.150534E0,1.2039873E1,5.2294645E0,1.3395652E0,1.1226804E0,2.337254E1,3.2800896E1,1.9187796E1,6.9594398E0,1.3516623E0,8.244145E0,1.1227748E0,2.027759E0,1.0690449E1,1.3494246E0,2.057448E0,3.1720169E0,1.7724976E1,5.647565E0,4.5089755E0,2.829192E1,1.2308575E1,6.87922E0,5.621643E0,1.3377966E0,6.456842E0,1.7873033E0,4.068819E0,6.6216297E0,1.3018014E1,4.706961E0,4.3008366E0,1.3467287E0,1.7809846E0,2.7279906E0,9.18304E0,1.910888E1,9.401826E0,2.9067488E0,5.765405E0,1.1138151E0,1.1190885E0,4.5025544E0,2.2671108E0,1.8017085E0,2.5006602E0,4.1209693E0,4.732824E0,8.28519E0,1.1192106E0,3.5877507E0,1.577342E0,2.7234943E0,1.3578784E0,1.3701121E0,6.041067E0,3.1419725E0,2.2649434E0,1.6843937E1,4.2560325E0,5.145794E0,1.1197231E0,1.7870257E0,2.0128765E0,2.4896781E0],"tree_param":{"num_deleted":"0","num_feature":"21","num_nodes":"91","size_leaf_vector":"1"}},{"base_weights":[4.0240955E-2,5.337537E-1,-6.659924E-2,9.724636E-2,9.7196674E-1,1.2776679E-1,-3.5395804E-1,3.2980195E-1,-4.6609387E-2,8.6069785E-2,2.5415322E-1,-1.2797531E-1,6.1904496E-1,-4.164604E-1,5.146683E-2,-3.247659E-2,5.963656E-1,5.2770495E-2,-2.4822219E-1,-6.7020273E-1,1.2266831E-1,-1.798633E-2,7.3600006E-1,-6.5762633E-1,-1.1192151E-1,-2.739859E-2,9.070725E-1,-4.0466703E-2,3.0272499E-2,1.5223307E-2,-8.648015E-1,9.497942E-1,-8.895122E-2,7.5949565E-2,4.405241E-1,1.2380121E-1,-8.0692893E-1,-3.4435764E-1,9.140656E-1,1.3047925E0,-1.2337344E-2,1.1763897E-1,-6.0491215E-2,1.346468E-1,8.159339E-2,7.5671375E-1,-2.4665835E-1,-5.2647126E-1,6.5903765E-1,-3.9079886E-2,6.3528216E-1,-4.0189573E-1,-1.1495965E0,-5.029365E-2,-5.82052E-2,5.8987398E-2,6.7446465E-3,7.660338E-2,2.9919043E-2,5.1485002E-2,-3.1173406E-2,6.1490584E-2,-4.6253882E-2,-1.0390184E-3,5.67976E-2,-9.5389503E-1,4.152405E-2,-4.458704E-2,6.325709E-3,7.4544676E-2,3.034582E-1,5.2637637E-2,-8.08449E-4,-8.0417556E-1,2.0460685E-1,-6.5845914E-2,-2.4019117E-3,3.7592793E-1,-6.8238425E-1,-5.842337E-2,-1.3216709E-2,1.3339609E-2,-4.082847E-2,-3.4586396E-2,3.084133E-2,3.6138736E-4,-5.064245E-2,-2.0121178E-2,4.151639E-2,-7.217022E-3,5.219633E-2,-5.443585E-2,6.3096285E-3],"categories":[],"categories_nodes":[],"categories_segments":[],"categories_sizes":[],"default_left":[0,0,0,0,0,0,0,0,0,0,0,0,0,0,0,0,0,0,0,0,0,0,0,0,1,0,0,0,0,0,0,0,0,0,0,0,1,0,0,0,0,0,0,0,0,0,0,0,0,0,0,0,0,0,0,0,0,0,0,0,0,0,0,0,0,0,0,0,0,0,0,0,0,0,0,0,0,0,1,0,0,0,0,0,0,0,0,0,0,0,0,0,0],"id":2,"left_children":[1,3,5,7,9,11,13,15,-1,-1,17,19,21,23,-1,-1,25,-1,27,29,31,-1,33,35,37,-1,39,-1,-1,-1,41,43,45,-1,47,49,51,53,55,57,-1,59,-1,61,-1,63,65,67,69,-1,71,73,75,-1,77,-1,-1,-1,-1,-1,-1,-1,-1,-1,-1,79,81,-1,-1,-1,83,-1,-1,85,87,-1,-1,89,91,-1,-1,-1,-1,-1,-1,-1,-1,-1,-1,-1,-1,-1,-1],"loss_changes":[6.777444E0,4.279351E0,5.9655237E0,3.3158514E0,5.641073E0,8.1158085E0,4.149304E0,3.2561936E0,0E0,0E0,3.0574415E0,5.911927E0,2.7911263E0,3.0026126E0,0E0,0E0,3.7537508E0,0E0,2.9224236E0,2.864585E0,5.367145E0,0E0,3.967741E0,2.8030567E0,5.016451E0,0E0,3.8004923E0,0E0,0E0,0E0,4.1057262E0,3.2464142E0,3.5136657E0,0E0,3.7192624E0,2.6192195E0,2.25632E0,3.1216574E0,6.513517E-1,1.3811111E-2,0E0,3.3122265E0,0E0,5.698687E0,0E0,1.252212E0,4.478546E0,9.4705015E-1,3.5295253E0,0E0,9.6362734E-1,2.7296767E0,1.793191E0,0E0,3.721999E0,0E0,0E0,0E0,0E0,0E0,0E0,0E0,0E0,0E0,0E0,6.3024855E-1,3.3942535E0,0E0,0E0,0E0,3.759325E0,0E0,0E0,1.1119204E0,2.2294059E0,0E0,0E0,2.996141E0,1.9777184E0,0E0,0E0,0E0,0E0,0E0,0E0,0E0,0E0,0E0,0E0,0E0,0E0,0E0,0E0],"parents":[2147483647,0,0,1,1,2,2,3,3,4,4,5,5,6,6,7,7,10,10,11,11,12,12,13,13,16,16,18,18,19,19,20,20,22,22,23,23,24,24,26,26,30,30,31,31,32,32,34,34,35,35,36,36,37,37,38,38,39,39,41,41,43,43,45,45,46,46,47,47,48,48,50,50,51,51,52,52,54,54,65,65,66,66,70,70,73,73,74,74,77,77,78,78],"right_children":[2,4,6,8,10,12,14,16,-1,-1,18,20,22,24,-1,-1,26,-1,28,30,32,-1,34,36,38,-1,40,-1,-1,-1,42,44,46,-1,48,50,52,54,56,58,-1,60,-1,62,-1,64,66,68,70,-1,72,74,76,-1,78,-1,-1,-1,-1,-1,-1,-1,-1,-1,-1,80,82,-1,-1,-1,84,-1,-1,86,88,-1,-1,90,92,-1,-1,-1,-1,-1,-1,-1,-1,-1,-1,-1,-1,-1,-1],"split_conditions":[4.3E1,4.042857E1,1.0350984E1,4.7E1,4.5214287E1,8.596787E0,8.4E1,2.1E1,-4.6609387E-2,8.6069785E-2,4.9E1,5.7142857E1,4.7285713E1,6.6E1,5.146683E-2,-3.247659E-2,2.6E1,5.2770495E-2,5.4E1,4.2706084E0,5.9E1,-1.798633E-2,5.7E1,4.3E1,1.456022E1,-2.739859E-2,4.5E1,-4.0466703E-2,3.0272499E-2,1.5223307E-2,4.9E1,6.9247656E0,5.9E1,7.5949565E-2,5.9E1,4.007143E1,1.2106668E1,5.5E1,5E0,4.6E1,-1.2337344E-2,6.9006557E0,-6.0491215E-2,6.1759906E0,8.159339E-2,5.5E1,6.7E1,6.5E1,6.585714E1,-3.9079886E-2,4.5866665E1,1.1731114E1,6E0,-5.029365E-2,7.5E1,5.8987398E-2,6.7446465E-3,7.660338E-2,2.9919043E-2,5.1485002E-2,-3.1173406E-2,6.1490584E-2,-4.6253882E-2,-1.0390184E-3,5.67976E-2,4E0,7.9E1,-4.458704E-2,6.325709E-3,7.4544676E-2,6.81E1,5.2637637E-2,-8.08449E-4,2E0,6.928571E1,-6.5845914E-2,-2.4019117E-3,4E0,7.273333E1,-5.842337E-2,-1.3216709E-2,1.3339609E-2,-4.082847E-2,-3.4586396E-2,3.084133E-2,3.6138736E-4,-5.064245E-2,-2.0121178E-2,4.151639E-2,-7.217022E-3,5.219633E-2,-5.443585E-2,6.3096285E-3],"split_indices":[8,12,18,7,10,18,6,6,0,0,7,12,12,7,0,0,12,0,6,18,8,0,12,6,18,0,6,0,0,0,6,18,5,0,8,10,18,5,2,7,0,18,0,18,0,5,5,5,10,0,11,18,2,0,8,0,0,0,0,0,0,0,0,0,0,2,5,0,0,0,11,0,0,2,12,0,0,2,11,0,0,0,0,0,0,0,0,0,0,0,0,0,0],"split_type":[0,0,0,0,0,0,0,0,0,0,0,0,0,0,0,0,0,0,0,0,0,0,0,0,0,0,0,0,0,0,0,0,0,0,0,0,0,0,0,0,0,0,0,0,0,0,0,0,0,0,0,0,0,0,0,0,0,0,0,0,0,0,0,0,0,0,0,0,0,0,0,0,0,0,0,0,0,0,0,0,0,0,0,0,0,0,0,0,0,0,0,0,0],"sum_hessian":[1.2686421E2,2.1865946E1,1.0499827E2,1.1566442E1,1.0299504E1,6.2964928E1,4.203334E1,9.989401E0,1.5770402E0,4.3547955E0,5.944709E0,4.1895245E1,2.1069683E1,4.0884945E1,1.1483965E0,1.8298801E0,8.159521E0,1.8666623E0,4.0780463E0,1.2714825E1,2.918042E1,2.0273635E0,1.904232E1,2.2169436E1,1.871551E1,1.5793023E0,6.5802183E0,2.4920077E0,1.5860386E0,2.0221393E0,1.0692686E1,5.2341723E0,2.3946247E1,4.082677E0,1.4959642E1,3.583698E0,1.858574E1,1.5800329E1,2.9151807E0,4.796147E0,1.7840717E0,2.950442E0,7.742244E0,2.9299688E0,2.3042033E0,3.1668084E0,2.077944E1,2.4975998E0,1.2462043E1,1.1030409E0,2.480657E0,9.513555E0,9.072184E0,4.011514E0,1.1788815E1,1.7905393E0,1.1246415E0,2.7443867E0,2.05176E0,1.1480988E0,1.8023432E0,1.3619597E0,1.5680093E0,1.3481362E0,1.8186722E0,5.34705E0,1.5432388E1,1.3671833E0,1.1304166E0,2.7756734E0,9.686369E0,1.1364026E0,1.3442545E0,5.52381E0,3.9897447E0,7.706148E0,1.3660353E0,7.1874657E0,4.6013494E0,3.5483818E0,1.7986686E0,1.2769266E1,2.6631222E0,2.030517E0,7.6558523E0,1.3274665E0,4.1963434E0,2.2062552E0,1.7834895E0,4.4812117E0,2.7062542E0,2.8318188E0,1.7695303E0],"tree_param":{"num_deleted":"0","num_feature":"21","num_nodes":"93","size_leaf_vector":"1"}},{"base_weights":[-2.5882108E-2,3.863922E-1,-1.5267575E-1,-3.739015E-2,7.6714575E-1,-4.5455214E-2,-6.396903E-1,4.3532202E-1,-7.1415854E-1,7.8870535E-2,4.4623378E-1,-1.0708698E-1,7.1209663E-1,-9.312202E-1,-9.385038E-2,-1.3913229E-1,6.547499E-2,9.613818E-3,-1.0286698E0,-3.8918516E-1,8.12692E-1,5.7616675E-1,-1.6563988E-1,1.4053671E0,-4.1839886E-1,-1.0297095E0,-1.2164962E-2,-5.555573E-1,4.927004E-2,2.845998E-2,-4.6463674E-1,-5.7221945E-2,-1.5725993E-2,8.633532E-2,-4.466435E-2,-2.9126336E-3,1.0604582E0,1.3092871E0,-3.114608E-1,-5.7015773E-2,-1.0327473E-1,9.2240326E-2,5.658071E-3,-3.9601743E-2,7.655415E-3,-6.33408E-2,-2.7845535E-1,-4.47889E-2,1.107886E-2,-4.8088033E-2,6.705465E-2,-1.8975077E-2,2.5393281E-2,8.359955E-2,6.009125E-1,8.590174E-3,8.6184606E-2,-4.6001945E-2,2.7926356E-2,4.9606597E-1,-1.799067E-1,-2.6690707E-2,8.253975E-3,2.917227E-2,-2.1692727E-2,-1.5909983E-1,1.1345608E0,7.85708E-1,-3.717264E-2,-1.08365536E-1,-5.656588E-2,-1.7760718E-2,5.5623394E-3,7.124295E-2,1.9299278E-2,2.2736369E-3,6.814545E-2,-4.267588E-2,-1.5271974E-3],"categories":[],"categories_nodes":[],"categories_segments":[],"categories_sizes":[],"default_left":[0,1,1,0,0,0,0,0,0,0,0,0,0,0,0,0,0,0,0,0,0,0,0,0,0,0,0,0,0,0,0,0,0,0,0,0,1,0,0,0,1,0,0,0,0,0,0,0,0,0,0,0,0,0,0,0,0,0,0,0,0,0,0,0,0,0,0,0,0,0,0,0,0,0,0,0,0,0,0],"id":3,"left_children":[1,3,5,7,9,11,13,15,17,-1,19,21,23,25,27,29,-1,-1,31,33,35,37,39,41,43,45,-1,47,-1,-1,49,-1,-1,51,-1,-1,53,55,57,-1,59,-1,-1,-1,-1,-1,61,-1,-1,-1,63,-1,-1,-1,65,-1,-1,-1,-1,67,69,-1,-1,-1,-1,71,73,75,-1,77,-1,-1,-1,-1,-1,-1,-1,-1,-1],"loss_changes":[6.9238787E0,5.058525E0,5.25295E0,5.335512E0,3.5776997E0,3.9971445E0,2.804781E0,5.137848E0,2.1470966E0,0E0,4.3541226E0,3.2371259E0,5.64225E0,5.445757E-1,4.254644E0,1.8459253E0,0E0,0E0,7.276201E-2,1.2031991E0,2.1099725E0,4.586731E0,4.32614E0,2.1914558E0,8.092811E-1,1.4207287E0,0E0,1.7452297E0,0E0,0E0,1.4521602E0,0E0,0E0,8.4647644E-1,0E0,0E0,1.0865469E0,1.4523001E0,2.4795518E0,0E0,3.2955575E0,0E0,0E0,0E0,0E0,0E0,5.038136E-1,0E0,0E0,0E0,1.1511215E0,0E0,0E0,0E0,2.5368316E0,0E0,0E0,0E0,0E0,3.5209906E0,4.140348E0,0E0,0E0,0E0,0E0,2.1307944E-1,2.1846867E-1,2.97887E0,0E0,3.415935E0,0E0,0E0,0E0,0E0,0E0,0E0,0E0,0E0,0E0],"parents":[2147483647,0,0,1,1,2,2,3,3,4,4,5,5,6,6,7,7,8,8,10,10,11,11,12,12,13,13,14,14,15,15,18,18,19,19,20,20,21,21,22,22,23,23,24,24,25,25,27,27,30,30,33,33,36,36,37,37,38,38,40,40,46,46,50,50,54,54,59,59,60,60,65,65,66,66,67,67,69,69],"right_children":[2,4,6,8,10,12,14,16,18,-1,20,22,24,26,28,30,-1,-1,32,34,36,38,40,42,44,46,-1,48,-1,-1,50,-1,-1,52,-1,-1,54,56,58,-1,60,-1,-1,-1,-1,-1,62,-1,-1,-1,64,-1,-1,-1,66,-1,-1,-1,-1,68,70,-1,-1,-1,-1,72,74,76,-1,78,-1,-1,-1,-1,-1,-1,-1,-1,-1],"split_conditions":[4.7E1,4.042857E1,1.2190941E1,3.2666668E1,4.3E1,8.4E1,7.3E1,2.9857143E1,3.3E1,7.8870535E-2,4.5966667E1,4.4E1,1.0146545E1,6E0,1.6263456E1,7.5698214E0,6.547499E-2,9.613818E-3,5E0,4.5214287E1,9.026416E0,5.1142857E1,4.7857143E1,7.457143E1,7.344444E1,1.30268955E1,-1.2164962E-2,7.273333E1,4.927004E-2,2.845998E-2,8.730394E0,-5.7221945E-2,-1.5725993E-2,4.3714287E1,-4.466435E-2,-2.9126336E-3,9.62854E0,9.898385E0,5.492857E1,-5.7015773E-2,5.525E1,9.2240326E-2,5.658071E-3,-3.9601743E-2,7.655415E-3,-6.33408E-2,5.7E1,-4.47889E-2,1.107886E-2,-4.8088033E-2,1.11853075E1,-1.8975077E-2,2.5393281E-2,8.359955E-2,1.1285505E1,8.590174E-3,8.6184606E-2,-4.6001945E-2,2.7926356E-2,7E1,1.2096908E1,-2.6690707E-2,8.253975E-3,2.917227E-2,-2.1692727E-2,5.2714287E1,5.6896553E1,5.7E1,-3.717264E-2,5.542857E1,-5.656588E-2,-1.7760718E-2,5.5623394E-3,7.124295E-2,1.9299278E-2,2.2736369E-3,6.814545E-2,-4.267588E-2,-1.5271974E-3],"split_indices":[8,12,18,10,12,8,8,12,6,0,11,6,18,2,18,17,0,0,2,10,18,12,10,10,10,17,0,11,0,0,17,0,0,12,0,0,17,17,10,0,10,0,0,0,0,0,8,0,0,0,17,0,0,0,17,0,0,0,0,8,17,0,0,0,0,12,11,8,0,12,0,0,0,0,0,0,0,0,0],"split_type":[0,0,0,0,0,0,0,0,0,0,0,0,0,0,0,0,0,0,0,0,0,0,0,0,0,0,0,0,0,0,0,0,0,0,0,0,0,0,0,0,0,0,0,0,0,0,0,0,0,0,0,0,0,0,0,0,0,0,0,0,0,0,0,0,0,0,0,0,0,0,0,0,0,0,0,0,0,0,0],"sum_hessian":[1.3032567E2,3.0172201E1,1.00153465E2,1.4706038E1,1.5466162E1,8.297838E1,1.7175085E1,8.868379E0,5.8376603E0,3.2769215E0,1.218924E1,7.7529495E1,5.448888E0,1.073536E1,6.439724E0,5.8590336E0,3.0093443E0,1.603875E0,4.233785E0,3.6976497E0,8.491591E0,5.4218483E0,7.210764E1,3.2268786E0,2.2220092E0,8.956256E0,1.7791047E0,4.8500824E0,1.5896416E0,1.6090038E0,4.25003E0,3.124725E0,1.1090602E0,2.3292227E0,1.368427E0,2.0500765E0,6.4415145E0,2.7091951E0,2.712653E0,3.2969337E0,6.8810715E1,2.088875E0,1.1380036E0,1.1102725E0,1.1117368E0,6.286028E0,2.670228E0,3.2671103E0,1.5829719E0,1.7783903E0,2.4716399E0,1.1538254E0,1.1753973E0,1.6317432E0,4.8097715E0,1.1011825E0,1.6080128E0,1.5622733E0,1.1503797E0,7.1802697E0,6.1630444E1,1.5654169E0,1.1048111E0,1.1358802E0,1.3357595E0,2.2736063E0,2.5361652E0,6.117008E0,1.0632613E0,5.8356255E1,3.274187E0,1.1357731E0,1.1378331E0,1.1764928E0,1.3596723E0,3.1526508E0,2.9643576E0,4.5757003E0,5.3780556E1],"tree_param":{"num_deleted":"0","num_feature":"21","num_nodes":"79","size_leaf_vector":"1"}},{"base_weights":[-4.106152E-2,5.1763767E-1,-1.6058779E-1,-1.2278016E-1,9.818086E-1,2.202463E-1,-3.245079E-1,-4.9907854E-1,6.0197526E-1,1.2376006E0,-2.7102655E-2,-1.3277159E-2,9.379589E-1,-3.5638204E-1,3.8733706E-2,2.7606824E-2,-7.857408E-1,-6.005833E-3,5.564911E-2,5.767455E-1,9.013518E-2,1.4630069E-1,-4.3640446E-2,3.952091E-3,1.1818511E0,-3.8683823E-1,3.0421266E-2,-4.6028845E-2,-1.5143709E-2,7.2876625E-2,1.3396837E-1,-2.4390197E-3,9.424439E-1,7.785606E-2,1.4753698E-2,-4.3399632E-1,2.751078E-1,-4.7011122E-2,7.899434E-1,3.7647995E-1,-6.434326E-1,8.2986094E-2,-1.54696135E-2,-4.1234512E-2,-5.5501896E-1,-1.6316902E-2,7.370164E-1,6.2647E-2,-2.9911743E-3,5.396231E-1,-2.5237968E-2,-1.0541723E-1,-9.533949E-1,-2.790584E-1,6.735348E-2,-3.9530456E-1,-1.0258708E0,5.213188E-2,4.517255E-3,4.707794E-2,1.141799E-2,-4.0610954E-2,2.3728237E-2,-1.5395437E-2,-5.3274687E-2,-5.0456014E-2,-3.8317763E-3,-2.751189E-2,1.928842E-2,-6.4210564E-2,-2.3170393E-2],"categories":[],"categories_nodes":[],"categories_segments":[],"categories_sizes":[],"default_left":[0,0,1,0,0,1,0,0,0,0,0,1,0,0,0,0,0,0,0,0,0,1,0,0,0,0,0,0,0,0,0,0,0,0,0,0,0,0,0,0,0,0,0,0,0,0,0,0,0,1,0,0,0,0,0,0,0,0,0,0,0,0,0,0,0,0,0,0,0,0,0],"id":4,"left_children":[1,3,5,7,9,11,13,15,17,19,-1,21,23,25,-1,-1,27,-1,-1,29,-1,31,-1,-1,33,35,-1,-1,-1,-1,37,39,41,-1,-1,43,45,-1,47,49,51,-1,-1,53,55,-1,57,-1,-1,59,-1,61,63,65,-1,67,69,-1,-1,-1,-1,-1,-1,-1,-1,-1,-1,-1,-1,-1,-1],"loss_changes":[8.455074E0,6.758668E0,6.566108E0,3.1020474E0,5.7607737E0,5.359154E0,2.838426E0,2.6362383E0,1.596414E0,3.2496872E0,0E0,3.5643668E0,1.5500841E0,2.3439713E0,0E0,0E0,1.21940136E-1,0E0,0E0,2.442959E0,0E0,2.6061525E0,0E0,0E0,1.5501127E0,2.309986E0,0E0,0E0,0E0,0E0,4.69081E0,4.9844894E0,3.6238332E0,0E0,0E0,3.1093569E0,1.7070738E0,0E0,1.6574016E0,2.1272383E0,1.1707358E0,0E0,0E0,5.857479E0,3.3766613E0,0E0,5.5656505E-1,0E0,0E0,1.2074194E0,0E0,1.9885925E0,1.2892723E-2,2.1397471E0,0E0,4.95384E0,1.1648283E0,0E0,0E0,0E0,0E0,0E0,0E0,0E0,0E0,0E0,0E0,0E0,0E0,0E0,0E0],"parents":[2147483647,0,0,1,1,2,2,3,3,4,4,5,5,6,6,7,7,8,8,9,9,11,11,12,12,13,13,16,16,19,19,21,21,24,24,25,25,30,30,31,31,32,32,35,35,36,36,38,38,39,39,40,40,43,43,44,44,46,46,49,49,51,51,52,52,53,53,55,55,56,56],"right_children":[2,4,6,8,10,12,14,16,18,20,-1,22,24,26,-1,-1,28,-1,-1,30,-1,32,-1,-1,34,36,-1,-1,-1,-1,38,40,42,-1,-1,44,46,-1,48,50,52,-1,-1,54,56,-1,58,-1,-1,60,-1,62,64,66,-1,68,70,-1,-1,-1,-1,-1,-1,-1,-1,-1,-1,-1,-1,-1,-1],"split_conditions":[4.3E1,3.8E1,8.774338E0,1.0471311E1,5.8E1,8.331391E0,9E1,7.5698214E0,2E0,3.5E1,-2.7102655E-2,8.071113E0,5.642857E1,7.6833336E1,3.8733706E-2,2.7606824E-2,8.9421215E0,-6.005833E-3,5.564911E-2,8.9494915E0,9.013518E-2,7.578571E1,-4.3640446E-2,3.952091E-3,6.628571E1,1.4142136E1,3.0421266E-2,-4.6028845E-2,-1.5143709E-2,7.2876625E-2,4.5E1,6.6E1,7.6545456E1,7.785606E-2,1.4753698E-2,5.5E1,5.7E1,-4.7011122E-2,4.4E1,6E0,7.228571E1,8.2986094E-2,-1.54696135E-2,5.542857E1,1.1298157E1,-1.6316902E-2,7.6E1,6.2647E-2,-2.9911743E-3,5.5875E1,-2.5237968E-2,6.6E1,7.3E1,3.2E1,6.735348E-2,1.0796824E1,6.9E1,5.213188E-2,4.517255E-3,4.707794E-2,1.141799E-2,-4.0610954E-2,2.3728237E-2,-1.5395437E-2,-5.3274687E-2,-5.0456014E-2,-3.8317763E-3,-2.751189E-2,1.928842E-2,-6.4210564E-2,-2.3170393E-2],"split_indices":[8,5,17,17,5,17,8,17,13,8,0,17,10,11,0,0,17,0,0,17,0,10,0,0,12,17,0,0,0,0,5,8,11,0,0,10,8,0,11,2,12,0,0,11,17,0,8,0,0,11,0,10,8,5,0,17,5,0,0,0,0,0,0,0,0,0,0,0,0,0,0],"split_type":[0,0,0,0,0,0,0,0,0,0,0,0,0,0,0,0,0,0,0,0,0,0,0,0,0,0,0,0,0,0,0,0,0,0,0,0,0,0,0,0,0,0,0,0,0,0,0,0,0,0,0,0,0,0,0,0,0,0,0,0,0,0,0,0,0,0,0,0,0,0,0],"sum_hessian":[1.2436753E2,2.1330778E1,1.0303676E2,9.272698E0,1.205808E1,3.0901035E1,7.213572E1,6.3086066E0,2.9640918E0,1.0485808E1,1.572271E0,2.405554E1,6.8454947E0,7.0759605E1,1.3761171E0,1.1532935E0,5.155313E0,1.5453438E0,1.418748E0,5.764806E0,4.7210026E0,2.0988647E1,3.0668933E0,1.8067472E0,5.038748E0,6.9175E1,1.5846019E0,3.3213687E0,1.8339446E0,1.1618392E0,4.602967E0,1.85247E1,2.4639468E0,3.0093195E0,2.029428E0,6.4896065E1,4.2789364E0,1.5808796E0,3.022087E0,1.1901734E1,6.6229663E0,1.3592772E0,1.1046696E0,1.5602167E1,4.9293896E1,1.9862127E0,2.2927237E0,1.649114E0,1.3729731E0,1.0369661E1,1.532073E0,2.9107478E0,3.7122188E0,1.4002463E1,1.5997033E0,3.8182E1,1.1111899E1,1.141112E0,1.1516118E0,3.6419E0,6.7277613E0,1.1314597E0,1.779288E0,1.1036954E0,2.6085234E0,2.174536E0,1.1827928E1,3.210851E1,6.07349E0,6.7352095E0,4.3766904E0],"tree_param":{"num_deleted":"0","num_feature":"21","num_nodes":"71","size_leaf_vector":"1"}},{"base_weights":[2.1917162E-2,4.8157543E-1,-8.677095E-2,-4.5035318E-2,6.003435E-1,1.1615154E-1,-3.841372E-1,1.2618886E0,3.8147247E-1,-2.7839184E-1,3.3223054E-1,-5.0826484E-1,5.539009E-1,6.5114656E-3,7.6314114E-2,8.5979514E-2,1.0308688E0,3.143378E-2,-8.3403575E-1,8.531183E-2,8.0610204E-1,-3.3287394E-1,-1.1498886E0,6.019711E-2,4.743878E-2,-2.277731E-1,1.0905087E0,7.533058E-2,-8.300296E-3,-5.5662656E-1,5.665914E-1,-9.9947226E-1,5.474987E-3,1.1871548E0,-1.0175797E-1,-1.7351823E-1,1.0852287E0,-6.930909E-2,-1.0469497E0,-1.6740946E-2,-6.1772812E-2,-4.092475E-2,3.6225334E-2,1.9971338E-1,-5.645224E-2,4.585841E-3,7.6349184E-2,-1.003994E0,2.3663431E-1,9.094409E-1,-2.1756689E-1,-1.6734181E-2,-5.961749E-2,-1.7669623E-3,8.900096E-2,4.7668427E-1,-4.125372E-1,3.7299804E-2,-4.7666904E-2,1.3098522E0,3.4981358E-1,-5.197441E-1,5.156245E-1,-5.609941E-2,-1.3663443E-2,-4.5066427E-2,5.576727E-1,-1.4903446E-2,-5.578288E-2,-2.589857E-2,5.1085915E-2,1.2360094E0,3.019775E-1,-4.2957064E-2,2.9321322E-2,-3.1590423E-1,1.0302335E0,-6.6466784E-1,2.6876894E-1,1.7244237E-2,1.45569E0,7.32435E-2,-3.1630304E-2,-7.290552E-1,4.2945705E-2,7.306422E-1,-2.4927145E-2,7.107731E-2,-1.5648331E-2,7.7463344E-2,1.9567266E-2,-1.7102221E-2,3.7387498E-2,2.8094992E-2,-3.862223E-2,1.0018042E-2,7.5196154E-2,1.8803373E-2,-4.1135486E-2,4.519504E-2,-3.1086365E-2,8.0952935E-2,2.8623288E-2,-5.343023E-2,-1.3094177E-4,4.7368135E-2,-1.8832065E-2],"categories":[],"categories_nodes":[],"categories_segments":[],"categories_sizes":[],"default_left":[0,0,0,0,0,0,1,0,0,0,0,0,0,0,0,0,0,0,0,0,0,1,0,0,0,0,0,0,0,0,0,0,0,0,0,0,0,0,0,0,0,0,0,0,0,0,0,0,0,0,0,0,0,0,0,0,0,0,0,0,0,0,0,0,0,0,0,0,0,0,0,0,0,0,0,0,0,0,0,0,0,0,0,0,0,1,0,0,0,0,0,0,0,0,0,0,0,0,0,0,0,0,0,0,0,0,0],"id":5,"left_children":[1,3,5,-1,7,9,11,13,15,17,19,21,23,-1,-1,25,27,29,31,33,35,37,39,-1,41,43,45,-1,-1,47,49,51,-1,53,55,57,59,61,63,-1,-1,-1,-1,65,-1,-1,-1,67,69,71,73,-1,-1,-1,-1,75,77,-1,-1,79,81,83,85,-1,-1,-1,87,-1,-1,-1,-1,89,91,-1,-1,93,95,97,99,-1,101,-1,-1,103,-1,105,-1,-1,-1,-1,-1,-1,-1,-1,-1,-1,-1,-1,-1,-1,-1,-1,-1,-1,-1,-1,-1],"loss_changes":[6.5223217E0,4.6382794E0,6.426242E0,0E0,2.9334555E0,5.5169964E0,5.3032417E0,1.4258308E0,3.5869591E0,3.9960864E0,4.795069E0,3.9621773E0,1.7597327E0,0E0,0E0,4.7412963E0,3.6091042E0,5.2778482E0,1.4037094E0,5.9843187E0,4.0497E0,5.8989477E0,1.3599682E-1,0E0,3.021967E0,4.7293386E0,1.4143505E0,0E0,0E0,3.0827904E0,2.5506167E0,5.181608E-1,0E0,3.1125078E0,4.73385E0,3.5748305E0,1.3800497E0,6.656137E0,1.858778E-1,0E0,0E0,0E0,0E0,3.962561E0,0E0,0E0,0E0,8.658266E-2,2.7213974E0,8.7297535E-1,2.293302E0,0E0,0E0,0E0,0E0,4.3990974E0,3.091019E0,0E0,0E0,6.462984E-1,5.2734823E0,4.7226305E0,2.7738767E0,0E0,0E0,0E0,5.892232E0,0E0,0E0,0E0,0E0,3.8920355E-1,1.2662294E0,0E0,0E0,2.2708523E0,1.9399533E0,2.3921528E0,3.5548098E0,0E0,5.1175117E-2,0E0,0E0,3.1706066E0,0E0,2.6419873E0,0E0,0E0,0E0,0E0,0E0,0E0,0E0,0E0,0E0,0E0,0E0,0E0,0E0,0E0,0E0,0E0,0E0,0E0,0E0,0E0,0E0],"parents":[2147483647,0,0,1,1,2,2,4,4,5,5,6,6,7,7,8,8,9,9,10,10,11,11,12,12,15,15,16,16,17,17,18,18,19,19,20,20,21,21,22,22,24,24,25,25,26,26,29,29,30,30,31,31,33,33,34,34,35,35,36,36,37,37,38,38,43,43,47,47,48,48,49,49,50,50,55,55,56,56,59,59,60,60,61,61,62,62,66,66,71,71,72,72,75,75,76,76,77,77,78,78,80,80,83,83,85,85],"right_children":[2,4,6,-1,8,10,12,14,16,18,20,22,24,-1,-1,26,28,30,32,34,36,38,40,-1,42,44,46,-1,-1,48,50,52,-1,54,56,58,60,62,64,-1,-1,-1,-1,66,-1,-1,-1,68,70,72,74,-1,-1,-1,-1,76,78,-1,-1,80,82,84,86,-1,-1,-1,88,-1,-1,-1,-1,90,92,-1,-1,94,96,98,100,-1,102,-1,-1,104,-1,106,-1,-1,-1,-1,-1,-1,-1,-1,-1,-1,-1,-1,-1,-1,-1,-1,-1,-1,-1,-1,-1],"split_conditions":[4.4E1,2.1E1,1.0350984E1,-4.5035318E-2,3E1,5.8E1,1.3849267E1,2.1E1,5.3E1,5.4E1,8.970852E0,7.371429E1,1.4361885E1,6.5114656E-3,7.6314114E-2,1.2229939E1,5.2E1,5.542857E1,7.2E1,5.3E1,5.6733334E1,1.1979149E1,5.7E1,6.019711E-2,6.9E1,4.9E1,3.3E1,7.533058E-2,-8.300296E-3,8.118175E0,6.2E1,8.184682E0,5.474987E-3,4.582576E0,7.650684E0,4.9142857E1,7.7E1,1.074607E1,1.3390377E1,-1.6740946E-2,-6.1772812E-2,-4.092475E-2,3.6225334E-2,3.0636364E1,-5.645224E-2,4.585841E-3,7.6349184E-2,4.3766666E1,4.3833332E1,5E1,6.67E1,-1.6734181E-2,-5.961749E-2,-1.7669623E-3,8.900096E-2,7E1,8.420497E0,3.7299804E-2,-4.7666904E-2,6.1E1,7.1E1,7.6E1,7.3E1,-5.609941E-2,-1.3663443E-2,-4.5066427E-2,8.901578E0,-1.4903446E-2,-5.578288E-2,-2.589857E-2,5.1085915E-2,6.1E1,5.6833332E1,-4.2957064E-2,2.9321322E-2,6.2E1,2E0,5.8E1,2E0,1.7244237E-2,7.6E1,7.32435E-2,-3.1630304E-2,6.5E1,4.2945705E-2,1.4224392E1,-2.4927145E-2,7.107731E-2,-1.5648331E-2,7.7463344E-2,1.9567266E-2,-1.7102221E-2,3.7387498E-2,2.8094992E-2,-3.862223E-2,1.0018042E-2,7.5196154E-2,1.8803373E-2,-4.1135486E-2,4.519504E-2,-3.1086365E-2,8.0952935E-2,2.8623288E-2,-5.343023E-2,-1.3094177E-4,4.7368135E-2,-1.8832065E-2],"split_indices":[8,6,18,0,6,7,17,8,6,7,18,12,17,0,0,18,12,12,5,6,11,17,7,0,7,7,5,0,0,18,8,17,0,18,17,12,7,17,17,0,0,0,0,11,0,0,0,11,11,7,11,0,0,0,0,6,18,0,0,7,5,6,5,0,0,0,18,0,0,0,0,5,11,0,0,7,13,8,13,0,6,0,0,5,0,18,0,0,0,0,0,0,0,0,0,0,0,0,0,0,0,0,0,0,0,0,0],"split_type":[0,0,0,0,0,0,0,0,0,0,0,0,0,0,0,0,0,0,0,0,0,0,0,0,0,0,0,0,0,0,0,0,0,0,0,0,0,0,0,0,0,0,0,0,0,0,0,0,0,0,0,0,0,0,0,0,0,0,0,0,0,0,0,0,0,0,0,0,0,0,0,0,0,0,0,0,0,0,0,0,0,0,0,0,0,0,0,0,0,0,0,0,0,0,0,0,0,0,0,0,0,0,0,0,0,0,0],"sum_hessian":[1.2871606E2,2.3959013E1,1.0475705E2,1.37479E0,2.2584223E1,6.262868E1,4.2128365E1,4.4297404E0,1.8154482E1,2.2060163E1,4.056852E1,3.7609745E1,4.5186167E0,1.1216035E0,3.3081367E0,1.3255341E1,4.8991413E0,1.4768637E1,7.2915263E0,2.7446888E1,1.3121631E1,3.0728708E1,6.8810377E0,1.3757228E0,3.1428938E0,1.0689773E1,2.565568E0,3.320497E0,1.5786445E0,7.017409E0,7.7512283E0,6.153336E0,1.1381905E0,3.2076643E0,2.4239225E1,2.9936163E0,1.0128014E1,2.3245771E1,7.4829364E0,1.1205186E0,5.7605195E0,1.2874422E0,1.8554516E0,7.778652E0,2.9111204E0,1.148217E0,1.4173511E0,4.3170886E0,2.70032E0,5.2820463E0,2.469182E0,1.9989148E0,4.1544213E0,1.3546832E0,1.8529811E0,8.284935E0,1.5954289E1,1.3936665E0,1.5999498E0,7.1599793E0,2.9680345E0,1.3195709E1,1.0050063E1,6.4109507E0,1.0719858E0,1.5360315E0,6.242621E0,1.0907612E0,3.2263277E0,1.5503712E0,1.1499488E0,2.7623293E0,2.519717E0,1.3351557E0,1.1340264E0,3.5834107E0,4.7015243E0,1.1662701E1,4.2915893E0,1.381806E0,5.7781734E0,1.1601586E0,1.8078759E0,1.1865453E1,1.3302562E0,8.5226965E0,1.5273663E0,2.815871E0,3.4267497E0,1.4065182E0,1.3558111E0,1.1258531E0,1.3938638E0,1.1470892E0,2.4363215E0,2.2255273E0,2.4759972E0,1.3556895E0,1.0307011E1,2.4961782E0,1.7954109E0,4.173149E0,1.6050241E0,7.7649527E0,4.1005006E0,7.248439E0,1.2742581E0],"tree_param":{"num_deleted":"0","num_feature":"21","num_nodes":"107","size_leaf_vector":"1"}},{"base_weights":[-5.7896436E-3,1.00277886E-1,-3.6521354E-1,4.874963E-2,1.1187872E0,-1.3400532E-1,-7.5141126E-1,3.2308853E-1,-1.6153799E-1,7.99477E-2,-1.6341581E-3,-7.737131E-1,2.8281978E-1,-5.4407418E-2,-5.613027E-2,6.241754E-1,-6.1973095E-2,-1.5114028E-2,-6.8683887E-1,-9.5230985E-1,8.674079E-3,8.315256E-1,-9.78046E-2,-4.506183E-1,2.9912297E-2,-1.3488988E-2,7.116493E-1,-3.6249617E-1,4.7089258E-1,3.371115E-1,-2.5138855E-1,-2.767171E-3,-8.12696E-1,4.989264E-3,-5.916168E-2,8.1809955E-3,6.46089E-2,-4.9406778E-2,3.7713134E-1,1.0401906E-2,-4.2294636E-2,7.023852E-2,4.6168134E-1,-9.178625E-3,-7.4875206E-1,-3.2748824E-1,1.0620253E0,4.5574325E-1,-2.7094183E-2,-4.1175786E-1,6.52097E-1,-5.5530984E-2,-5.101893E-1,6.7673916E-1,-2.0414058E-2,-5.0564725E-2,7.224394E-1,-3.8762297E-2,5.339714E-1,-9.811271E-1,7.5519197E-3,1.3603598E-2,-4.2230267E-2,1.2877444E-2,7.0479356E-2,2.8856574E-3,9.385714E-1,-2.812908E-1,-5.3566314E-2,6.32002E-2,-2.1418376E-2,-1.5654823E-2,-5.0189376E-2,-1.5252302E-2,1.0509566E0,5.1516842E-2,-3.384271E-3,4.9182348E-2,-2.1071857E-2,-5.4994144E-2,-1.4647827E-2,2.6493942E-2,-1.3686306E-2,6.4661495E-2,1.0117925E-2,-3.2051247E-2,1.0184733E-2,-2.0655356E-2,2.9575765E-2,6.582385E-2,1.0382158E-2],"categories":[],"categories_nodes":[],"categories_segments":[],"categories_sizes":[],"default_left":[0,0,0,0,0,0,1,0,0,0,0,0,1,0,0,0,0,0,0,0,0,1,0,0,0,0,0,0,0,0,0,0,0,0,0,0,0,0,0,0,0,0,0,0,0,0,0,0,0,0,0,0,0,0,0,0,0,0,0,0,0,0,0,0,0,0,0,0,0,0,0,0,0,0,0,0,0,0,0,0,0,0,0,0,0,0,0,0,0,0,0],"id":6,"left_children":[1,3,5,7,9,11,13,15,17,-1,-1,19,21,-1,23,25,27,29,31,33,-1,35,37,39,-1,-1,41,43,45,47,49,-1,51,-1,-1,-1,-1,-1,53,-1,-1,-1,55,57,59,61,63,65,-1,67,69,-1,71,73,-1,-1,75,-1,77,79,-1,-1,-1,-1,-1,81,83,85,-1,-1,-1,87,-1,-1,89,-1,-1,-1,-1,-1,-1,-1,-1,-1,-1,-1,-1,-1,-1,-1,-1],"loss_changes":[4.825453E0,5.0769634E0,2.4743242E0,5.4816065E0,2.6303778E0,5.353303E0,2.4165363E0,4.811897E0,4.1387134E0,0E0,0E0,1.495615E0,2.6692543E0,0E0,1.4331123E0,2.0057907E0,3.209437E0,3.68049E0,8.877826E-1,1.7631025E0,0E0,1.3824139E0,3.84466E0,1.056596E0,0E0,0E0,3.0596132E0,1.7260399E0,3.7824926E0,2.1003795E0,4.0983677E0,0E0,3.0871868E-1,0E0,0E0,0E0,0E0,0E0,1.7066365E0,0E0,0E0,0E0,7.3443737E0,3.5946271E0,1.4139779E0,1.4266872E0,8.7205267E-1,3.5402567E0,0E0,1.6830943E0,3.4317112E0,0E0,1.6121919E0,2.0753844E0,0E0,0E0,3.7706695E0,0E0,2.5905976E0,8.188486E-2,0E0,0E0,0E0,0E0,0E0,1.5101154E0,1.7851601E0,3.726101E0,0E0,0E0,0E0,1.2934237E0,0E0,0E0,5.5134964E-1,0E0,0E0,0E0,0E0,0E0,0E0,0E0,0E0,0E0,0E0,0E0,0E0,0E0,0E0,0E0,0E0],"parents":[2147483647,0,0,1,1,2,2,3,3,4,4,5,5,6,6,7,7,8,8,11,11,12,12,14,14,15,15,16,16,17,17,18,18,19,19,21,21,22,22,23,23,26,26,27,27,28,28,29,29,30,30,32,32,38,38,42,42,43,43,44,44,45,45,46,46,47,47,49,49,50,50,52,52,53,53,56,56,58,58,59,59,65,65,66,66,67,67,71,71,74,74],"right_children":[2,4,6,8,10,12,14,16,18,-1,-1,20,22,-1,24,26,28,30,32,34,-1,36,38,40,-1,-1,42,44,46,48,50,-1,52,-1,-1,-1,-1,-1,54,-1,-1,-1,56,58,60,62,64,66,-1,68,70,-1,72,74,-1,-1,76,-1,78,80,-1,-1,-1,-1,-1,82,84,86,-1,-1,-1,88,-1,-1,90,-1,-1,-1,-1,-1,-1,-1,-1,-1,-1,-1,-1,-1,-1,-1,-1],"split_conditions":[1.2106668E1,1.1814035E1,6.7E1,3E0,5.7E1,4.5E1,1.3866713E1,6.2E1,1.0350984E1,7.99477E-2,-1.6341581E-3,6.7E1,4.7285713E1,-5.4407418E-2,7.210345E1,2.6E1,7.196667E1,2E0,4.3E1,4.1E1,8.674079E-3,4.207143E1,2E0,7.7E1,2.9912297E-2,-1.3488988E-2,4.2857143E1,6.8333336E1,7.3E1,7.8E1,7.5E1,-2.767171E-3,5.8E1,4.989264E-3,-5.916168E-2,8.1809955E-3,6.46089E-2,-4.9406778E-2,7.3E1,1.0401906E-2,-4.2294636E-2,7.023852E-2,4.5785713E1,6.0714287E1,3E0,6.9E1,6.6690474E0,5.61E1,-2.7094183E-2,7.221429E1,7.9E1,-5.5530984E-2,7.0666664E1,5.4E1,-2.0414058E-2,-5.0564725E-2,2E0,-3.8762297E-2,7.5E1,1.0226017E1,7.5519197E-3,1.3603598E-2,-4.2230267E-2,1.2877444E-2,7.0479356E-2,6.8173447E0,8.788521E0,5.8166668E1,-5.3566314E-2,6.32002E-2,-2.1418376E-2,6.557143E1,-5.0189376E-2,-1.5252302E-2,1.3603921E1,5.1516842E-2,-3.384271E-3,4.9182348E-2,-2.1071857E-2,-5.4994144E-2,-1.4647827E-2,2.6493942E-2,-1.3686306E-2,6.4661495E-2,1.0117925E-2,-3.2051247E-2,1.0184733E-2,-2.0655356E-2,2.9575765E-2,6.582385E-2,1.0382158E-2],"split_indices":[18,18,5,2,7,5,18,5,18,0,0,7,12,0,11,5,11,13,11,7,0,10,2,5,0,0,12,11,5,5,5,0,5,0,0,0,0,0,7,0,0,0,10,12,13,5,18,11,0,10,5,0,10,5,0,0,2,0,5,18,0,0,0,0,0,18,18,11,0,0,0,12,0,0,18,0,0,0,0,0,0,0,0,0,0,0,0,0,0,0,0],"split_type":[0,0,0,0,0,0,0,0,0,0,0,0,0,0,0,0,0,0,0,0,0,0,0,0,0,0,0,0,0,0,0,0,0,0,0,0,0,0,0,0,0,0,0,0,0,0,0,0,0,0,0,0,0,0,0,0,0,0,0,0,0,0,0,0,0,0,0,0,0,0,0,0,0,0,0,0,0,0,0,0,0,0,0,0,0,0,0,0,0,0,0],"sum_hessian":[1.2461456E2,9.677643E1,2.7838135E1,9.311351E1,3.66292E0,1.825578E1,9.582355E0,4.0170765E1,5.294275E1,2.310722E0,1.352198E0,6.8645086E0,1.1391271E1,6.07505E0,3.5073047E0,2.2195059E1,1.7975706E1,4.2206696E1,1.0736052E1,5.7709723E0,1.0935365E0,4.180316E0,7.2109547E0,2.3824387E0,1.1248661E0,1.7924695E0,2.0402588E1,1.16980295E1,6.2776766E0,1.6774052E1,2.5432646E1,2.0233762E0,8.712675E0,1.1408978E0,4.6300745E0,2.2594717E0,1.9208446E0,2.1325808E0,5.078374E0,1.0711836E0,1.311255E0,4.1832643E0,1.6219324E1,6.644191E0,5.0538387E0,2.8604143E0,3.4172626E0,1.5203641E1,1.5704097E0,2.206105E1,3.3715954E0,3.0436995E0,5.6689754E0,3.7762349E0,1.3021388E0,2.006527E0,1.4212798E1,2.579172E0,4.0650187E0,3.9447052E0,1.1091334E0,1.5440577E0,1.3163565E0,1.5562164E0,1.8610461E0,8.364411E0,6.8392305E0,1.9608778E1,2.4522715E0,2.044084E0,1.3275112E0,3.3471715E0,2.321804E0,1.0931427E0,2.683092E0,1.0008606E1,4.204192E0,2.743975E0,1.321044E0,2.8539376E0,1.0907674E0,2.5639806E0,5.8004303E0,4.105078E0,2.7341523E0,1.1073418E1,8.535361E0,2.2161217E0,1.1310499E0,1.6138793E0,1.0692129E0],"tree_param":{"num_deleted":"0","num_feature":"21","num_nodes":"91","size_leaf_vector":"1"}},{"base_weights":[9.97231E-3,2.9377225E-1,-7.802881E-2,-3.5946224E-2,3.9613998E-1,2.2895828E-1,-2.047466E-1,-4.1204523E-2,4.8290664E-1,-3.839274E-4,1.0085452E0,-1.0833056E0,-1.1652209E-1,7.343242E-1,1.4825383E-1,-1.5976982E-1,1.05662E0,2.0689052E-1,7.466902E-2,-1.3240183E-2,-5.9841283E-2,3.3894405E-1,-2.416787E-1,8.805244E-1,-2.2904787E-2,-4.426829E-1,5.623297E-1,6.164308E-1,-4.1528228E-1,6.549101E-3,7.3872715E-2,3.5461865E-2,-2.0236583E-2,-1.8967779E-1,8.315863E-1,-5.8197033E-1,-1.2647553E-1,-9.697975E-3,1.2172936E0,1.1214419E-2,-7.332264E-1,1.9177206E-1,5.4557897E-2,-3.1800275E-3,8.4232384E-1,-5.8892515E-2,-7.973504E-2,4.3018335E-1,-5.28447E-2,-2.7313134E-1,7.273658E-2,-8.45853E-1,1.4707926E-2,2.2370498E-1,-4.6482065E-1,4.457548E-2,-3.7069045E-2,-4.1836714E-3,1.4288528E0,-4.9369957E-2,-5.7134624E-3,8.9074713E-1,-3.531936E-2,6.627089E-2,4.516919E-3,9.6927536E-1,-4.6330047E-1,-4.8828304E-1,6.8726845E-2,-4.128572E-2,1.9066868E-2,9.645259E-3,-1.0103506E0,3.1142985E-2,-3.0969916E-2,-2.569557E-1,6.9273233E-1,1.541199E-1,-6.8501884E-1,8.1189595E-2,3.39733E-3,9.519543E-3,6.5482885E-2,4.885515E-3,6.563127E-2,2.1167727E-2,-4.859459E-2,-4.236956E-2,6.843384E-3,-6.0515225E-2,-8.567448E-3,1.0827868E-2,-3.5503164E-2,5.1032126E-2,-5.2936003E-3,4.7630414E-2,-1.6085906E-2,-4.267017E-2,1.509616E-2],"categories":[],"categories_nodes":[],"categories_segments":[],"categories_sizes":[],"default_left":[0,0,0,0,0,0,0,0,0,0,0,0,0,1,0,0,0,0,0,0,0,0,0,1,0,0,0,0,0,0,0,0,0,0,0,1,0,0,0,0,0,0,0,0,0,0,0,1,0,0,0,0,0,0,0,0,0,0,0,0,0,0,0,0,0,0,0,0,0,0,0,0,0,0,0,0,0,0,0,0,0,0,0,0,0,0,0,0,0,0,0,0,0,0,0,0,0,0,0],"id":7,"left_children":[1,3,5,-1,7,9,11,-1,13,15,17,19,21,23,25,27,29,31,-1,-1,-1,33,35,37,-1,39,41,43,45,-1,-1,-1,-1,47,49,51,53,55,57,-1,59,61,-1,-1,63,-1,65,67,-1,69,-1,71,73,75,77,-1,-1,-1,79,-1,-1,81,-1,-1,-1,83,85,87,-1,-1,-1,-1,89,-1,-1,91,93,95,97,-1,-1,-1,-1,-1,-1,-1,-1,-1,-1,-1,-1,-1,-1,-1,-1,-1,-1,-1,-1],"loss_changes":[3.2777538E0,3.5043259E0,3.9474053E0,0E0,3.4524593E0,5.322694E0,5.415816E0,0E0,2.2104082E0,4.2123127E0,2.3211842E0,2.7814102E-1,3.849708E0,3.103263E0,3.4490595E0,4.564653E0,1.0827129E0,1.4272707E0,0E0,0E0,0E0,3.9764707E0,1.9818938E0,4.25033E0,0E0,1.317055E0,1.3839676E0,9.419012E-1,4.241153E0,0E0,0E0,0E0,0E0,4.694777E0,5.7502403E0,2.0567355E0,4.8964663E0,3.8738527E0,2.9449167E0,0E0,5.758183E-1,4.3920255E0,0E0,0E0,1.4827261E0,0E0,5.6144876E0,5.2773814E0,0E0,1.633538E0,0E0,1.7360673E0,2.3001494E0,4.8113046E0,2.9536319E0,0E0,0E0,0E0,2.246769E0,0E0,0E0,8.693075E-1,0E0,0E0,0E0,9.971187E-1,4.9556494E0,8.8602614E-1,0E0,0E0,0E0,0E0,1.1257544E0,0E0,0E0,2.488003E0,2.9028544E0,2.70014E0,2.8496885E0,0E0,0E0,0E0,0E0,0E0,0E0,0E0,0E0,0E0,0E0,0E0,0E0,0E0,0E0,0E0,0E0,0E0,0E0,0E0,0E0],"parents":[2147483647,0,0,1,1,2,2,4,4,5,5,6,6,8,8,9,9,10,10,11,11,12,12,13,13,14,14,15,15,16,16,17,17,21,21,22,22,23,23,25,25,26,26,27,27,28,28,33,33,34,34,35,35,36,36,37,37,38,38,40,40,41,41,44,44,46,46,47,47,49,49,51,51,52,52,53,53,54,54,58,58,61,61,65,65,66,66,67,67,72,72,75,75,76,76,77,77,78,78],"right_children":[2,4,6,-1,8,10,12,-1,14,16,18,20,22,24,26,28,30,32,-1,-1,-1,34,36,38,-1,40,42,44,46,-1,-1,-1,-1,48,50,52,54,56,58,-1,60,62,-1,-1,64,-1,66,68,-1,70,-1,72,74,76,78,-1,-1,-1,80,-1,-1,82,-1,-1,-1,84,86,88,-1,-1,-1,-1,90,-1,-1,92,94,96,98,-1,-1,-1,-1,-1,-1,-1,-1,-1,-1,-1,-1,-1,-1,-1,-1,-1,-1,-1,-1],"split_conditions":[4.7E1,2.3E1,8.774338E0,-3.5946224E-2,2E1,8.3666E0,5E1,-4.1204523E-2,4.9E1,7.7E1,8.185352E0,2E0,5.5E1,1.2153042E1,4.8E1,5.78412E0,7E1,5.8E1,7.466902E-2,-1.3240183E-2,-5.9841283E-2,5.4E1,6.1E1,8.9421215E0,-2.2904787E-2,3E0,1.1285505E1,6.1E1,6.0749288E0,6.549101E-3,7.3872715E-2,3.5461865E-2,-2.0236583E-2,5.8E1,4.7E1,6.7E1,7.3E1,3.1142857E1,2.7E1,1.1214419E-2,4.6E1,9.795715E0,5.4557897E-2,-3.1800275E-3,7.3E1,-5.8892515E-2,5.3E1,1.0551808E1,-5.28447E-2,6E1,7.273658E-2,5.557143E1,7E1,7E1,6.2E1,4.457548E-2,-3.7069045E-2,-4.1836714E-3,5.4E1,-4.9369957E-2,-5.7134624E-3,5.3E1,-3.531936E-2,6.627089E-2,4.516919E-3,7.3029675E0,7.158079E0,5.4E1,6.8726845E-2,-4.128572E-2,1.9066868E-2,9.645259E-3,6.6E1,3.1142985E-2,-3.0969916E-2,6.7E1,7.25E1,1.0075539E1,8.4E1,8.1189595E-2,3.39733E-3,9.519543E-3,6.5482885E-2,4.885515E-3,6.563127E-2,2.1167727E-2,-4.859459E-2,-4.236956E-2,6.843384E-3,-6.0515225E-2,-8.567448E-3,1.0827868E-2,-3.5503164E-2,5.1032126E-2,-5.2936003E-3,4.7630414E-2,-1.6085906E-2,-4.267017E-2,1.509616E-2],"split_indices":[8,8,17,0,5,17,8,0,7,6,18,2,6,17,5,17,7,8,0,0,0,5,6,17,0,2,17,6,18,0,0,0,0,8,6,10,6,10,8,0,5,17,0,0,5,0,7,17,0,7,0,10,10,8,5,0,0,0,5,0,0,6,0,0,0,18,18,8,0,0,0,0,5,0,0,5,10,17,8,0,0,0,0,0,0,0,0,0,0,0,0,0,0,0,0,0,0,0,0],"split_type":[0,0,0,0,0,0,0,0,0,0,0,0,0,0,0,0,0,0,0,0,0,0,0,0,0,0,0,0,0,0,0,0,0,0,0,0,0,0,0,0,0,0,0,0,0,0,0,0,0,0,0,0,0,0,0,0,0,0,0,0,0,0,0,0,0,0,0,0,0,0,0,0,0,0,0,0,0,0,0,0,0,0,0,0,0,0,0,0,0,0,0,0,0,0,0,0,0,0,0],"sum_hessian":[1.2932507E2,3.0056341E1,9.926873E1,2.2063677E0,2.7849974E1,2.876812E1,7.050061E1,1.2847204E0,2.6565252E1,2.3001074E1,5.767047E0,5.4043136E0,6.509629E1,1.4487108E1,1.2078144E1,2.072482E1,2.2762542E0,2.7110922E0,3.0559545E0,1.0641605E0,4.340153E0,1.3663681E1,5.1432613E1,1.3137867E1,1.349242E0,4.9478593E0,7.130285E0,4.782852E0,1.5941967E1,1.1212574E0,1.1549966E0,1.4008911E0,1.3102013E0,6.887808E0,6.7758727E0,1.1983523E1,3.944909E1,3.8724802E0,9.265387E0,1.5705487E0,3.3773108E0,4.9937363E0,2.1365483E0,1.3717543E0,3.411098E0,4.104287E0,1.183768E1,4.3106375E0,2.5771706E0,2.6462555E0,4.129617E0,8.019343E0,3.9641805E0,1.9551992E1,1.9897099E1,1.6373423E0,2.235138E0,1.3805135E0,7.884873E0,1.9721793E0,1.4051315E0,2.8129022E0,2.180834E0,1.6125797E0,1.7985184E0,2.760632E0,9.077047E0,2.4300985E0,1.8805388E0,1.2929401E0,1.3533154E0,1.0727191E0,6.946624E0,2.0325553E0,1.9316254E0,9.879551E0,9.6724415E0,5.299938E0,1.4597159E1,6.727974E0,1.1568987E0,1.5971669E0,1.2157354E0,1.1432269E0,1.6174053E0,3.369831E0,5.7072167E0,1.317679E0,1.1124194E0,5.2523193E0,1.6943046E0,5.086277E0,4.7932734E0,6.6598487E0,3.012593E0,1.6048807E0,3.6950576E0,1.2585263E1,2.0118961E0],"tree_param":{"num_deleted":"0","num_feature":"21","num_nodes":"99","size_leaf_vector":"1"}},{"base_weights":[2.5433129E-2,-4.3830824E-1,8.986555E-2,-5.1432755E-2,-2.7826476E-1,9.020991E-1,5.9964955E-3,5.308599E-1,-5.054782E-1,5.2296203E-1,8.160727E-2,1.982848E-1,-2.4316435E-1,-2.180321E-2,6.526493E-2,-6.742018E-1,2.6148248E-2,9.3544625E-2,5.695928E-2,5.7432824E-1,3.4622997E-2,-2.974637E-1,5.0007075E-2,-2.913472E-1,-5.5813264E-2,-3.817589E-1,5.9634805E-1,7.8668666E-1,-5.0185573E-1,-1.4477694E-1,4.1858682E-1,-3.787127E-1,4.6765354E-1,-5.31917E-1,1.9985732E-2,4.269392E-3,-3.0881424E-2,5.0051617E-3,4.0265515E-2,1.2409371E0,4.064372E-1,-4.322585E-2,8.497563E-3,6.594912E-2,-5.5213207E-1,8.129004E-1,1.8439341E-2,4.5412183E-2,-5.232245E-1,-1.595373E-2,5.6120545E-2,6.8336553E-3,-7.324323E-1,4.0174606E-3,1.474814E0,-3.481065E-2,8.069885E-1,-1.8896896E-1,7.208547E-1,-7.877834E-1,2.1404217E-1,6.847285E-2,3.354367E-1,-3.829147E-2,4.7290912E-1,4.1785455E-1,-5.259121E-1,-2.9932812E-1,-1.0494123E0,-1.5707998E-2,-4.5496807E-2,3.1551193E-2,8.952476E-2,6.5451935E-2,-1.964663E-2,1.7314697E-2,-2.0395657E-2,2.8683322E-3,7.113158E-2,-1.1474582E-2,-5.0406672E-2,-3.6396194E-2,5.030052E-2,-1.6475746E-2,4.353342E-2,-1.77736E-2,3.812517E-2,-2.9593393E-2,4.1634038E-2,-4.5300767E-2,-4.198066E-4,-2.2000981E-2,3.0503783E-2,-4.716476E-3,-6.1717402E-2],"categories":[],"categories_nodes":[],"categories_segments":[],"categories_sizes":[],"default_left":[0,0,0,0,0,0,1,0,0,0,0,0,0,0,0,0,0,0,0,0,1,0,0,0,0,0,0,0,0,0,0,0,0,0,0,0,0,0,0,0,0,0,0,0,0,0,0,0,0,0,0,0,0,0,0,0,1,0,0,1,0,0,0,0,0,0,0,0,0,0,0,0,0,0,0,0,0,0,0,0,0,0,0,0,0,0,0,0,0,0,0,0,0,0,0],"id":8,"left_children":[1,3,5,-1,7,9,11,13,15,17,-1,19,21,-1,-1,23,-1,25,-1,27,29,31,-1,33,-1,35,37,39,41,43,45,47,49,51,-1,-1,-1,-1,-1,53,55,-1,-1,57,59,61,63,65,67,-1,-1,-1,69,-1,71,-1,73,75,77,79,81,-1,83,-1,85,87,89,91,93,-1,-1,-1,-1,-1,-1,-1,-1,-1,-1,-1,-1,-1,-1,-1,-1,-1,-1,-1,-1,-1,-1,-1,-1,-1,-1],"loss_changes":[3.9031153E0,1.2202237E0,7.7851844E0,0E0,2.8264787E0,2.107235E0,5.0628715E0,3.2189138E0,2.3266165E0,2.145868E0,0E0,3.6497557E0,3.4057198E0,0E0,0E0,1.4027371E0,0E0,1.6868589E0,0E0,4.512377E0,2.995657E0,2.967352E0,0E0,1.347172E0,0E0,4.657632E-1,2.6753485E-1,2.162094E0,1.0191119E0,2.5930452E0,2.166472E0,2.5445523E0,2.8081563E0,8.36277E-1,0E0,0E0,0E0,0E0,0E0,1.6586189E0,4.9299984E0,0E0,0E0,3.5624094E0,2.0212405E0,1.3849378E0,3.1726875E0,2.6396255E0,3.3092794E0,0E0,0E0,0E0,3.944683E-2,0E0,3.0626392E-1,0E0,5.1637964E0,1.9653373E0,2.692463E0,7.603078E-1,3.1194906E0,0E0,2.0877771E0,0E0,1.6169873E0,3.6098566E0,9.6230257E-1,3.207922E0,1.434617E0,0E0,0E0,0E0,0E0,0E0,0E0,0E0,0E0,0E0,0E0,0E0,0E0,0E0,0E0,0E0,0E0,0E0,0E0,0E0,0E0,0E0,0E0,0E0,0E0,0E0,0E0],"parents":[2147483647,0,0,1,1,2,2,4,4,5,5,6,6,7,7,8,8,9,9,11,11,12,12,15,15,17,17,19,19,20,20,21,21,23,23,25,25,26,26,27,27,28,28,29,29,30,30,31,31,32,32,33,33,39,39,40,40,43,43,44,44,45,45,46,46,47,47,48,48,52,52,54,54,56,56,57,57,58,58,59,59,60,60,62,62,64,64,65,65,66,66,67,67,68,68],"right_children":[2,4,6,-1,8,10,12,14,16,18,-1,20,22,-1,-1,24,-1,26,-1,28,30,32,-1,34,-1,36,38,40,42,44,46,48,50,52,-1,-1,-1,-1,-1,54,56,-1,-1,58,60,62,64,66,68,-1,-1,-1,70,-1,72,-1,74,76,78,80,82,-1,84,-1,86,88,90,92,94,-1,-1,-1,-1,-1,-1,-1,-1,-1,-1,-1,-1,-1,-1,-1,-1,-1,-1,-1,-1,-1,-1,-1,-1,-1,-1],"split_conditions":[4.042857E1,2.2E1,4.2E1,-5.1432755E-2,2.9433332E1,1.2229939E1,9.856108E0,2.7428572E1,6E0,5.2E1,8.160727E-2,5.7E1,8.4E1,-2.180321E-2,6.526493E-2,4.5E1,2.6148248E-2,4E0,5.695928E-2,6E0,8.518887E0,1.5240922E1,5.0007075E-2,4.5E1,-5.5813264E-2,4.3633335E1,3.8E1,5.442857E1,5.1E1,7.7781744E0,2E0,2E0,7.1E1,2.8428572E1,1.9985732E-2,4.269392E-3,-3.0881424E-2,5.0051617E-3,4.0265515E-2,3.8E1,5.6464287E1,-4.322585E-2,8.497563E-3,6.9247656E0,4E0,8.850612E0,6.8E1,1.2351981E1,6.977273E1,-1.595373E-2,5.6120545E-2,6.8336553E-3,3.2142857E1,4.0174606E-3,8.360907E0,-3.481065E-2,8.320943E0,4.4131837E0,5E0,6.84E1,6.828571E1,6.847285E-2,9.10782E0,-3.829147E-2,8.970852E0,5.5857143E1,2E0,6.771429E1,5.9E1,-1.5707998E-2,-4.5496807E-2,3.1551193E-2,8.952476E-2,6.5451935E-2,-1.964663E-2,1.7314697E-2,-2.0395657E-2,2.8683322E-3,7.113158E-2,-1.1474582E-2,-5.0406672E-2,-3.6396194E-2,5.030052E-2,-1.6475746E-2,4.353342E-2,-1.77736E-2,3.812517E-2,-2.9593393E-2,4.1634038E-2,-4.5300767E-2,-4.198066E-4,-2.2000981E-2,3.0503783E-2,-4.716476E-3,-6.1717402E-2],"split_indices":[12,6,8,0,11,18,18,12,2,6,0,6,6,0,0,6,0,2,0,2,18,18,0,8,0,11,8,12,6,18,13,2,8,12,0,0,0,0,0,6,11,0,0,18,2,18,6,18,11,0,0,0,12,0,18,0,18,18,2,11,12,0,18,0,18,12,13,12,8,0,0,0,0,0,0,0,0,0,0,0,0,0,0,0,0,0,0,0,0,0,0,0,0,0,0],"split_type":[0,0,0,0,0,0,0,0,0,0,0,0,0,0,0,0,0,0,0,0,0,0,0,0,0,0,0,0,0,0,0,0,0,0,0,0,0,0,0,0,0,0,0,0,0,0,0,0,0,0,0,0,0,0,0,0,0,0,0,0,0,0,0,0,0,0,0,0,0,0,0,0,0,0,0,0,0,0,0,0,0,0,0,0,0,0,0,0,0,0,0,0,0,0,0],"sum_hessian":[1.2830821E2,1.4944573E1,1.1336363E2,2.0298371E0,1.2914737E1,9.6969595E0,1.0366667E2,2.5385106E0,1.0376225E1,7.512047E0,2.1849127E0,5.8626347E1,4.5040325E1,1.3232714E0,1.2152392E0,9.209744E0,1.1664814E0,5.1058326E0,2.4062138E0,1.7017118E1,4.160923E1,4.388449E1,1.155835E0,5.82446E0,3.3852842E0,2.7484467E0,2.357386E0,1.443728E1,2.5798385E0,2.8783579E1,1.2825649E1,4.0128235E1,3.756255E0,4.4912677E0,1.3331926E0,1.136185E0,1.6122615E0,1.136787E0,1.2205992E0,5.547131E0,8.890149E0,1.4891161E0,1.0907223E0,1.9522589E1,9.260991E0,5.9403768E0,6.885273E0,1.0372355E1,2.975588E1,1.9390541E0,1.8172009E0,1.1096582E0,3.3816092E0,1.1556922E0,4.3914385E0,2.1722295E0,6.7179193E0,1.4564788E1,4.9578004E0,7.0610332E0,2.1999578E0,1.8803517E0,4.060025E0,2.2747245E0,4.610548E0,6.441686E0,3.9306698E0,2.1974464E1,7.7814155E0,1.8327562E0,1.5488532E0,2.0121236E0,2.3793151E0,4.672145E0,2.0457747E0,4.0592647E0,1.0505524E1,3.104462E0,1.8533382E0,2.5759482E0,4.485085E0,1.0417585E0,1.1581992E0,1.9820062E0,2.0780191E0,1.135365E0,3.4751832E0,1.7515293E0,4.690157E0,1.8333888E0,2.097281E0,1.9477324E1,2.4971414E0,1.50728E0,6.274135E0],"tree_param":{"num_deleted":"0","num_feature":"21","num_nodes":"95","size_leaf_vector":"1"}},{"base_weights":[1.9190803E-2,2.8338698E-1,-9.733636E-2,1.7618813E-1,6.2345725E-2,4.6482033E-1,-2.1732952E-1,5.3511597E-2,1.2216913E0,-1.9929583E-1,8.09133E-1,-1.00432865E-1,-5.2784735E-1,2.3758934E-1,-8.751159E-1,7.287588E-3,8.073368E-2,-5.56902E-1,2.5164379E-2,1.3016011E-1,1.1833279E0,-5.1712805E-1,6.9511525E-2,-7.171462E-1,2.0939705E-1,8.7593716E-1,6.6700704E-2,7.4849986E-3,-5.7584252E-2,7.0606195E-3,-4.9478255E-2,4.0522024E-2,-4.6849382E-1,1.3900455E0,4.471755E-3,5.769994E-1,-8.631239E-1,4.3423012E-1,-1.6286378E-1,-7.941483E-1,9.189711E-3,3.1071428E-2,-1.5204064E-2,2.2309634E-1,6.726369E-2,-8.068055E-2,6.87554E-1,3.3956177E-3,-3.9548993E-2,7.691363E-2,2.256307E-2,-7.749212E-3,5.1323023E-2,7.5879507E-3,-9.74708E-1,-1.805757E-1,7.0525306E-1,-2.894438E-1,7.728875E-1,-9.455472E-1,-2.0855603E-1,4.5078214E-2,-3.756026E-2,1.999321E-1,-4.919891E-2,6.066488E-2,-3.3073858E-4,-5.359667E-2,-3.854568E-1,2.8177643E-2,-6.1598694E-1,1.0563357E0,2.244713E-1,-4.6477664E-2,-1.3293475E-1,5.0329275E-2,8.132278E-3,-4.5997545E-1,-1.1014217E0,3.2806326E-2,-3.4626245E-2,-3.0387898E-3,4.9960162E-2,9.015157E-3,-3.8441878E-2,-1.0333782E-2,-4.1579135E-2,-1.627782E-2,7.13331E-2,-2.3527497E-2,6.403382E-2,3.3322345E-2,-1.4025501E-2,-4.3060154E-2,2.722987E-3,-1.5876113E-2,-5.9708115E-2],"categories":[],"categories_nodes":[],"categories_segments":[],"categories_sizes":[],"default_left":[1,1,0,0,0,0,0,0,1,0,0,0,0,1,0,0,0,0,0,0,0,0,0,0,0,0,0,0,0,0,0,0,0,0,0,0,0,0,0,0,0,0,0,1,0,0,0,0,0,0,0,0,0,0,0,0,0,0,0,0,0,0,0,0,0,0,0,0,0,0,0,0,0,0,0,0,0,0,0,0,0,0,0,0,0,0,0,0,0,0,0,0,0,0,0,0,0],"id":9,"left_children":[1,3,5,7,-1,9,11,13,15,17,19,21,23,25,27,-1,-1,29,-1,31,33,35,37,39,41,43,45,-1,-1,-1,-1,-1,47,49,-1,51,53,55,57,59,-1,-1,-1,61,-1,63,65,-1,-1,-1,-1,-1,-1,-1,67,69,71,73,75,77,79,-1,-1,81,-1,-1,-1,-1,83,-1,85,87,89,-1,91,-1,-1,93,95,-1,-1,-1,-1,-1,-1,-1,-1,-1,-1,-1,-1,-1,-1,-1,-1,-1,-1],"loss_changes":[3.9214737E0,3.8052597E0,6.071762E0,4.5815687E0,0E0,3.794422E0,2.6194942E0,5.9296145E0,1.3540568E0,1.8448846E0,2.5546927E0,3.911252E0,2.9276094E0,3.0746584E0,1.8023949E0,0E0,0E0,1.5296248E0,0E0,2.3799548E0,1.4019814E0,6.544311E0,3.4398246E0,1.260212E0,1.2129612E0,1.5329852E0,2.22759E0,0E0,0E0,0E0,0E0,0E0,6.15262E-1,8.623505E-2,0E0,1.6187181E0,1.5674515E0,2.7506526E0,3.1859703E0,1.13132E0,0E0,0E0,0E0,3.1237366E0,0E0,5.2863746E0,1.7083862E0,0E0,0E0,0E0,0E0,0E0,0E0,0E0,2.4153328E-1,2.1657546E0,1.6416683E0,2.156265E0,3.0011165E-1,3.7313366E-1,2.2794886E0,0E0,0E0,3.426259E0,0E0,0E0,0E0,0E0,8.2838273E-1,0E0,1.8277347E-1,3.6184754E0,4.9832354E0,0E0,2.4817548E0,0E0,0E0,9.843232E-1,2.0836926E-1,0E0,0E0,0E0,0E0,0E0,0E0,0E0,0E0,0E0,0E0,0E0,0E0,0E0,0E0,0E0,0E0,0E0,0E0],"parents":[2147483647,0,0,1,1,2,2,3,3,5,5,6,6,7,7,8,8,9,9,10,10,11,11,12,12,13,13,14,14,17,17,19,19,20,20,21,21,22,22,23,23,24,24,25,25,26,26,32,32,33,33,35,35,36,36,37,37,38,38,39,39,43,43,45,45,46,46,54,54,55,55,56,56,57,57,58,58,59,59,60,60,63,63,68,68,70,70,71,71,72,72,74,74,77,77,78,78],"right_children":[2,4,6,8,-1,10,12,14,16,18,20,22,24,26,28,-1,-1,30,-1,32,34,36,38,40,42,44,46,-1,-1,-1,-1,-1,48,50,-1,52,54,56,58,60,-1,-1,-1,62,-1,64,66,-1,-1,-1,-1,-1,-1,-1,68,70,72,74,76,78,80,-1,-1,82,-1,-1,-1,-1,84,-1,86,88,90,-1,92,-1,-1,94,96,-1,-1,-1,-1,-1,-1,-1,-1,-1,-1,-1,-1,-1,-1,-1,-1,-1,-1],"split_conditions":[8.774338E0,9.651054E0,4.3E1,7.7E1,6.2345725E-2,3.6E1,1.2190941E1,7.3E1,6.7928534E0,1.17675905E1,1.0737119E1,8.420497E0,1.3692262E1,5.78412E0,6.9E1,7.287588E-3,8.073368E-2,8.901578E0,2.5164379E-2,8.336666E0,5.5E1,5E1,9.856108E0,7.8E1,7.3E1,6.1E1,6.7E1,7.4849986E-3,-5.7584252E-2,7.0606195E-3,-4.9478255E-2,4.0522024E-2,4.9E1,3E0,4.471755E-3,5E1,4.9E1,5.7E1,1.2033683E1,1.4622227E1,9.189711E-3,3.1071428E-2,-1.5204064E-2,5.35E1,6.726369E-2,6.2E1,6.2E1,3.3956177E-3,-3.9548993E-2,7.691363E-2,2.256307E-2,-7.749212E-3,5.1323023E-2,7.5879507E-3,7.171429E1,5.1E1,6.7E1,1.0073539E1,5.9E1,5.4E1,1.15216E1,4.5078214E-2,-3.756026E-2,5.8E1,-4.919891E-2,6.066488E-2,-3.3073858E-4,-5.359667E-2,7.7674537E0,2.8177643E-2,9.082951E0,9.128709E0,1E0,-4.6477664E-2,1.0277113E1,5.0329275E-2,8.132278E-3,1.2971122E1,1.2447987E1,3.2806326E-2,-3.4626245E-2,-3.0387898E-3,4.9960162E-2,9.015157E-3,-3.8441878E-2,-1.0333782E-2,-4.1579135E-2,-1.627782E-2,7.13331E-2,-2.3527497E-2,6.403382E-2,3.3322345E-2,-1.4025501E-2,-4.3060154E-2,2.722987E-3,-1.5876113E-2,-5.9708115E-2],"split_indices":[17,18,8,6,0,5,18,5,18,18,18,18,17,17,8,0,0,18,0,18,5,6,18,6,6,6,5,0,0,0,0,0,5,13,0,8,7,7,18,18,0,0,0,10,0,5,8,0,0,0,0,0,0,0,10,7,6,18,6,6,17,0,0,5,0,0,0,0,18,0,18,17,4,0,18,0,0,18,18,0,0,0,0,0,0,0,0,0,0,0,0,0,0,0,0,0,0],"split_type":[0,0,0,0,0,0,0,0,0,0,0,0,0,0,0,0,0,0,0,0,0,0,0,0,0,0,0,0,0,0,0,0,0,0,0,0,0,0,0,0,0,0,0,0,0,0,0,0,0,0,0,0,0,0,0,0,0,0,0,0,0,0,0,0,0,0,0,0,0,0,0,0,0,0,0,0,0,0,0,0,0,0,0,0,0,0,0,0,0,0,0,0,0,0,0,0,0],"sum_hessian":[1.2548237E2,3.7967846E1,8.751453E1,3.5231018E1,2.7368274E0,1.4888689E1,7.262584E1,3.2472023E1,2.7589972E0,5.2273207E0,9.661368E0,5.3724358E1,1.890148E1,2.7721132E1,4.7508883E0,1.1048723E0,1.6541249E0,3.6015356E0,1.6257852E0,3.9116178E0,5.74975E0,1.4971662E1,3.8752693E1,1.5061475E1,3.8400054E0,4.9826946E0,2.273844E1,1.1071422E0,3.6437461E0,1.6357791E0,1.9657563E0,1.6653856E0,2.2462323E0,4.608188E0,1.1415622E0,3.436601E0,1.1535061E1,1.4743602E1,2.4009094E1,1.3984753E1,1.0767223E0,2.013819E0,1.8261865E0,2.7009938E0,2.2817008E0,1.9079338E1,3.6590998E0,1.1397848E0,1.1064475E0,3.4283047E0,1.1798835E0,1.5566491E0,1.8799517E0,1.1069605E0,1.04281E1,4.6129704E0,1.0130631E1,2.1756721E1,2.252371E0,1.0623476E1,3.3612766E0,1.6362354E0,1.0647585E0,1.5151222E1,3.928117E0,1.6565979E0,2.002502E0,8.248043E0,2.1800566E0,1.5941789E0,3.0187914E0,5.1631837E0,4.9674478E0,3.304066E0,1.8452656E1,1.1590253E0,1.0933456E0,3.5416515E0,7.081824E0,1.0785557E0,2.282721E0,1.21214E1,3.0298219E0,1.0945368E0,1.0855198E0,1.7172313E0,1.30156E0,1.1167746E0,4.046409E0,3.330408E0,1.6370394E0,2.3277557E0,1.61249E1,1.6110542E0,1.9305974E0,1.2171866E0,5.8646374E0],"tree_param":{"num_deleted":"0","num_feature":"21","num_nodes":"97","size_leaf_vector":"1"}},{"base_weights":[5.062494E-2,2.0568025E-1,-1.3691358E-1,6.353412E-2,5.0858146E-1,-5.729904E-1,3.686585E-2,2.1271585E-1,-6.379616E-1,9.5845747E-1,5.6370616E-2,-8.8353795E-1,1.4372693E-3,3.5641778E-1,-3.8111642E-1,-3.0395094E-1,3.2290056E-1,-5.910617E-2,2.7891946E-1,3.9611602E-1,1.411535E0,-6.138145E-1,9.061615E-1,-1.0146841E0,7.43911E-3,3.7383795E-1,-4.1653473E-2,2.1275835E-1,1.0844716E0,-8.650784E-2,-5.8467805E-1,2.0008498E-1,-6.1109585E-1,1.1189932E0,1.9616893E-1,3.5749916E-2,-1.919993E-2,7.591897E-1,-3.6907222E-2,8.264006E-2,9.172152E-3,-4.731166E-2,-7.0284093E-3,3.8463655E-1,7.344038E-2,-3.078712E-3,-5.8796417E-2,-1.3459907E-1,5.3170837E-2,3.799069E-1,-4.934739E-2,7.415798E-2,3.833732E-3,1.4691919E-1,-4.142767E-2,-9.419204E-1,-2.2951761E-1,3.4974713E-2,-2.0501222E-2,-4.9300857E-2,-6.2912434E-2,4.970428E-3,7.153304E-2,5.623138E-1,3.3881797E-3,-2.0327496E-4,6.0286846E-2,4.8912946E-2,-4.3261267E-2,4.8223592E-2,-1.2438148E-1,-3.9173193E-2,2.165441E-2,5.6013197E-1,-3.2531297E-1,-3.650258E-2,3.9474592E-1,-5.3420838E-2,-1.0442523E-2,3.205314E-2,-5.0544477E-1,9.398852E-3,-1.4228639E-2,-4.9363215E-2,9.20866E-1,2.3648351E-1,-3.2442978E-1,-3.7487272E-2,2.6422149E-2,7.37133E-1,-2.9276837E-2,1.3911678E-2,-3.514104E-2,-1.8295458E-2,6.410175E-1,-4.8937555E-2,7.1942516E-2,-4.2586755E-2,2.4254972E-2,5.7482846E-2,5.969615E-3,-9.202764E-3,4.0772073E-2,1.4539336E-2,-2.8765256E-2,-1.2910276E-3,4.556359E-2,4.6716902E-2,-1.3947764E-2,3.2847982E-2,-2.2644803E-2],"categories":[],"categories_nodes":[],"categories_segments":[],"categories_sizes":[],"default_left":[0,0,0,0,0,1,0,0,0,0,0,0,0,0,0,0,0,0,0,0,0,0,0,0,0,0,0,0,0,0,1,0,0,0,0,0,0,0,0,0,0,0,0,0,0,0,0,0,0,0,0,0,0,0,0,1,0,0,0,0,0,0,0,0,0,0,0,0,0,0,0,0,0,0,0,0,0,0,0,0,0,0,0,0,0,0,0,0,0,0,0,0,0,0,0,0,0,0,0,0,0,0,0,0,0,0,0,0,0,0,0],"id":10,"left_children":[1,3,5,7,9,11,13,15,17,19,21,23,25,27,29,31,33,-1,35,37,39,41,43,45,-1,47,-1,49,51,53,55,57,59,61,63,-1,-1,65,-1,-1,-1,-1,67,69,-1,-1,-1,71,-1,73,-1,-1,-1,75,-1,77,79,-1,-1,-1,81,-1,-1,83,85,-1,-1,-1,-1,-1,87,-1,-1,89,91,-1,93,-1,-1,-1,95,-1,-1,97,99,101,103,-1,-1,105,-1,-1,-1,-1,107,-1,109,-1,-1,-1,-1,-1,-1,-1,-1,-1,-1,-1,-1,-1,-1],"loss_changes":[3.7668505E0,3.0152204E0,4.4763374E0,5.296655E0,4.516051E0,3.0004725E0,5.8762293E0,2.4559994E0,4.769477E0,2.2941103E0,7.541623E0,1.6286497E0,2.4551938E0,2.3708255E0,1.0951185E0,1.3290758E0,3.273538E0,0E0,1.4665499E0,3.1906524E0,1.4188061E0,1.4967895E0,1.1404548E0,1.4355755E0,0E0,2.0574374E0,0E0,4.790262E0,1.4352455E0,1.677184E0,1.1952343E0,1.4156848E0,9.8416305E-1,1.3011341E0,2.1919117E0,0E0,0E0,1.8219273E0,0E0,0E0,0E0,0E0,3.9290068E0,1.4100329E0,0E0,0E0,0E0,1.8239179E0,0E0,2.7302625E0,0E0,0E0,0E0,1.957438E0,0E0,2.6125574E-1,1.9816458E0,0E0,0E0,0E0,2.278714E-1,0E0,0E0,2.3952112E0,1.7093816E0,0E0,0E0,0E0,0E0,0E0,1.7080704E0,0E0,0E0,3.7440324E0,1.2694134E0,0E0,1.4779044E0,0E0,0E0,0E0,1.6551555E0,0E0,0E0,2.5181222E0,1.1106477E0,3.331231E0,1.6027803E0,0E0,0E0,1.962143E0,0E0,0E0,0E0,0E0,1.7117019E0,0E0,1.3856155E0,0E0,0E0,0E0,0E0,0E0,0E0,0E0,0E0,0E0,0E0,0E0,0E0,0E0,0E0],"parents":[2147483647,0,0,1,1,2,2,3,3,4,4,5,5,6,6,7,7,8,8,9,9,10,10,11,11,12,12,13,13,14,14,15,15,16,16,18,18,19,19,20,20,21,21,22,22,23,23,25,25,27,27,28,28,29,29,30,30,31,31,32,32,33,33,34,34,37,37,42,42,43,43,47,47,49,49,53,53,55,55,56,56,60,60,63,63,64,64,70,70,73,73,74,74,76,76,80,80,83,83,84,84,85,85,86,86,89,89,94,94,96,96],"right_children":[2,4,6,8,10,12,14,16,18,20,22,24,26,28,30,32,34,-1,36,38,40,42,44,46,-1,48,-1,50,52,54,56,58,60,62,64,-1,-1,66,-1,-1,-1,-1,68,70,-1,-1,-1,72,-1,74,-1,-1,-1,76,-1,78,80,-1,-1,-1,82,-1,-1,84,86,-1,-1,-1,-1,-1,88,-1,-1,90,92,-1,94,-1,-1,-1,96,-1,-1,98,100,102,104,-1,-1,106,-1,-1,-1,-1,108,-1,110,-1,-1,-1,-1,-1,-1,-1,-1,-1,-1,-1,-1,-1,-1],"split_conditions":[6.2E1,5.5E1,6.7E1,6E1,5.742857E1,9.428932E0,9.856108E0,2.8E1,6.4E1,5.5666668E1,6.7E1,7.6E1,7.05E1,8.4E1,7.0833336E1,2.9E1,3.0857143E1,-5.910617E-2,2E0,5.492857E1,1.3437687E1,6E1,4E0,5.711309E0,7.43911E-3,6.5E1,-4.1653473E-2,7.8E1,7.457143E1,7.7E1,7.3E1,3E1,4E1,2.3E1,2E0,3.5749916E-2,-1.919993E-2,4.6714287E1,-3.6907222E-2,8.264006E-2,9.172152E-3,-4.731166E-2,6.8E1,6.614286E1,7.344038E-2,-3.078712E-3,-5.8796417E-2,3E0,5.3170837E-2,8.2E1,-4.934739E-2,7.415798E-2,3.833732E-3,5.6E1,-4.142767E-2,7.2E1,7.344444E1,3.4974713E-2,-2.0501222E-2,-4.9300857E-2,3E0,4.970428E-3,7.153304E-2,4.7E1,4.7E1,-2.0327496E-4,6.0286846E-2,4.8912946E-2,-4.3261267E-2,4.8223592E-2,8.4E1,-3.9173193E-2,2.165441E-2,8.3E1,3E0,-3.650258E-2,7E1,-5.3420838E-2,-1.0442523E-2,3.205314E-2,7.3E1,9.398852E-3,-1.4228639E-2,2E0,5.8E1,5E1,4E1,-3.7487272E-2,2.6422149E-2,5.0990195E0,-2.9276837E-2,1.3911678E-2,-3.514104E-2,-1.8295458E-2,7.3E1,-4.8937555E-2,8.1E1,-4.2586755E-2,2.4254972E-2,5.7482846E-2,5.969615E-3,-9.202764E-3,4.0772073E-2,1.4539336E-2,-2.8765256E-2,-1.2910276E-3,4.556359E-2,4.6716902E-2,-1.3947764E-2,3.2847982E-2,-2.2644803E-2],"split_indices":[5,5,5,8,10,18,18,5,6,11,6,8,10,8,11,8,10,0,13,10,18,7,2,18,0,7,0,8,10,7,11,6,8,6,2,0,0,10,0,0,0,0,7,10,0,0,0,2,0,6,0,0,0,7,0,10,10,0,0,0,2,0,0,6,5,0,0,0,0,0,6,0,0,5,2,0,5,0,0,0,8,0,0,13,7,8,8,0,0,18,0,0,0,0,8,0,5,0,0,0,0,0,0,0,0,0,0,0,0,0,0],"split_type":[0,0,0,0,0,0,0,0,0,0,0,0,0,0,0,0,0,0,0,0,0,0,0,0,0,0,0,0,0,0,0,0,0,0,0,0,0,0,0,0,0,0,0,0,0,0,0,0,0,0,0,0,0,0,0,0,0,0,0,0,0,0,0,0,0,0,0,0,0,0,0,0,0,0,0,0,0,0,0,0,0,0,0,0,0,0,0,0,0,0,0,0,0,0,0,0,0,0,0,0,0,0,0,0,0,0,0,0,0,0,0],"sum_hessian":[1.27570786E2,6.978028E1,5.77905E1,4.8316135E1,2.1464148E1,1.581289E1,4.197761E1,4.0417603E1,7.898534E0,1.0198656E1,1.1265491E1,9.914686E0,5.898204E0,2.3873417E1,1.8104195E1,6.795287E0,3.362232E1,4.7752013E0,3.1233325E0,5.3869147E0,4.811742E0,6.453581E0,4.8119097E0,8.812259E0,1.1024275E0,4.459961E0,1.4382433E0,2.1018316E1,2.8551016E0,7.979981E0,1.0124213E1,2.7049432E0,4.090344E0,3.5421152E0,3.00802E1,1.8366141E0,1.2867184E0,4.3311872E0,1.0557272E0,3.7326176E0,1.079124E0,3.8080041E0,2.645577E0,3.3709486E0,1.4409612E0,1.4750648E0,7.3371935E0,3.0304058E0,1.429555E0,1.904782E1,1.9704962E0,1.7078035E0,1.1472982E0,6.6804905E0,1.2994902E0,4.2236786E0,5.900535E0,1.40685E0,1.2980931E0,1.9547352E0,2.135609E0,1.1380554E0,2.40406E0,9.713905E0,2.0366297E1,1.9644208E0,2.3667667E0,1.1664672E0,1.4791098E0,1.1575662E0,2.2133825E0,1.2367299E0,1.7936759E0,1.533465E1,3.713169E0,1.0431917E0,5.637299E0,3.2119746E0,1.011704E0,1.1015906E0,4.7989445E0,1.0730363E0,1.0625726E0,3.90849E0,5.805415E0,1.206563E1,8.300666E0,1.0546405E0,1.158742E0,1.3591424E1,1.7432268E0,1.5300115E0,2.1831574E0,1.2599418E0,4.377357E0,2.255163E0,2.5437813E0,1.325272E0,2.583218E0,4.1782513E0,1.627164E0,7.3841105E0,4.681519E0,2.3583193E0,5.942347E0,2.6839533E0,1.0907471E1,3.3072665E0,1.0700908E0,1.0838827E0,1.4598986E0],"tree_param":{"num_deleted":"0","num_feature":"21","num_nodes":"111","size_leaf_vector":"1"}},{"base_weights":[-2.7477741E-2,5.90264E-4,-5.1869195E-2,1.3058177E-1,-1.7868564E-1,8.2981296E-2,5.2285176E-2,-9.7502327E-1,-8.910066E-2,3.819451E-1,-5.119076E-2,-1.5443481E-2,-5.367775E-2,6.919536E-1,-2.2129022E-1,5.941374E-1,-4.2714462E-1,2.5390765E-1,-1.8416135E-1,-3.5671666E-2,1.0290538E0,-7.911947E-1,-3.5510633E-2,-4.0748274E-1,9.019057E-1,-4.739767E-2,2.0596805E-1,1.0775117E-3,8.75283E-1,-3.5524487E-1,1.2019653E-1,5.5191717E-3,6.0228433E-2,2.1906595E-3,-8.990492E-1,-1.4401338E-1,6.7556906E-1,9.812628E-3,-3.754545E-2,4.0638152E-1,1.1260124E0,2.7575225E-2,-1.288963E-2,5.1442975E-1,-2.6196977E-1,5.689761E-2,2.9011338E-3,1.7504641E-1,-4.7496694E-1,-4.0503036E-2,2.821222E-1,3.7465466E-3,-1.0422791E0,2.5874433E-1,-2.9349974E-1,6.0759958E-2,-1.5290984E-3,4.120894E-2,-2.787599E-2,6.572188E-2,2.7480451E-2,-9.630517E-3,4.8266955E-2,-2.4615636E-2,2.2613047E-2,-2.5193218E-2,3.0827338E-2,-3.3482723E-2,3.8160463E-3,3.458877E-2,-1.3116266E-2,-1.2178252E-2,-6.1043777E-2,-3.5657715E-2,3.4972083E-2,-2.933368E-2,4.805758E-3],"categories":[],"categories_nodes":[],"categories_segments":[],"categories_sizes":[],"default_left":[0,0,0,0,0,0,0,0,0,0,0,0,0,0,0,0,0,0,0,0,0,0,0,0,0,0,0,0,0,0,0,0,0,0,0,0,0,0,0,0,0,0,0,0,0,0,0,0,0,0,0,0,0,0,0,0,0,0,0,0,0,0,0,0,0,0,0,0,0,0,0,0,0,0,0,0,0],"id":11,"left_children":[1,3,-1,5,7,9,-1,11,13,15,17,-1,-1,19,21,23,25,27,29,-1,31,33,35,37,39,-1,41,43,45,47,49,-1,-1,-1,51,53,55,-1,-1,57,59,-1,-1,61,63,-1,-1,65,67,-1,69,-1,71,73,75,-1,-1,-1,-1,-1,-1,-1,-1,-1,-1,-1,-1,-1,-1,-1,-1,-1,-1,-1,-1,-1,-1],"loss_changes":[3.674092E0,2.9850616E0,0E0,3.1475167E0,3.7540946E0,2.8941708E0,0E0,1.9164085E-2,5.2635107E0,4.085292E0,2.0892677E0,0E0,0E0,4.243185E0,4.5341067E0,5.946755E0,1.915998E0,2.4659462E0,1.8987011E0,0E0,8.9628553E-1,9.8918724E-1,2.6853073E0,1.1722136E0,1.1144238E0,0E0,6.5125716E-1,1.7771178E0,9.0858984E-1,1.5478365E0,2.2731247E0,0E0,0E0,0E0,1.3875299E0,1.8777504E0,1.7963142E0,0E0,0E0,2.8649626E0,2.749033E-1,0E0,0E0,1.6072147E0,1.6546639E0,0E0,0E0,1.8033383E0,2.1000857E0,0E0,2.925393E0,0E0,8.794937E-1,4.196171E0,2.6029909E0,0E0,0E0,0E0,0E0,0E0,0E0,0E0,0E0,0E0,0E0,0E0,0E0,0E0,0E0,0E0,0E0,0E0,0E0,0E0,0E0,0E0,0E0],"parents":[2147483647,0,0,1,1,3,3,4,4,5,5,7,7,8,8,9,9,10,10,13,13,14,14,15,15,16,16,17,17,18,18,20,20,21,21,22,22,23,23,24,24,26,26,27,27,28,28,29,29,30,30,34,34,35,35,36,36,39,39,40,40,43,43,44,44,47,47,48,48,50,50,52,52,53,53,54,54],"right_children":[2,4,-1,6,8,10,-1,12,14,16,18,-1,-1,20,22,24,26,28,30,-1,32,34,36,38,40,-1,42,44,46,48,50,-1,-1,-1,52,54,56,-1,-1,58,60,-1,-1,62,64,-1,-1,66,68,-1,70,-1,72,74,76,-1,-1,-1,-1,-1,-1,-1,-1,-1,-1,-1,-1,-1,-1,-1,-1,-1,-1,-1,-1,-1,-1],"split_conditions":[7.8E1,6.2E1,-5.1869195E-2,8.3E1,5.7285713E1,2E0,5.2285176E-2,5.1E1,5.8733334E1,6.1E1,4.3E1,-1.5443481E-2,-5.367775E-2,5.6733334E1,6.7666664E1,3.4E1,5.76E1,4E1,5.5E1,-3.5671666E-2,5.692857E1,5.3E1,8.4E1,2.9642857E1,4.5666668E1,-4.739767E-2,6.4E1,3.0857143E1,4.3E1,4.5E1,4.8E1,5.5191717E-3,6.0228433E-2,2.1906595E-3,1E0,7.0333336E1,7.5E1,9.812628E-3,-3.754545E-2,4.35E1,5.6142857E1,2.7575225E-2,-1.288963E-2,2.4E1,5.3E1,5.689761E-2,2.9011338E-3,4.275E1,6.6E1,-4.0503036E-2,6E1,3.7465466E-3,6.55E1,2E0,7.6E1,6.0759958E-2,-1.5290984E-3,4.120894E-2,-2.787599E-2,6.572188E-2,2.7480451E-2,-9.630517E-3,4.8266955E-2,-2.4615636E-2,2.2613047E-2,-2.5193218E-2,3.0827338E-2,-3.3482723E-2,3.8160463E-3,3.458877E-2,-1.3116266E-2,-1.2178252E-2,-6.1043777E-2,-3.5657715E-2,3.4972083E-2,-2.933368E-2,4.805758E-3],"split_indices":[10,5,0,6,12,2,0,12,11,8,8,0,0,11,12,5,11,8,5,0,10,8,8,10,11,0,6,10,5,6,6,0,0,0,2,11,12,0,0,10,12,0,0,5,6,0,0,11,6,0,6,0,11,2,5,0,0,0,0,0,0,0,0,0,0,0,0,0,0,0,0,0,0,0,0,0,0],"split_type":[0,0,0,0,0,0,0,0,0,0,0,0,0,0,0,0,0,0,0,0,0,0,0,0,0,0,0,0,0,0,0,0,0,0,0,0,0,0,0,0,0,0,0,0,0,0,0,0,0,0,0,0,0,0,0,0,0,0,0,0,0,0,0,0,0,0,0,0,0,0,0,0,0,0,0,0,0],"sum_hessian":[1.2859406E2,1.2608911E2,2.5049398E0,7.3248695E1,5.284042E1,7.0663765E1,2.5849302E0,4.343799E0,4.849662E1,2.1317398E1,4.9346367E1,1.09248E0,3.2513192E0,6.4068136E0,4.2089806E1,1.7098743E1,4.2186537E0,1.4702429E1,3.4643936E1,1.0234827E0,5.3833313E0,9.546333E0,3.2543476E1,3.9428613E0,1.3155883E1,2.0417705E0,2.1768835E0,1.1162341E1,3.540088E0,2.2070581E1,1.2573356E1,1.1248118E0,4.258519E0,1.1599324E0,8.3864E0,2.8927011E1,3.6164634E0,1.5850049E0,2.3578565E0,4.973119E0,8.182764E0,1.1390244E0,1.0378591E0,3.4580665E0,7.7042747E0,2.3820827E0,1.1580052E0,3.9799356E0,1.8090645E1,1.2706791E0,1.1302676E1,1.1362965E0,7.250104E0,7.632378E0,2.1294634E1,1.6413168E0,1.9751465E0,3.5704732E0,1.4026453E0,5.20187E0,2.9808939E0,1.5696483E0,1.8884181E0,6.0604563E0,1.6438183E0,1.5126401E0,2.4672954E0,1.3210607E1,4.8800387E0,6.295338E0,5.0073385E0,1.7568665E0,5.4932375E0,2.188249E0,5.444129E0,1.1862596E1,9.432037E0],"tree_param":{"num_deleted":"0","num_feature":"21","num_nodes":"77","size_leaf_vector":"1"}},{"base_weights":[1.0658502E-2,2.7308127E-1,-1.0560668E-1,7.266167E-2,6.311783E-1,1.0375619E-1,-3.3014315E-1,7.816914E-1,-3.5245266E-2,1.1783344E0,-6.29301E-2,1.6891086E-1,-4.7566857E-2,-5.4207754E-1,-6.467348E-2,-1.6327238E-2,7.077962E-2,-5.0671127E-2,1.06509864E-1,6.286737E-1,7.658055E-2,-4.0866487E-2,2.3764819E-1,5.206693E-1,-1.4202086E-2,-9.2259336E-1,1.0825801E-2,3.258494E-1,-5.633513E-1,2.4247721E-1,-4.8302162E-1,6.694205E-2,-3.9271984E-2,5.1478326E-1,-2.0846227E-2,-1.0367541E-1,8.769251E-1,3.623054E-1,-2.1397558E-1,-4.1543686E-1,-5.8010574E-2,3.0863243E-1,-3.6972504E-2,-1.336174E-1,1.0957962E0,-7.701965E-1,1.9533178E-2,5.821968E-2,5.4913625E-2,-4.4961788E-2,4.6558212E-3,-1.0662301E-2,5.1471747E-2,-5.2891976E-1,2.8157339E-2,1.2200215E-1,1.2478198E0,9.262396E-1,-3.4024155E-1,-3.5513657E-1,4.500932E-2,9.866804E-3,-5.846178E-1,6.8388534E-1,-4.6016037E-1,5.3943228E-2,-6.3230443E-1,-1.4999856E-2,7.9913475E-2,-9.3856657E-1,8.004623E-3,3.080346E-1,-5.993707E-1,-4.7845356E-2,4.2608078E-3,2.3953352E-2,-2.0679934E-2,7.325363E-2,3.7438895E-3,9.576696E-3,1.2357754E0,-6.291283E-1,1.3583732E-2,-5.255819E-1,5.579778E-1,-4.049864E-2,2.2604128E-3,-4.707773E-3,1.2089572E0,-3.54226E-2,-2.6467666E-3,7.1011237E-3,-8.135068E-1,4.7369306E-3,-5.781387E-2,2.5921904E-3,3.8049817E-2,-2.4395643E-3,-4.792558E-2,7.81013E-2,1.5631778E-2,-1.0128517E-2,-4.2185005E-2,-3.859401E-2,1.3007715E-2,5.5324096E-2,-1.6326888E-2,1.9279618E-2,-2.0054739E-2,7.52546E-2,2.0713074E-2,-1.3911662E-2,-5.0920047E-2],"categories":[],"categories_nodes":[],"categories_segments":[],"categories_sizes":[],"default_left":[0,0,0,0,0,1,0,0,0,0,0,0,0,0,1,0,0,0,0,0,0,0,0,0,0,0,0,1,0,0,0,0,0,0,0,0,1,0,0,0,0,0,0,0,0,0,0,0,0,0,0,0,0,0,0,0,0,0,0,0,0,0,0,0,0,0,0,0,0,0,0,0,0,0,0,0,0,0,0,0,0,0,0,0,0,0,0,0,0,0,0,0,0,0,0,0,0,0,0,0,0,0,0,0,0,0,0,0,0,0,0,0,0],"id":12,"left_children":[1,3,5,7,9,11,13,15,17,19,21,23,-1,25,27,-1,-1,-1,29,31,-1,-1,33,35,37,39,41,43,45,47,49,-1,-1,51,-1,53,55,57,59,61,-1,63,-1,65,67,69,-1,-1,71,-1,-1,-1,-1,73,-1,75,77,79,81,83,-1,-1,85,87,89,-1,91,-1,-1,93,-1,95,97,-1,-1,-1,-1,-1,-1,-1,99,101,-1,103,105,-1,-1,107,109,-1,-1,-1,111,-1,-1,-1,-1,-1,-1,-1,-1,-1,-1,-1,-1,-1,-1,-1,-1,-1,-1,-1,-1],"loss_changes":[3.9654644E0,2.8171866E0,4.271348E0,2.0709028E0,5.46138E0,3.4193835E0,2.425252E0,2.9708068E0,3.4547362E0,5.8723927E-1,1.8273549E0,2.937818E0,0E0,5.097414E0,4.1852484E0,0E0,0E0,0E0,1.8794754E0,5.8916535E0,0E0,0E0,1.289423E0,3.5611815E0,2.4012146E0,1.2455196E0,2.6516228E0,4.4472656E0,2.1540337E0,3.1404955E0,1.15196E0,0E0,0E0,1.9468024E0,0E0,2.1587338E0,2.6587558E0,4.705262E0,3.5930226E0,7.5100195E-1,0E0,2.75814E0,0E0,5.8247867E0,3.7423158E0,1.4118047E0,0E0,0E0,2.908661E0,0E0,0E0,0E0,0E0,1.2703179E0,0E0,1.0426351E0,1.5781536E0,1.2222943E0,1.172413E0,3.279819E0,0E0,0E0,7.544037E-1,2.2089815E0,3.038358E-1,0E0,1.0495727E0,0E0,0E0,1.6765337E0,0E0,1.4134829E0,9.2761314E-1,0E0,0E0,0E0,0E0,0E0,0E0,0E0,8.158479E-1,2.08938E-1,0E0,3.429935E0,2.0610976E0,0E0,0E0,7.1664476E-1,1.9107294E-1,0E0,0E0,0E0,3.245933E-1,0E0,0E0,0E0,0E0,0E0,0E0,0E0,0E0,0E0,0E0,0E0,0E0,0E0,0E0,0E0,0E0,0E0,0E0,0E0,0E0],"parents":[2147483647,0,0,1,1,2,2,3,3,4,4,5,5,6,6,7,7,8,8,9,9,10,10,11,11,13,13,14,14,18,18,19,19,22,22,23,23,24,24,25,25,26,26,27,27,28,28,29,29,30,30,33,33,35,35,36,36,37,37,38,38,39,39,41,41,43,43,44,44,45,45,48,48,53,53,55,55,56,56,57,57,58,58,59,59,62,62,63,63,64,64,66,66,69,69,71,71,72,72,80,80,81,81,83,83,84,84,87,87,88,88,92,92],"right_children":[2,4,6,8,10,12,14,16,18,20,22,24,-1,26,28,-1,-1,-1,30,32,-1,-1,34,36,38,40,42,44,46,48,50,-1,-1,52,-1,54,56,58,60,62,-1,64,-1,66,68,70,-1,-1,72,-1,-1,-1,-1,74,-1,76,78,80,82,84,-1,-1,86,88,90,-1,92,-1,-1,94,-1,96,98,-1,-1,-1,-1,-1,-1,-1,100,102,-1,104,106,-1,-1,108,110,-1,-1,-1,112,-1,-1,-1,-1,-1,-1,-1,-1,-1,-1,-1,-1,-1,-1,-1,-1,-1,-1,-1,-1],"split_conditions":[8.9494915E0,6.6E1,6E1,3E1,7.2347824E1,6.8E1,7.073333E1,3.8E1,3.0857143E1,8.322154E0,7.3E1,2E0,-4.7566857E-2,4E0,7.457143E1,-1.6327238E-2,7.077962E-2,-5.0671127E-2,6E0,7.8393908E0,7.658055E-2,-4.0866487E-2,7.6545456E1,4.5E1,9.4818125E0,5.9E1,7.5E1,7.3E1,7.914286E1,4.5E1,5.742857E1,6.694205E-2,-3.9271984E-2,7.528571E1,-2.0846227E-2,4.5666668E1,5.5205245E0,4.8E1,1.3692262E1,9.926377E0,-5.8010574E-2,6E0,-3.6972504E-2,6.7E1,7.4E1,7.67E1,1.9533178E-2,5.821968E-2,7.931252E0,-4.4961788E-2,4.6558212E-3,-1.0662301E-2,5.1471747E-2,1.1602545E1,2.8157339E-2,5.7E1,1.2712948E1,9.65134E0,5.5142857E1,6E0,4.500932E-2,9.866804E-3,1.3179529E1,6.1E1,5.757143E1,5.3943228E-2,6.2E1,-1.4999856E-2,7.9913475E-2,7.7781744E0,8.004623E-3,7.7781744E0,5.2E1,-4.7845356E-2,4.2608078E-3,2.3953352E-2,-2.0679934E-2,7.325363E-2,3.7438895E-3,9.576696E-3,5E0,5.7E1,1.3583732E-2,5.4E1,1.1979149E1,-4.049864E-2,2.2604128E-3,5.7133335E1,6.6E1,-3.54226E-2,-2.6467666E-3,7.1011237E-3,7.028571E1,4.7369306E-3,-5.781387E-2,2.5921904E-3,3.8049817E-2,-2.4395643E-3,-4.792558E-2,7.81013E-2,1.5631778E-2,-1.0128517E-2,-4.2185005E-2,-3.859401E-2,1.3007715E-2,5.5324096E-2,-1.6326888E-2,1.9279618E-2,-2.0054739E-2,7.52546E-2,2.0713074E-2,-1.3911662E-2,-5.0920047E-2],"split_indices":[17,6,5,6,11,12,11,7,12,17,6,2,0,2,12,0,0,0,2,17,0,0,11,5,18,6,7,12,12,6,12,0,0,12,0,11,18,5,17,17,0,2,0,5,5,11,0,0,18,0,0,0,0,18,0,6,18,17,12,2,0,0,18,6,12,0,6,0,0,18,0,17,11,0,0,0,0,0,0,0,2,6,0,5,17,0,0,11,6,0,0,0,12,0,0,0,0,0,0,0,0,0,0,0,0,0,0,0,0,0,0,0,0],"split_type":[0,0,0,0,0,0,0,0,0,0,0,0,0,0,0,0,0,0,0,0,0,0,0,0,0,0,0,0,0,0,0,0,0,0,0,0,0,0,0,0,0,0,0,0,0,0,0,0,0,0,0,0,0,0,0,0,0,0,0,0,0,0,0,0,0,0,0,0,0,0,0,0,0,0,0,0,0,0,0,0,0,0,0,0,0,0,0,0,0,0,0,0,0,0,0,0,0,0,0,0,0,0,0,0,0,0,0,0,0,0,0,0,0],"sum_hessian":[1.280247E2,3.8892178E1,8.913253E1,2.570726E1,1.3184918E1,4.640312E1,4.272941E1,2.5708323E0,2.3136427E1,6.9828286E0,6.2020893E0,4.449533E1,1.9077901E0,2.3181107E1,1.9548302E1,1.1118582E0,1.4589741E0,2.1501656E0,2.0986261E1,3.819557E0,3.163272E0,1.277242E0,4.924847E0,1.4601856E1,2.9893473E1,1.3335081E1,9.8460245E0,1.115736E1,8.390942E0,1.7531548E1,3.4547155E0,2.5780768E0,1.2414801E0,3.6099946E0,1.3148526E0,5.5624866E0,9.03937E0,1.0080832E1,1.9812641E1,5.1313667E0,8.203714E0,7.4697156E0,2.376309E0,7.5051255E0,3.6522348E0,7.0541673E0,1.3367742E0,2.0833635E0,1.5448183E1,1.6801449E0,1.7745706E0,1.7376105E0,1.8723843E0,3.5227633E0,2.0397234E0,3.415785E0,5.6235847E0,5.4154496E0,4.665382E0,1.8189356E1,1.623285E0,1.0741992E0,4.0571675E0,5.093827E0,2.3758886E0,1.8481698E0,5.6569557E0,1.0734142E0,2.5788207E0,5.965578E0,1.0885891E0,1.1520491E1,3.927693E0,1.7470912E0,1.7756721E0,2.1128078E0,1.3029772E0,4.534622E0,1.0889628E0,2.0850976E0,3.3303523E0,3.1500905E0,1.5152915E0,1.5685795E1,2.5035615E0,2.7773805E0,1.279787E0,2.6325135E0,2.4613135E0,1.0164416E0,1.359447E0,1.1137635E0,4.543192E0,1.1364713E0,4.829107E0,8.070403E0,3.4500868E0,1.9989961E0,1.9286968E0,1.9493465E0,1.3810058E0,1.704901E0,1.4451896E0,1.1955756E1,3.730039E0,1.3904014E0,1.1131601E0,1.3401626E0,1.2923508E0,1.1418817E0,1.3194318E0,1.9103788E0,2.6328132E0],"tree_param":{"num_deleted":"0","num_feature":"21","num_nodes":"113","size_leaf_vector":"1"}},{"base_weights":[1.2396665E-2,4.272368E-1,-1.2296364E-1,-2.7549878E-2,4.9871853E-1,-5.236037E-1,-2.8049817E-2,2.8996152E-1,8.965223E-1,3.2308304E-1,-8.4278613E-1,-6.0980853E-2,4.9857985E-2,6.146915E-1,-2.3538123E-1,1.2986908E0,-2.0744044E-1,5.191136E-2,-2.9989985E-1,-6.131464E-2,-3.8424143E-1,2.3551008E-2,-8.322726E-1,7.1229585E-2,1.0566598E0,2.6990202E-1,-8.759063E-1,3.7623182E-4,7.900981E-2,-4.072197E-2,2.6784627E-2,1.2209995E-2,-3.9255287E-2,3.3365083E-1,-7.998514E-1,1.04537934E-1,-4.3407446E-1,-1.0318826E0,5.529497E-3,5.461509E-1,-4.4531684E-2,8.235044E-2,3.219215E-1,-3.6822177E-2,6.674111E-1,-4.9799442E-2,-1.3670097E-2,-2.2402732E-2,5.170573E-2,3.1172638E-3,-5.3313203E-2,-3.3506408E-1,2.0644708E-1,-8.9372873E-1,-3.0355414E-2,-1.7545348E-2,-5.6560732E-2,5.720363E-2,-6.131642E-2,8.7236583E-1,-3.6807567E-2,8.8537234E-1,1.1659808E-3,-7.546469E-1,3.6680546E-1,5.839606E-1,-3.1376567E-2,-5.085614E-2,-1.0465034E-2,3.895752E-2,-3.8153476E-1,2.0125085E-2,-2.3665866E-2,1.9085462E-3,6.423586E-2,6.2238593E-2,4.3949164E-3,1.7749235E-3,-5.0568264E-2,3.1980943E-2,-1.5787292E-2,4.0888477E-2,-4.0869694E-3,-8.099324E-3,3.4703664E-2,-4.0849745E-2,3.7867634E-4],"categories":[],"categories_nodes":[],"categories_segments":[],"categories_sizes":[],"default_left":[0,0,0,0,1,1,1,0,0,0,0,1,0,0,1,0,0,0,0,0,0,0,0,0,0,0,0,0,0,0,0,0,0,0,0,0,0,0,0,0,0,0,0,0,0,0,0,0,0,0,0,0,0,0,0,0,0,0,0,0,0,1,0,0,0,0,0,0,0,0,0,0,0,0,0,0,0,0,0,0,0,0,0,0,0,0,0],"id":13,"left_children":[1,3,5,-1,7,9,11,13,15,17,19,21,-1,23,25,27,29,-1,31,-1,33,35,37,39,41,43,45,-1,-1,-1,-1,-1,-1,47,49,51,53,55,-1,57,-1,-1,59,-1,61,-1,-1,-1,-1,-1,-1,63,65,67,69,-1,-1,-1,71,73,-1,75,-1,77,79,81,83,-1,-1,-1,85,-1,-1,-1,-1,-1,-1,-1,-1,-1,-1,-1,-1,-1,-1,-1,-1],"loss_changes":[7.0127773E0,2.42278E0,3.5686653E0,0E0,2.1608825E0,5.1345906E0,2.6685758E0,3.6583214E0,4.5115223E0,2.8279414E0,1.8753147E0,4.9603624E0,0E0,3.0485463E0,3.0168517E0,2.5837164E0,1.976096E0,0E0,1.1935246E0,0E0,2.5145874E0,2.6125484E0,1.5280056E0,3.640805E0,2.5495057E0,2.7184622E0,1.8835306E-2,0E0,0E0,0E0,0E0,0E0,0E0,2.3621972E0,1.2300482E0,2.7418299E0,1.9416516E0,2.8977871E-2,0E0,1.9743707E0,0E0,0E0,3.208403E0,0E0,6.132314E-1,0E0,0E0,0E0,0E0,0E0,0E0,3.6954417E0,4.422082E0,2.0312238E-1,2.197265E0,0E0,0E0,0E0,8.688342E-1,1.1053705E0,0E0,8.4974384E-1,0E0,1.5759788E0,1.1360143E0,3.0254302E0,3.0536237E0,0E0,0E0,0E0,9.0974927E-1,0E0,0E0,0E0,0E0,0E0,0E0,0E0,0E0,0E0,0E0,0E0,0E0,0E0,0E0,0E0,0E0],"parents":[2147483647,0,0,1,1,2,2,4,4,5,5,6,6,7,7,8,8,9,9,10,10,11,11,13,13,14,14,15,15,16,16,18,18,20,20,21,21,22,22,23,23,24,24,25,25,26,26,33,33,34,34,35,35,36,36,37,37,39,39,42,42,44,44,51,51,52,52,53,53,54,54,58,58,59,59,61,61,63,63,64,64,65,65,66,66,70,70],"right_children":[2,4,6,-1,8,10,12,14,16,18,20,22,-1,24,26,28,30,-1,32,-1,34,36,38,40,42,44,46,-1,-1,-1,-1,-1,-1,48,50,52,54,56,-1,58,-1,-1,60,-1,62,-1,-1,-1,-1,-1,-1,64,66,68,70,-1,-1,-1,72,74,-1,76,-1,78,80,82,84,-1,-1,-1,86,-1,-1,-1,-1,-1,-1,-1,-1,-1,-1,-1,-1,-1,-1,-1,-1],"split_conditions":[4.7E1,2.1E1,5.4E1,-2.7549878E-2,1.1285505E1,4.6333332E1,1.495855E1,4.4714287E1,1.30268955E1,4.4E1,5.6714287E1,1.2396383E1,4.9857985E-2,8.871302E0,1.04495125E1,3E1,1.4142136E1,5.191136E-2,1E0,-6.131464E-2,5.85E1,1.21498575E1,7.8E1,8.621784E0,9.95153E0,8.463561E0,5.5966667E1,3.7623182E-4,7.900981E-2,-4.072197E-2,2.6784627E-2,1.2209995E-2,-3.9255287E-2,5.8E1,5.7E1,6.0749288E0,1.3375528E1,5.842857E1,5.529497E-3,3.1E1,-4.4531684E-2,8.235044E-2,4.7E1,-3.6822177E-2,5.6464287E1,-4.9799442E-2,-1.3670097E-2,-2.2402732E-2,5.170573E-2,3.1172638E-3,-5.3313203E-2,7.1958336E1,6.471429E1,7.210345E1,1.4130345E1,-1.7545348E-2,-5.6560732E-2,5.720363E-2,5.5205245E0,1.0629629E1,-3.6807567E-2,8.400681E0,1.1659808E-3,5.9E1,1E0,1E0,8.4E1,-5.085614E-2,-1.0465034E-2,3.895752E-2,5.7433334E1,2.0125085E-2,-2.3665866E-2,1.9085462E-3,6.423586E-2,6.2238593E-2,4.3949164E-3,1.7749235E-3,-5.0568264E-2,3.1980943E-2,-1.5787292E-2,4.0888477E-2,-4.0869694E-3,-8.099324E-3,3.4703664E-2,-4.0849745E-2,3.7867634E-4],"split_indices":[8,6,8,0,17,11,17,12,17,6,12,17,0,17,17,5,17,0,4,0,11,18,8,17,17,17,11,0,0,0,0,0,0,5,7,18,18,12,0,6,0,0,7,0,11,0,0,0,0,0,0,11,12,11,18,0,0,0,18,17,0,18,0,8,4,4,8,0,0,0,11,0,0,0,0,0,0,0,0,0,0,0,0,0,0,0,0],"split_type":[0,0,0,0,0,0,0,0,0,0,0,0,0,0,0,0,0,0,0,0,0,0,0,0,0,0,0,0,0,0,0,0,0,0,0,0,0,0,0,0,0,0,0,0,0,0,0,0,0,0,0,0,0,0,0,0,0,0,0,0,0,0,0,0,0,0,0,0,0,0,0,0,0,0,0,0,0,0,0,0,0,0,0,0,0,0,0],"sum_hessian":[1.2295164E2,2.971807E1,9.3233574E1,1.5668833E0,2.8151184E1,1.6992025E1,7.624155E1,1.9596409E1,8.554776E0,4.648597E0,1.234343E1,7.478004E1,1.4615114E0,1.2005424E1,7.5909853E0,6.141182E0,2.413594E0,1.8538989E0,2.794698E0,5.809939E0,6.5334907E0,6.826753E1,6.512504E0,5.905254E0,6.1001697E0,4.5669413E0,3.024044E0,1.2830435E0,4.8581386E0,1.2756641E0,1.13793E0,1.5515412E0,1.2431569E0,2.467876E0,4.0656147E0,5.8658226E1,9.609303E0,5.2967362E0,1.2157681E0,4.2426395E0,1.6626142E0,2.6939797E0,3.40619E0,1.0517228E0,3.5152185E0,1.9769458E0,1.0470983E0,1.3365996E0,1.1312764E0,1.1405172E0,2.9250972E0,1.0608562E1,4.8049664E1,3.925821E0,5.6834826E0,1.2512681E0,4.045468E0,1.6929469E0,2.5496926E0,2.3560233E0,1.0501666E0,2.34654E0,1.1686785E0,6.5923886E0,4.016174E0,1.8008356E1,3.004131E1,2.9143143E0,1.0115069E0,1.3508836E0,4.3325987E0,1.210267E0,1.3394257E0,1.1407771E0,1.2152463E0,1.2309097E0,1.1156301E0,1.8279433E0,4.7644453E0,2.9142559E0,1.1019181E0,1.3158393E1,4.8499627E0,2.6116081E1,3.9252272E0,1.5256023E0,2.8069966E0],"tree_param":{"num_deleted":"0","num_feature":"21","num_nodes":"87","size_leaf_vector":"1"}},{"base_weights":[-6.0403533E-2,2.4793439E-1,-1.5901561E-1,-4.6029958E-1,4.4066888E-1,1.5158553E-1,-2.8261855E-1,1.6671999E-1,-9.0418404E-1,1.0871215E0,2.6210725E-1,-3.5983585E-2,2.576981E-1,-5.1760178E-2,-2.3542264E-1,2.1026798E-2,-1.3182322E-2,-5.1217385E-2,-1.3202341E-2,6.454948E-2,2.0962093E-2,-6.477791E-1,5.266171E-1,-4.3279397E-1,4.0841973E-1,-1.7875141E-1,-9.238204E-1,4.053763E-3,-4.3708306E-2,1.020999E0,3.2423377E-1,1.1978253E-2,-7.9040885E-1,1.229493E0,1.1040897E-1,1.8402785E-1,-2.470941E-1,-5.2182477E-2,-1.1796006E-2,6.9255665E-2,7.847755E-3,7.7362336E-2,9.7302777E-1,-4.5981538E-2,-1.2115835E-2,1.6905088E-2,7.152265E-2,-3.610135E-1,4.2809492E-1,-1.9030215E-1,7.463301E-1,-4.3038693E-1,-7.521456E-2,2.7391532E-1,-3.9676573E-2,6.714251E-2,4.4272933E-3,2.9015264E-2,-7.1087295E-1,9.2474353E-1,-1.3131455E-1,2.674281E-1,-3.782036E-2,-3.421375E-4,6.7344695E-2,-2.4294466E-1,-9.9431014E-1,4.0806484E-1,-2.9605323E-1,1.1750979E-3,4.9518134E-2,-4.638343E-2,5.5017895E-3,7.540391E-2,4.0985136E-3,-3.6985077E-2,2.1256356E-2,-2.5766158E-2,4.2699307E-2,-3.1549666E-2,2.8277647E-3,-5.5219498E-2,-1.109996E-2,4.357527E-3,4.768325E-2,-4.961044E-2,-2.3593863E-3],"categories":[],"categories_nodes":[],"categories_segments":[],"categories_sizes":[],"default_left":[0,0,0,0,0,0,0,0,0,0,1,0,0,0,0,0,0,0,0,0,0,0,0,0,0,0,0,0,0,0,0,0,0,0,0,0,0,0,0,0,0,0,0,0,0,0,0,0,0,0,0,1,0,0,0,0,0,0,0,0,0,0,0,0,0,0,0,0,1,0,0,0,0,0,0,0,0,0,0,0,0,0,0,0,0,0,0],"id":14,"left_children":[1,3,5,7,9,11,13,15,17,19,21,-1,23,-1,25,-1,-1,-1,-1,-1,-1,27,29,31,33,35,37,-1,-1,39,41,-1,43,45,47,49,51,-1,-1,-1,-1,53,55,-1,-1,-1,-1,57,59,61,63,65,67,69,-1,-1,-1,-1,71,73,75,77,-1,-1,-1,79,81,83,85,-1,-1,-1,-1,-1,-1,-1,-1,-1,-1,-1,-1,-1,-1,-1,-1,-1,-1],"loss_changes":[3.9250584E0,4.483156E0,3.7834864E0,2.1538591E0,2.6193542E0,2.809898E0,2.244309E0,5.2896106E-1,6.5638065E-2,1.5696955E-1,5.4030952E0,0E0,2.8869655E0,0E0,2.4568257E0,0E0,0E0,0E0,0E0,0E0,0E0,9.265075E-1,1.3545675E0,1.4279928E0,5.2205315E0,1.6157908E0,1.5538979E-1,0E0,0E0,1.175705E0,2.0740056E0,0E0,3.18048E-2,5.429182E-1,2.7244298E0,2.3760083E0,1.6601329E0,0E0,0E0,0E0,0E0,2.0672004E0,1.0626695E0,0E0,0E0,0E0,0E0,2.866265E0,3.0966525E0,2.0598176E0,2.0197618E0,2.4841528E0,3.209102E0,1.6918895E0,0E0,0E0,0E0,0E0,1.1487689E0,2.7262688E0,2.3158133E0,2.5991156E0,0E0,0E0,0E0,2.4387712E0,2.7423906E-1,1.5795586E0,3.4944592E0,0E0,0E0,0E0,0E0,0E0,0E0,0E0,0E0,0E0,0E0,0E0,0E0,0E0,0E0,0E0,0E0,0E0,0E0],"parents":[2147483647,0,0,1,1,2,2,3,3,4,4,5,5,6,6,7,7,8,8,9,9,10,10,12,12,14,14,21,21,22,22,23,23,24,24,25,25,26,26,29,29,30,30,32,32,33,33,34,34,35,35,36,36,41,41,42,42,47,47,48,48,49,49,50,50,51,51,52,52,53,53,58,58,59,59,60,60,61,61,65,65,66,66,67,67,68,68],"right_children":[2,4,6,8,10,12,14,16,18,20,22,-1,24,-1,26,-1,-1,-1,-1,-1,-1,28,30,32,34,36,38,-1,-1,40,42,-1,44,46,48,50,52,-1,-1,-1,-1,54,56,-1,-1,-1,-1,58,60,62,64,66,68,70,-1,-1,-1,-1,72,74,76,78,-1,-1,-1,80,82,84,86,-1,-1,-1,-1,-1,-1,-1,-1,-1,-1,-1,-1,-1,-1,-1,-1,-1,-1],"split_conditions":[4.7E1,2.8E1,8.759296E0,2.8428572E1,3.1214285E1,5E1,4.9E1,3.7E1,4.1E1,3.5E1,4.042857E1,-3.5983585E-2,5.5E1,-5.1760178E-2,8.6E1,2.1026798E-2,-1.3182322E-2,-5.1217385E-2,-1.3202341E-2,6.454948E-2,2.0962093E-2,3.3E1,4.3E1,4.8E1,5.9E1,5E1,1.171854E1,4.053763E-3,-4.3708306E-2,4.1E1,5.7E1,1.1978253E-2,5.9E1,5.65E1,7E1,5.62E1,6.7E1,-5.2182477E-2,-1.1796006E-2,6.9255665E-2,7.847755E-3,5.6464287E1,5.8666668E1,-4.5981538E-2,-1.2115835E-2,1.6905088E-2,7.152265E-2,5.9E1,7.650684E0,4.6866665E1,4.7E1,1.1375943E1,6.64E1,4.5E1,-3.9676573E-2,6.714251E-2,4.4272933E-3,2.9015264E-2,8.184682E0,7.3818184E1,7.5E1,4.2933334E1,-3.782036E-2,-3.421375E-4,6.7344695E-2,9.57561E0,7.152631E1,6.4E1,6.955E1,1.1750979E-3,4.9518134E-2,-4.638343E-2,5.5017895E-3,7.540391E-2,4.0985136E-3,-3.6985077E-2,2.1256356E-2,-2.5766158E-2,4.2699307E-2,-3.1549666E-2,2.8277647E-3,-5.5219498E-2,-1.109996E-2,4.357527E-3,4.768325E-2,-4.961044E-2,-2.3593863E-3],"split_indices":[8,5,17,12,10,6,8,6,8,6,12,0,5,0,5,0,0,0,0,0,0,6,12,5,8,6,17,0,0,8,10,0,8,10,6,11,8,0,0,0,0,11,11,0,0,0,0,5,17,11,6,17,12,8,0,0,0,0,17,11,5,11,0,0,0,17,11,5,11,0,0,0,0,0,0,0,0,0,0,0,0,0,0,0,0,0,0],"split_type":[0,0,0,0,0,0,0,0,0,0,0,0,0,0,0,0,0,0,0,0,0,0,0,0,0,0,0,0,0,0,0,0,0,0,0,0,0,0,0,0,0,0,0,0,0,0,0,0,0,0,0,0,0,0,0,0,0,0,0,0,0,0,0,0,0,0,0,0,0,0,0,0,0,0,0,0,0,0,0,0,0,0,0,0,0,0,0],"sum_hessian":[1.2679232E2,3.035737E1,9.643495E1,6.1970506E0,2.4160318E1,2.7387262E1,6.904769E1,2.8274605E0,3.3695903E0,4.127863E0,2.0032455E1,2.345656E0,2.5041605E1,2.839228E0,6.6208466E1,1.7929057E0,1.0345547E0,2.331695E0,1.0378952E0,2.447733E0,1.6801301E0,4.185566E0,1.58468895E1,4.1514297E0,2.0890177E1,6.2336384E1,3.872079E0,1.1440767E0,3.0414894E0,3.4280295E0,1.241886E1,1.5560226E0,2.5954068E0,4.730668E0,1.6159508E1,9.613407E0,5.2722977E1,2.8572125E0,1.0148664E0,1.9874461E0,1.4405833E0,9.806606E0,2.612254E0,1.5516931E0,1.0437137E0,1.3637893E0,3.366879E0,6.4507246E0,9.708783E0,6.168526E0,3.444881E0,2.4786537E1,2.7936438E1,8.560138E0,1.246469E0,1.4766136E0,1.1356401E0,1.5694201E0,4.8813043E0,4.7969437E0,4.9118395E0,3.7024615E0,2.4660647E0,1.9668462E0,1.4780346E0,1.9676939E1,5.1095996E0,8.496046E0,1.9440392E1,7.1084046E0,1.451733E0,3.7586288E0,1.1226755E0,2.368286E0,2.428658E0,2.1890707E0,2.7227688E0,1.6380109E0,2.0644507E0,8.089245E0,1.1587694E1,4.095828E0,1.0137715E0,6.0797544E0,2.4162922E0,4.332919E0,1.5107472E1],"tree_param":{"num_deleted":"0","num_feature":"21","num_nodes":"87","size_leaf_vector":"1"}},{"base_weights":[-5.1265853E-3,4.7150886E-1,-1.05543874E-1,1.0510254E-1,8.175389E-1,2.780441E-1,-1.8230492E-1,5.1291454E-1,-7.0637757E-1,1.0758332E0,-1.5006522E-2,6.8782866E-1,-2.578857E-1,1.0799936E-2,-3.1657538E-1,-1.4399111E-2,7.665271E-1,4.4807135E-3,-5.029537E-2,5.834646E-1,7.254764E-2,8.5581887E-1,-1.6542368E-2,2.512906E-1,-7.062217E-1,-3.830427E-2,5.4572366E-2,2.1993725E-1,-3.757661E-1,5.8553305E-2,3.630418E-1,5.5499025E-2,-6.5502584E-2,1.9159871E-1,1.2815236E0,8.165353E-1,-3.826947E-2,-5.0803956E-2,9.607595E-3,6.521319E-1,-6.0526893E-2,-2.68121E-1,6.9201475E-1,-4.3653125E-1,2.9237807E-1,-4.0186292E-1,5.618283E-2,-2.5201274E-2,2.2330774E-2,4.5252286E-2,-4.3007065E-2,7.715516E-2,6.4770165E-3,-3.76482E-4,6.5833315E-2,2.3811452E-1,6.2105455E-2,-3.2607788E-1,1.5876392E-1,2.2986865E-2,-4.0814552E-2,7.7920123E-3,4.4300716E-2,-3.020211E-1,-9.8485553E-1,-1.6035665E-2,4.320471E-2,-3.7904866E-2,6.9136815E-3,7.203512E-1,-2.4513116E-2,2.3420338E-1,-5.0365156E-1,7.3636013E-1,-3.0052602E-2,-4.6372905E-1,5.3386044E-2,-5.677862E-2,-4.668715E-1,6.641199E-2,-1.4050773E-2,-1.1471005E-2,3.313902E-2,-4.3341637E-2,-4.917964E-3,9.643936E-3,4.8072994E-2,-4.288077E-2,1.44849215E-2,-4.997708E-2,-1.4744893E-2,-2.329608E-2,2.0072507E-2,-3.635323E-2,-2.0325414E-3],"categories":[],"categories_nodes":[],"categories_segments":[],"categories_sizes":[],"default_left":[0,0,0,0,0,0,1,0,0,0,0,0,0,0,0,0,0,0,0,0,0,0,0,1,1,0,0,0,0,0,0,0,0,0,0,0,0,0,0,0,0,0,0,0,0,0,0,0,0,0,0,0,0,0,0,1,0,0,0,0,0,0,0,0,0,0,0,0,0,0,0,0,1,0,0,0,0,0,0,0,0,0,0,0,0,0,0,0,0,0,0,0,0,0,0],"id":15,"left_children":[1,3,5,7,9,11,13,15,17,19,-1,21,23,25,27,-1,29,-1,-1,31,-1,33,-1,35,37,-1,39,41,43,-1,45,-1,47,49,51,53,-1,-1,-1,55,57,59,61,63,65,67,-1,-1,-1,-1,-1,-1,-1,-1,-1,69,-1,71,73,-1,-1,-1,-1,75,77,-1,-1,-1,-1,79,-1,81,83,85,87,89,91,-1,93,-1,-1,-1,-1,-1,-1,-1,-1,-1,-1,-1,-1,-1,-1,-1,-1],"loss_changes":[6.14626E0,2.74758E0,3.17261E0,4.3342004E0,3.5984235E0,4.1470475E0,2.3097756E0,1.9608891E0,1.1475465E0,8.959446E-1,0E0,2.0827146E0,2.1314592E0,1.3153287E0,1.7499185E0,0E0,6.8149734E-1,0E0,0E0,2.0382056E0,0E0,2.3858619E0,0E0,3.3520198E0,1.5353463E0,0E0,2.542034E0,1.5328166E0,2.0623846E0,0E0,3.2695725E0,0E0,1.0157902E0,4.38813E0,1.4560909E0,1.4662666E0,0E0,0E0,0E0,1.1603906E0,1.8816949E0,1.8099823E0,2.0015407E-1,2.9538746E0,1.8795183E0,7.1123683E-1,0E0,0E0,0E0,0E0,0E0,0E0,0E0,0E0,0E0,2.0181942E0,0E0,1.564603E0,1.9725331E0,0E0,0E0,0E0,0E0,2.1420987E0,1.1323357E-1,0E0,0E0,0E0,0E0,2.355867E0,0E0,9.829959E-1,1.5866516E0,3.5836244E-1,4.069126E0,2.0051165E0,2.4315236E0,0E0,3.647697E-1,0E0,0E0,0E0,0E0,0E0,0E0,0E0,0E0,0E0,0E0,0E0,0E0,0E0,0E0,0E0,0E0],"parents":[2147483647,0,0,1,1,2,2,3,3,4,4,5,5,6,6,7,7,8,8,9,9,11,11,12,12,13,13,14,14,16,16,19,19,21,21,23,23,24,24,26,26,27,27,28,28,30,30,32,32,33,33,34,34,35,35,39,39,40,40,41,41,42,42,43,43,44,44,45,45,55,55,57,57,58,58,63,63,64,64,69,69,71,71,72,72,73,73,74,74,75,75,76,76,78,78],"right_children":[2,4,6,8,10,12,14,16,18,20,-1,22,24,26,28,-1,30,-1,-1,32,-1,34,-1,36,38,-1,40,42,44,-1,46,-1,48,50,52,54,-1,-1,-1,56,58,60,62,64,66,68,-1,-1,-1,-1,-1,-1,-1,-1,-1,70,-1,72,74,-1,-1,-1,-1,76,78,-1,-1,-1,-1,80,-1,82,84,86,88,90,92,-1,94,-1,-1,-1,-1,-1,-1,-1,-1,-1,-1,-1,-1,-1,-1,-1,-1],"split_conditions":[4.3E1,4.042857E1,1E0,3.4E1,5.7E1,6.8333336E1,9.160654E0,2.3E1,3.3E1,5E1,-1.5006522E-2,1.11853075E1,6.8E1,4.1E1,4.2E1,-1.4399111E-2,3E1,4.4807135E-3,-5.029537E-2,4.4857143E1,7.254764E-2,5.6896553E1,-1.6542368E-2,1.0020858E1,1.2280453E1,-3.830427E-2,5.2E1,5E1,1.4142136E1,5.8553305E-2,3.1E1,5.5499025E-2,4E1,5E1,6.671429E1,6.2E1,-3.826947E-2,-5.0803956E-2,9.607595E-3,5.75E1,6.4E1,4.7E1,4.32E1,1.2015786E1,7.055556E1,3.4E1,5.618283E-2,-2.5201274E-2,2.2330774E-2,4.5252286E-2,-4.3007065E-2,7.715516E-2,6.4770165E-3,-3.76482E-4,6.5833315E-2,8.580901E0,6.2105455E-2,5.525E1,6.2E1,2.2986865E-2,-4.0814552E-2,7.7920123E-3,4.4300716E-2,1.0796824E1,7.1E1,-1.6035665E-2,4.320471E-2,-3.7904866E-2,6.9136815E-3,5.4785713E1,-2.4513116E-2,5.7E1,7.788881E0,5.5E1,6.8666664E1,5.4E1,5.5E1,-5.677862E-2,6.8E1,6.641199E-2,-1.4050773E-2,-1.1471005E-2,3.313902E-2,-4.3341637E-2,-4.917964E-3,9.643936E-3,4.8072994E-2,-4.288077E-2,1.44849215E-2,-4.997708E-2,-1.4744893E-2,-2.329608E-2,2.0072507E-2,-3.635323E-2,-2.0325414E-3],"split_indices":[8,12,2,10,5,11,17,5,6,6,0,17,7,6,6,0,10,0,0,10,0,11,0,17,17,0,8,8,17,0,5,0,8,5,12,7,0,0,0,11,6,8,11,17,11,8,0,0,0,0,0,0,0,0,0,17,0,10,5,0,0,0,0,17,8,0,0,0,0,10,0,8,17,7,12,8,5,0,5,0,0,0,0,0,0,0,0,0,0,0,0,0,0,0,0],"split_type":[0,0,0,0,0,0,0,0,0,0,0,0,0,0,0,0,0,0,0,0,0,0,0,0,0,0,0,0,0,0,0,0,0,0,0,0,0,0,0,0,0,0,0,0,0,0,0,0,0,0,0,0,0,0,0,0,0,0,0,0,0,0,0,0,0,0,0,0,0,0,0,0,0,0,0,0,0,0,0,0,0,0,0,0,0,0,0,0,0,0,0,0,0,0,0],"sum_hessian":[1.2637534E2,2.1348444E1,1.050269E2,1.1002155E1,1.034629E1,1.7075506E1,8.795139E1,7.567174E0,3.4349809E0,8.434501E0,1.9117883E0,9.515952E0,7.559553E0,3.6449738E1,5.150166E1,1.7873347E0,5.7798395E0,1.1307808E0,2.3042002E0,4.7522607E0,3.6822402E0,8.306067E0,1.2098849E0,3.7453985E0,3.8141544E0,1.0640008E0,3.5385735E1,4.8475046E0,4.6654156E1,1.936204E0,3.8436356E0,2.2314637E0,2.520797E0,3.8105702E0,4.495497E0,2.533633E0,1.2117656E0,2.7385743E0,1.0755801E0,4.9614754E0,3.042426E1,2.5958354E0,2.2516694E0,4.308261E1,3.571546E0,2.1515806E0,1.692055E0,1.3664867E0,1.1543102E0,2.3535316E0,1.4570386E0,3.3869157E0,1.1085818E0,1.3289194E0,1.2047136E0,3.7403076E0,1.2211677E0,1.3540444E1,1.6883816E1,1.1844501E0,1.4113853E0,1.077363E0,1.1743064E0,3.584117E1,7.241438E0,1.9352624E0,1.6362838E0,1.0533435E0,1.098237E0,2.25702E0,1.4832875E0,3.1819215E0,1.0358522E1,3.4451406E0,1.3438675E1,2.4423742E1,1.1417429E1,4.6857433E0,2.5556948E0,1.2013208E0,1.0556993E0,1.7516863E0,1.4302353E0,4.8624825E0,5.49604E0,1.5528338E0,1.8923068E0,3.276493E0,1.0162182E1,4.672971E0,1.9750772E1,4.445775E0,6.971654E0,1.1486453E0,1.4070495E0],"tree_param":{"num_deleted":"0","num_feature":"21","num_nodes":"95","size_leaf_vector":"1"}},{"base_weights":[-5.04577E-2,9.054646E-2,-2.1850647E-1,-4.9568644E-1,1.3877362E-1,-5.3902215E-1,7.6593556E-3,7.319641E-2,-4.8262052E-2,7.797072E-2,7.814675E-1,3.233617E-2,-6.6821134E-1,4.156794E-1,-1.7583466E-1,-2.1646796E-2,2.975657E-2,5.21726E-1,-3.723076E-2,5.994864E-2,1.3010949E-1,-7.186065E-1,8.305264E-3,-7.156932E-2,8.006666E-1,3.208265E-1,-4.2062104E-1,-1.8795043E-2,7.255737E-1,3.9822003E-1,-1.3085864E-1,2.6619477E-2,-1.6972253E-2,-3.378994E-1,-8.525444E-1,2.85532E-2,-4.4267857E-1,-2.1217942E-1,7.031574E-2,-3.7367247E-2,5.6590873E-1,-8.1996906E-1,6.654962E-2,9.155492E-1,-2.5321634E-3,-3.2254193E-2,7.734073E-1,-5.0176376E-1,4.6650354E-2,4.8399065E-2,-7.3145676E-1,-5.935451E-2,-4.9836585E-1,-3.5539553E-2,8.845794E-3,2.1098651E-2,-3.8758557E-2,-1.814081E-2,7.9686797E-1,-5.7750106E-2,1.1907012E-1,4.160427E-1,-3.444808E-2,2.3902643E-1,1.1592197E0,1.1475435E-1,6.1031338E-2,4.1113192E-1,-7.2393423E-1,3.235604E-1,-3.9145365E-1,-2.5174895E-2,2.3575105E-2,-4.209354E-2,-1.1478135E-2,2.9211868E-2,-7.2286016E-1,-7.471686E-4,5.624144E-2,3.004161E-2,-1.9130154E-2,7.937734E-3,5.5495072E-2,-2.1683028E-2,4.2170182E-2,6.912138E-2,2.0257074E-2,2.8110955E-2,-1.3602127E-2,-1.3260259E-2,4.271051E-2,-3.242071E-3,-4.310169E-2,6.595436E-3,3.791621E-2,3.4233134E-2,-3.3309307E-2,7.814253E-3,-4.9840186E-2,2.4539636E-2,-1.9283505E-2],"categories":[],"categories_nodes":[],"categories_segments":[],"categories_sizes":[],"default_left":[0,0,1,0,0,0,0,0,0,0,0,0,0,0,0,0,0,0,0,0,0,0,0,0,0,0,0,0,0,0,0,0,0,1,1,0,0,0,0,0,0,0,0,0,0,0,0,0,0,0,0,0,1,0,0,0,0,0,0,0,0,0,0,0,0,0,0,0,0,0,0,0,0,0,0,0,0,0,0,0,0,0,0,0,0,0,0,0,0,0,0,0,0,0,0,0,0,0,0,0,0],"id":16,"left_children":[1,3,5,7,9,11,13,15,-1,17,19,-1,21,23,25,-1,-1,27,29,-1,31,33,-1,35,37,39,41,-1,43,45,47,-1,-1,49,51,-1,53,55,-1,-1,57,59,61,63,-1,-1,65,67,69,71,73,-1,75,-1,-1,-1,-1,-1,77,-1,79,81,-1,83,85,87,-1,89,91,93,95,-1,-1,-1,-1,-1,97,-1,-1,-1,-1,99,-1,-1,-1,-1,-1,-1,-1,-1,-1,-1,-1,-1,-1,-1,-1,-1,-1,-1,-1],"loss_changes":[2.9999292E0,2.0222337E0,4.184907E0,1.532008E0,2.4643872E0,4.089325E0,2.6785347E0,1.156683E0,0E0,3.0942962E0,1.3327706E0,0E0,1.0452242E0,2.1380985E0,3.1387649E0,0E0,0E0,2.553266E0,2.0370266E0,0E0,7.965267E-1,7.80386E-1,0E0,1.6393583E0,4.1498566E0,2.7068744E0,3.3586237E0,0E0,1.5944238E0,3.9681485E0,2.711115E0,0E0,0E0,1.1163197E0,1.1672401E0,0E0,8.3158726E-1,1.4761362E0,0E0,0E0,1.9332981E0,3.097301E0,2.5508912E0,1.1218667E0,0E0,0E0,1.9140401E0,2.9947813E0,3.5870695E0,1.2942548E0,5.344391E-3,0E0,2.5936303E0,0E0,0E0,0E0,0E0,0E0,1.7344809E0,0E0,1.0468881E0,1.8279623E0,0E0,1.7915255E0,4.463377E-1,8.320805E-1,0E0,1.1976887E0,9.5057344E-1,1.4018527E0,3.855815E0,0E0,0E0,0E0,0E0,0E0,2.0455241E0,0E0,0E0,0E0,0E0,1.1569496E0,0E0,0E0,0E0,0E0,0E0,0E0,0E0,0E0,0E0,0E0,0E0,0E0,0E0,0E0,0E0,0E0,0E0,0E0,0E0],"parents":[2147483647,0,0,1,1,2,2,3,3,4,4,5,5,6,6,7,7,9,9,10,10,12,12,13,13,14,14,17,17,18,18,20,20,21,21,23,23,24,24,25,25,26,26,28,28,29,29,30,30,33,33,34,34,36,36,37,37,40,40,41,41,42,42,43,43,46,46,47,47,48,48,49,49,50,50,52,52,58,58,60,60,61,61,63,63,64,64,65,65,67,67,68,68,69,69,70,70,76,76,81,81],"right_children":[2,4,6,8,10,12,14,16,-1,18,20,-1,22,24,26,-1,-1,28,30,-1,32,34,-1,36,38,40,42,-1,44,46,48,-1,-1,50,52,-1,54,56,-1,-1,58,60,62,64,-1,-1,66,68,70,72,74,-1,76,-1,-1,-1,-1,-1,78,-1,80,82,-1,84,86,88,-1,90,92,94,96,-1,-1,-1,-1,-1,98,-1,-1,-1,-1,100,-1,-1,-1,-1,-1,-1,-1,-1,-1,-1,-1,-1,-1,-1,-1,-1,-1,-1,-1],"split_conditions":[9.856108E0,2.8E1,1.0639962E1,3E0,9.551864E0,8.759296E0,1.1245512E1,3.5E1,